\data\
ngram 1=3978
ngram 2=7957
ngram 3=4081

\1-grams:
-1.216621	0	0.000000
-2.913726	1	0.000000
-2.617897	2	0.000000
-2.515786	3	0.000000
-2.587585	4	0.000000
-2.913726	5	0.000000
-2.656161	6	0.000000
-4.235945	63	0.000000
-3.105611	7	0.000000
-2.724062	8	0.000000
-0.536931	</s>	0.000000
-0.536931	<s>	0.000000
-4.235945	aanderson	0.000000
-4.059854	abbatt	0.000000
-4.235945	acer	0.000000
-4.235945	acherman	0.000000
-4.235945	ackerman	0.000000
-4.059854	ackins	0.000000
-4.059854	acosta	0.000000
-4.235945	adama	0.000000
-3.934915	adame	0.000000
-4.235945	adans	0.000000
-4.059854	aderson	0.000000
-4.235945	adkins	0.000000
-4.235945	afflerbach	0.000000
-4.235945	agles	0.000000
-4.235945	agne	0.000000
-4.235945	agnen	0.000000
-3.934915	agnes	0.000000
-4.235945	ailsworth	0.000000
-4.235945	alams	0.000000
-4.059854	albott	0.000000
-4.235945	albricht	0.000000
-3.934915	alcom	0.000000
-4.235945	alen	0.000000
-4.059854	aler	0.000000
-3.934915	alexande	0.000000
-4.235945	alexon	0.000000
-4.235945	alicea	0.000000
-4.235945	alison	0.000000
-4.235945	aliss	0.000000
-4.235945	aliver	0.000000
-4.059854	alkins	0.000000
-4.059854	alkinson	0.000000
-4.235945	allabaugh	0.000000
-4.235945	allan	0.000000
-3.934915	allem	0.000000
-3.758824	aller	0.000000
-4.059854	allgor	0.000000
-4.235945	allison	0.000000
-3.934915	allister	0.000000
-4.059854	allman	0.000000
-4.059854	almer	0.000000
-3.934915	alrich	0.000000
-4.059854	alsen	0.000000
-4.059854	alting	0.000000
-4.235945	alvarado	0.000000
-4.235945	alvare	0.000000
-4.235945	alvary	0.000000
-4.235945	alwood	0.000000
-3.838005	alxander	0.000000
-4.235945	amador	0.000000
-3.934915	ames	0.000000
-4.235945	amodt	0.000000
-4.235945	amos	0.000000
-3.934915	andersn	0.000000
-4.059854	andersson	0.000000
-4.235945	andett	0.000000
-4.235945	andrens	0.000000
-4.059854	andress	0.000000
-4.235945	andrrson	0.000000
-4.059854	anes	0.000000
-4.235945	angelico	0.000000
-4.235945	anmstrong	0.000000
-4.235945	anne	0.000000
-4.059854	annie	0.000000
-4.235945	annstrong	0.000000
-4.059854	anton	0.000000
-4.235945	aponte	0.000000
-3.934915	arce	0.000000
-4.235945	architect	0.000000
-4.059854	arkins	0.000000
-4.235945	arman	0.000000
-4.235945	armstring	0.000000
-4.059854	armstron	0.000000
-3.934915	arnald	0.000000
-3.838005	arnes	0.000000
-4.235945	arnstrong	0.000000
-4.059854	arth	0.000000
-4.235945	arther	0.000000
-4.235945	arthur	0.000000
-4.059854	arton	0.000000
-4.235945	ashburner	0.000000
-4.059854	ashley	0.000000
-4.059854	asker	0.000000
-4.235945	atkins	0.000000
-4.235945	atzinger	0.000000
-4.235945	audin	0.000000
-4.235945	aviles	0.000000
-4.235945	aviley	0.000000
-3.934915	ayala	0.000000
-4.235945	ayees	0.000000
-4.235945	ayers	0.000000
-3.934915	baber	0.000000
-4.235945	babrock	0.000000
-4.059854	bace	0.000000
-3.934915	bachman	0.000000
-4.235945	back	0.000000
-4.235945	backman	0.000000
-4.235945	baer	0.000000
-3.838005	baher	0.000000
-4.235945	baile	0.000000
-4.059854	baily	0.000000
-4.235945	bair	0.000000
-4.235945	baird	0.000000
-4.235945	balaguer	0.000000
-4.059854	balden	0.000000
-4.235945	baldin	0.000000
-4.235945	baldwin	0.000000
-4.235945	baldwine	0.000000
-3.934915	baler	0.000000
-4.235945	baley	0.000000
-4.059854	ballard	0.000000
-4.235945	balle	0.000000
-4.235945	baller	0.000000
-4.235945	ballinger	0.000000
-4.059854	ballon	0.000000
-4.235945	balson	0.000000
-4.235945	balt	0.000000
-4.235945	bancom	0.000000
-4.235945	band	0.000000
-4.235945	bane	0.000000
-4.235945	bankston	0.000000
-4.235945	banman	0.000000
-4.235945	bann	0.000000
-4.059854	bannett	0.000000
-4.235945	banr	0.000000
-4.235945	banton	0.000000
-4.059854	barbaur	0.000000
-3.838005	barbee	0.000000
-4.235945	barbers	0.000000
-4.235945	barden	0.000000
-4.059854	barders	0.000000
-4.235945	barer	0.000000
-4.235945	bares	0.000000
-4.235945	baris	0.000000
-3.934915	barken	0.000000
-4.235945	barker	0.000000
-4.059854	barkes	0.000000
-4.235945	barlaw	0.000000
-3.838005	barler	0.000000
-4.235945	barnett	0.000000
-4.059854	barney	0.000000
-4.235945	barns	0.000000
-4.059854	baron	0.000000
-4.235945	barral	0.000000
-4.235945	barres	0.000000
-3.838005	barson	0.000000
-4.235945	bart	0.000000
-4.235945	bartholomen	0.000000
-4.059854	barti	0.000000
-4.235945	bartlet	0.000000
-4.059854	bartlett	0.000000
-4.235945	bartola	0.000000
-4.235945	barts	0.000000
-4.235945	bary	0.000000
-4.235945	baster	0.000000
-4.235945	bate	0.000000
-4.235945	bater	0.000000
-4.059854	bates	0.000000
-4.235945	batler	0.000000
-4.235945	baud	0.000000
-4.235945	bautley	0.000000
-4.059854	baver	0.000000
-4.059854	bawer	0.000000
-4.235945	baxber	0.000000
-4.235945	baxler	0.000000
-4.235945	bayerl	0.000000
-4.235945	bayes	0.000000
-4.059854	bayle	0.000000
-4.235945	bayler	0.000000
-4.235945	bayley	0.000000
-4.235945	baynton	0.000000
-3.934915	beach	0.000000
-4.235945	beack	0.000000
-4.235945	beake	0.000000
-4.059854	bear	0.000000
-4.235945	beard	0.000000
-4.059854	beat	0.000000
-4.235945	beatly	0.000000
-4.235945	beaunegard	0.000000
-4.059854	beaver	0.000000
-4.059854	bechman	0.000000
-4.235945	becket	0.000000
-4.235945	becktold	0.000000
-4.235945	bee	0.000000
-4.235945	been	0.000000
-4.235945	beer	0.000000
-4.059854	beger	0.000000
-4.059854	bellen	0.000000
-4.235945	beller	0.000000
-4.235945	belson	0.000000
-4.059854	belt	0.000000
-4.235945	belzner	0.000000
-4.235945	benaway	0.000000
-4.235945	benediet	0.000000
-4.235945	benely	0.000000
-4.235945	beng	0.000000
-4.235945	benjamin	0.000000
-4.235945	bennell	0.000000
-4.235945	benry	0.000000
-4.235945	bens	0.000000
-4.059854	bentley	0.000000
-4.059854	benton	0.000000
-4.235945	berch	0.000000
-4.235945	berg	0.000000
-4.235945	berge	0.000000
-3.838005	berger	0.000000
-4.059854	bergeson	0.000000
-4.235945	berill	0.000000
-4.235945	berker	0.000000
-4.059854	berman	0.000000
-4.235945	bern	0.000000
-4.059854	bernard	0.000000
-4.235945	bernbe	0.000000
-4.235945	berner	0.000000
-4.059854	bernes	0.000000
-4.059854	bernis	0.000000
-4.235945	bernsten	0.000000
-3.691877	berr	0.000000
-4.059854	bers	0.000000
-4.235945	berson	0.000000
-4.059854	bert	0.000000
-4.059854	bery	0.000000
-4.059854	beshop	0.000000
-4.235945	bess	0.000000
-4.235945	bessie	0.000000
-3.934915	best	0.000000
-4.235945	betler	0.000000
-4.235945	better	0.000000
-3.934915	betty	0.000000
-4.235945	beulley	0.000000
-4.059854	beyer	0.000000
-3.934915	bichop	0.000000
-4.235945	bick	0.000000
-3.934915	bicker	0.000000
-4.235945	bigel	0.000000
-4.059854	bille	0.000000
-4.235945	bilse	0.000000
-4.235945	bilyen	0.000000
-4.235945	binkly	0.000000
-4.235945	binson	0.000000
-4.059854	binton	0.000000
-4.235945	bird	0.000000
-4.235945	birtwistle	0.000000
-4.235945	bishop	0.000000
-4.235945	bishops	0.000000
-4.235945	bissing	0.000000
-4.235945	blachman	0.000000
-3.934915	blachwell	0.000000
-4.235945	blackeell	0.000000
-4.235945	blackweel	0.000000
-4.059854	blackwell	0.000000
-4.059854	blahe	0.000000
-4.059854	blain	0.000000
-4.059854	blair	0.000000
-4.059854	blan	0.000000
-4.235945	blanchard	0.000000
-4.235945	bland	0.000000
-4.059854	blank	0.000000
-4.235945	blant	0.000000
-4.235945	blecker	0.000000
-4.235945	blek	0.000000
-4.235945	bloch	0.000000
-4.059854	blown	0.000000
-4.235945	bluc	0.000000
-4.235945	blund	0.000000
-4.235945	boath	0.000000
-4.059854	bobb	0.000000
-4.059854	bochm	0.000000
-4.235945	bochmer	0.000000
-4.235945	bodge	0.000000
-4.235945	boeglin	0.000000
-4.235945	boger	0.000000
-4.235945	bogge	0.000000
-4.235945	bogues	0.000000
-4.235945	boldon	0.000000
-4.235945	bolenger	0.000000
-3.838005	boll	0.000000
-4.059854	bolton	0.000000
-4.059854	bomers	0.000000
-4.059854	boner	0.000000
-4.235945	boners	0.000000
-4.235945	bong	0.000000
-3.934915	bonilla	0.000000
-4.235945	bonks	0.000000
-4.059854	bonnett	0.000000
-4.235945	bonnetti	0.000000
-4.059854	bonton	0.000000
-4.235945	boody	0.000000
-4.235945	booke	0.000000
-4.235945	bookkeeping	0.000000
-4.235945	boone	0.000000
-4.235945	boooks	0.000000
-4.235945	boott	0.000000
-4.235945	boowell	0.000000
-4.235945	boown	0.000000
-3.934915	borber	0.000000
-4.235945	borch	0.000000
-4.235945	bore	0.000000
-4.235945	borg	0.000000
-4.235945	borgel	0.000000
-4.235945	bork	0.000000
-4.235945	borker	0.000000
-4.235945	borman	0.000000
-4.059854	borner	0.000000
-3.934915	bornes	0.000000
-4.235945	bornett	0.000000
-4.235945	borth	0.000000
-4.235945	borton	0.000000
-4.235945	bosin	0.000000
-4.059854	bott	0.000000
-4.235945	bouman	0.000000
-3.934915	bourgue	0.000000
-4.235945	bowe	0.000000
-4.235945	bowell	0.000000
-3.934915	bowens	0.000000
-3.934915	bower	0.000000
-4.235945	bowers	0.000000
-4.235945	bowes	0.000000
-3.934915	bowler	0.000000
-4.235945	boyce	0.000000
-4.235945	boyde	0.000000
-4.059854	boye	0.000000
-4.059854	boyee	0.000000
-4.059854	boyer	0.000000
-4.235945	boyes	0.000000
-4.235945	boylon	0.000000
-4.235945	boyns	0.000000
-4.235945	brach	0.000000
-4.059854	brack	0.000000
-4.235945	brade	0.000000
-4.235945	braderick	0.000000
-4.235945	bradford	0.000000
-4.235945	bradie	0.000000
-4.235945	bradle	0.000000
-4.235945	bradly	0.000000
-4.235945	brady	0.000000
-4.235945	brake	0.000000
-3.934915	bran	0.000000
-3.838005	brand	0.000000
-4.235945	brandan	0.000000
-4.235945	branden	0.000000
-4.235945	brann	0.000000
-3.934915	brant	0.000000
-4.235945	bratty	0.000000
-4.235945	braun	0.000000
-4.235945	braut	0.000000
-4.235945	brautley	0.000000
-4.059854	braver	0.000000
-4.059854	braw	0.000000
-4.059854	bray	0.000000
-4.235945	brazie	0.000000
-4.235945	brean	0.000000
-4.059854	breen	0.000000
-4.059854	breman	0.000000
-4.059854	bremer	0.000000
-4.059854	brener	0.000000
-4.235945	brenman	0.000000
-3.934915	brenn	0.000000
-3.934915	brennan	0.000000
-4.235945	brennen	0.000000
-4.235945	brenner	0.000000
-4.235945	brenson	0.000000
-3.934915	brerman	0.000000
-4.059854	brewen	0.000000
-4.059854	brewn	0.000000
-4.235945	brggs	0.000000
-4.059854	brice	0.000000
-4.235945	brich	0.000000
-4.235945	brick	0.000000
-4.235945	brickmason	0.000000
-4.059854	bridges	0.000000
-4.235945	briece	0.000000
-4.059854	bright	0.000000
-4.235945	brin	0.000000
-3.934915	briston	0.000000
-4.059854	britt	0.000000
-4.059854	britton	0.000000
-4.235945	broch	0.000000
-3.934915	brodley	0.000000
-4.235945	brogg	0.000000
-4.235945	brom	0.000000
-4.235945	bromer	0.000000
-4.235945	bronn	0.000000
-4.059854	broon	0.000000
-4.235945	broun	0.000000
-4.235945	browen	0.000000
-4.235945	browing	0.000000
-4.059854	browley	0.000000
-3.691877	browne	0.000000
-4.235945	browner	0.000000
-4.235945	browning	0.000000
-4.235945	brownler	0.000000
-4.235945	broyn	0.000000
-4.059854	brrown	0.000000
-3.838005	bruce	0.000000
-4.235945	bruch	0.000000
-4.235945	brum	0.000000
-4.235945	bruman	0.000000
-3.934915	brun	0.000000
-4.059854	brune	0.000000
-4.235945	brunell	0.000000
-4.235945	bruner	0.000000
-4.059854	brunn	0.000000
-4.235945	bruno	0.000000
-4.059854	bruns	0.000000
-4.059854	bryan	0.000000
-4.235945	bryer	0.000000
-4.235945	buce	0.000000
-4.059854	buchanan	0.000000
-4.235945	bucher	0.000000
-4.235945	buchley	0.000000
-4.059854	buck	0.000000
-3.691877	bucke	0.000000
-4.059854	buckler	0.000000
-4.235945	buckminster	0.000000
-4.235945	buckner	0.000000
-3.934915	bugh	0.000000
-4.235945	bugos	0.000000
-4.235945	buisson	0.000000
-4.235945	buke	0.000000
-4.235945	buker	0.000000
-4.059854	bull	0.000000
-3.838005	bullack	0.000000
-4.235945	bulloch	0.000000
-3.934915	bullock	0.000000
-4.235945	bulter	0.000000
-4.235945	bunker	0.000000
-4.235945	bunn	0.000000
-3.934915	buns	0.000000
-4.235945	burby	0.000000
-4.235945	burch	0.000000
-4.235945	burd	0.000000
-4.235945	burdich	0.000000
-3.934915	burger	0.000000
-3.934915	burgers	0.000000
-4.059854	burges	0.000000
-4.235945	burgess	0.000000
-4.059854	burgos	0.000000
-3.838005	burh	0.000000
-3.838005	burks	0.000000
-4.235945	burn	0.000000
-4.235945	burna	0.000000
-4.235945	burne	0.000000
-4.235945	burnell	0.000000
-3.934915	burner	0.000000
-3.934915	burnett	0.000000
-4.235945	burno	0.000000
-4.235945	burrell	0.000000
-3.838005	burrett	0.000000
-4.059854	burris	0.000000
-4.059854	burrs	0.000000
-4.235945	burry	0.000000
-4.235945	burs	0.000000
-3.934915	burt	0.000000
-4.059854	bury	0.000000
-4.235945	buske	0.000000
-4.235945	buskley	0.000000
-4.059854	bust	0.000000
-4.059854	buston	0.000000
-4.235945	butherford	0.000000
-4.235945	butlen	0.000000
-3.838005	butles	0.000000
-4.235945	button	0.000000
-4.235945	butts	0.000000
-4.235945	buxton	0.000000
-3.934915	byant	0.000000
-4.235945	bymun	0.000000
-4.235945	byrd	0.000000
-3.934915	byrne	0.000000
-2.507591	c	0.000000
-3.495582	c2	0.000000
-4.235945	c3	0.000000
-4.235945	c6	0.000000
-4.059854	cachran	0.000000
-3.758824	cain	0.000000
-4.059854	caker	0.000000
-3.934915	calbert	0.000000
-4.059854	calderon	0.000000
-4.235945	cales	0.000000
-4.059854	caley	0.000000
-4.235945	callaghen	0.000000
-4.235945	calle	0.000000
-4.059854	callen	0.000000
-4.059854	caller	0.000000
-4.059854	calley	0.000000
-4.235945	callie	0.000000
-4.235945	callister	0.000000
-4.235945	calloway	0.000000
-4.235945	cally	0.000000
-4.235945	calman	0.000000
-4.235945	caloway	0.000000
-3.934915	calson	0.000000
-3.838005	calter	0.000000
-4.059854	calvin	0.000000
-4.235945	camb	0.000000
-4.059854	cambell	0.000000
-3.934915	cambert	0.000000
-4.235945	cambs	0.000000
-4.235945	camon	0.000000
-3.838005	camp	0.000000
-4.059854	campbel	0.000000
-4.059854	campell	0.000000
-4.059854	camphell	0.000000
-4.059854	camps	0.000000
-4.059854	campton	0.000000
-3.838005	candell	0.000000
-4.235945	candless	0.000000
-3.934915	caney	0.000000
-4.059854	canley	0.000000
-4.235945	cann	0.000000
-3.934915	canner	0.000000
-4.235945	canon	0.000000
-4.059854	canr	0.000000
-4.235945	cant	0.000000
-4.235945	canton	0.000000
-4.235945	caper	0.000000
-4.059854	caraballo	0.000000
-4.235945	caranaugh	0.000000
-4.235945	carber	0.000000
-4.059854	carbett	0.000000
-4.235945	carcia	0.000000
-4.235945	card	0.000000
-4.235945	carden	0.000000
-4.235945	cardona	0.000000
-4.235945	caren	0.000000
-4.059854	carle	0.000000
-4.235945	carlen	0.000000
-4.235945	carlin	0.000000
-4.235945	carman	0.000000
-4.235945	carmichall	0.000000
-4.235945	carmon	0.000000
-4.059854	carnell	0.000000
-4.059854	carner	0.000000
-4.235945	carnett	0.000000
-4.059854	carney	0.000000
-4.059854	carpente	0.000000
-3.457794	carpenter	0.000000
-4.059854	carpentry	0.000000
-3.758824	carper	0.000000
-4.235945	carr	0.000000
-4.235945	carran	0.000000
-3.838005	carrell	0.000000
-4.235945	carrer	0.000000
-4.235945	carrett	0.000000
-3.838005	carrion	0.000000
-4.235945	carris	0.000000
-4.235945	carrison	0.000000
-4.235945	carron	0.000000
-4.059854	carsen	0.000000
-3.934915	cart	0.000000
-4.235945	carten	0.000000
-4.059854	cartin	0.000000
-3.934915	cartle	0.000000
-4.235945	cartney	0.000000
-4.235945	caruba	0.000000
-3.934915	carvey	0.000000
-4.059854	case	0.000000
-4.235945	caselle	0.000000
-4.235945	caselman	0.000000
-4.235945	casey	0.000000
-4.235945	cash	0.000000
-3.838005	casley	0.000000
-4.235945	castello	0.000000
-3.934915	castman	0.000000
-4.059854	caston	0.000000
-3.934915	castro	0.000000
-4.059854	cater	0.000000
-4.235945	catherine	0.000000
-4.059854	cauch	0.000000
-4.059854	cauter	0.000000
-4.059854	cautrell	0.000000
-4.235945	cave	0.000000
-4.235945	caward	0.000000
-4.235945	caxe	0.000000
-4.059854	cay	0.000000
-4.235945	cayle	0.000000
-4.235945	ceis	0.000000
-4.059854	chaffer	0.000000
-4.235945	chaler	0.000000
-4.235945	chaltin	0.000000
-4.235945	chamber	0.000000
-4.235945	champagne	0.000000
-3.934915	chanbers	0.000000
-3.838005	chandler	0.000000
-3.934915	chane	0.000000
-4.235945	chaney	0.000000
-4.235945	chara	0.000000
-3.934915	chare	0.000000
-4.059854	chark	0.000000
-4.235945	charlotte	0.000000
-4.235945	chaudler	0.000000
-3.934915	chave	0.000000
-4.235945	chavey	0.000000
-4.235945	chaw	0.000000
-4.059854	cheek	0.000000
-4.059854	cherry	0.000000
-4.235945	chill	0.000000
-4.235945	chlan	0.000000
-4.235945	chopman	0.000000
-4.059854	christenson	0.000000
-4.059854	christianson	0.000000
-4.235945	church	0.000000
-4.235945	cielinski	0.000000
-4.235945	cintron	0.000000
-4.235945	clair	0.000000
-4.059854	clandler	0.000000
-3.838005	clank	0.000000
-4.059854	clare	0.000000
-4.235945	clarl	0.000000
-3.934915	clarp	0.000000
-4.235945	clary	0.000000
-4.235945	claudia	0.000000
-4.235945	clauson	0.000000
-4.059854	clauton	0.000000
-4.235945	clauts	0.000000
-4.235945	clay	0.000000
-4.059854	clemants	0.000000
-4.235945	clemets	0.000000
-4.059854	clendon	0.000000
-4.059854	clifford	0.000000
-4.059854	clintock	0.000000
-4.059854	cllen	0.000000
-4.235945	clork	0.000000
-4.059854	clurk	0.000000
-4.235945	cmos	0.000000
-4.235945	cnant	0.000000
-4.235945	cobe	0.000000
-4.235945	cochram	0.000000
-4.059854	cock	0.000000
-4.235945	coers	0.000000
-4.059854	coff	0.000000
-4.235945	coffer	0.000000
-4.235945	coffey	0.000000
-4.059854	cohe	0.000000
-4.235945	cohill	0.000000
-4.235945	coke	0.000000
-4.235945	coken	0.000000
-4.235945	cola	0.000000
-3.838005	colan	0.000000
-4.059854	colen	0.000000
-3.934915	coley	0.000000
-3.758824	coll	0.000000
-4.235945	collens	0.000000
-4.235945	collie	0.000000
-4.059854	collier	0.000000
-4.059854	collman	0.000000
-4.235945	colo	0.000000
-4.235945	colonel	0.000000
-3.934915	colton	0.000000
-4.235945	colvin	0.000000
-4.059854	coman	0.000000
-4.235945	comber	0.000000
-4.235945	comer	0.000000
-4.235945	comeron	0.000000
-3.934915	comes	0.000000
-4.059854	comles	0.000000
-4.235945	comner	0.000000
-4.059854	comp	0.000000
-4.235945	conaday	0.000000
-4.235945	conch	0.000000
-4.235945	cone	0.000000
-4.235945	conea	0.000000
-4.235945	conell	0.000000
-4.235945	coner	0.000000
-4.059854	cones	0.000000
-4.235945	coney	0.000000
-4.059854	congers	0.000000
-4.059854	conley	0.000000
-3.934915	conlon	0.000000
-4.059854	connar	0.000000
-3.934915	connay	0.000000
-4.235945	conne	0.000000
-3.934915	connel	0.000000
-4.059854	connelly	0.000000
-4.235945	conners	0.000000
-4.235945	conney	0.000000
-4.059854	connick	0.000000
-3.934915	connolly	0.000000
-4.235945	conole	0.000000
-4.059854	conrad	0.000000
-4.235945	conray	0.000000
-4.059854	conter	0.000000
-4.059854	conway	0.000000
-4.235945	coob	0.000000
-4.059854	coody	0.000000
-4.235945	coofer	0.000000
-2.628490	cook	0.000000
-4.235945	cooke	0.000000
-3.934915	cooker	0.000000
-4.059854	cookley	0.000000
-3.934915	cool	0.000000
-4.235945	coole	0.000000
-4.235945	cooley	0.000000
-4.235945	coon	0.000000
-4.235945	cooner	0.000000
-3.934915	cooney	0.000000
-4.235945	coopen	0.000000
-4.059854	coot	0.000000
-3.934915	cope	0.000000
-4.059854	copp	0.000000
-4.235945	copps	0.000000
-3.758824	corbett	0.000000
-3.934915	corey	0.000000
-4.235945	corl	0.000000
-4.059854	corley	0.000000
-4.235945	corlez	0.000000
-3.934915	corlson	0.000000
-4.059854	cormick	0.000000
-4.235945	corn	0.000000
-3.934915	corney	0.000000
-4.235945	corpenter	0.000000
-4.235945	corper	0.000000
-4.235945	corr	0.000000
-4.235945	corsant	0.000000
-4.235945	cory	0.000000
-3.758824	cose	0.000000
-4.059854	cosh	0.000000
-3.934915	cosley	0.000000
-4.059854	cosper	0.000000
-3.934915	costell	0.000000
-4.235945	costelle	0.000000
-4.235945	costello	0.000000
-4.235945	coster	0.000000
-4.235945	coswell	0.000000
-4.235945	cote	0.000000
-4.235945	coto	0.000000
-4.059854	coton	0.000000
-3.838005	cotter	0.000000
-2.829405	cotton	0.000000
-4.235945	couch	0.000000
-4.235945	couley	0.000000
-4.235945	coupler	0.000000
-4.235945	courad	0.000000
-4.235945	court	0.000000
-4.235945	cousino	0.000000
-4.059854	coutney	0.000000
-3.934915	covey	0.000000
-4.059854	cowan	0.000000
-4.235945	cower	0.000000
-4.235945	coxter	0.000000
-4.235945	cracker	0.000000
-4.235945	craff	0.000000
-3.934915	craft	0.000000
-4.235945	craham	0.000000
-3.691877	cram	0.000000
-4.235945	crame	0.000000
-3.838005	cramer	0.000000
-4.235945	cramford	0.000000
-4.059854	cran	0.000000
-4.235945	crasby	0.000000
-4.235945	crasley	0.000000
-4.235945	cratt	0.000000
-4.059854	crauch	0.000000
-4.235945	craue	0.000000
-4.235945	crauford	0.000000
-4.235945	crauge	0.000000
-4.059854	crauston	0.000000
-4.235945	crave	0.000000
-4.059854	craw	0.000000
-4.059854	crawley	0.000000
-3.838005	creen	0.000000
-4.235945	crettenden	0.000000
-4.235945	crey	0.000000
-4.235945	cribley	0.000000
-4.235945	crice	0.000000
-4.059854	crickson	0.000000
-4.235945	criffin	0.000000
-4.059854	crobb	0.000000
-4.235945	crocker	0.000000
-3.934915	crone	0.000000
-4.235945	crook	0.000000
-4.059854	crosley	0.000000
-4.235945	crovch	0.000000
-4.059854	crovin	0.000000
-4.235945	crow	0.000000
-4.059854	crowell	0.000000
-3.934915	crowford	0.000000
-4.235945	crrie	0.000000
-3.934915	crug	0.000000
-4.235945	crum	0.000000
-4.235945	cuey	0.000000
-4.059854	cull	0.000000
-3.934915	cullen	0.000000
-4.059854	culler	0.000000
-4.235945	cullett	0.000000
-4.235945	cummings	0.000000
-4.059854	cumnings	0.000000
-4.059854	cuningham	0.000000
-3.934915	cunmings	0.000000
-4.059854	cunnigham	0.000000
-4.235945	cunningham	0.000000
-4.235945	cunnningham	0.000000
-4.235945	curley	0.000000
-4.235945	curner	0.000000
-4.235945	curr	0.000000
-4.059854	curran	0.000000
-4.235945	curris	0.000000
-4.235945	curry	0.000000
-3.838005	curter	0.000000
-3.838005	curtin	0.000000
-4.059854	cury	0.000000
-3.838005	custin	0.000000
-4.235945	cutler	0.000000
-4.235945	cutter	0.000000
-4.059854	dage	0.000000
-4.235945	dailey	0.000000
-4.235945	dake	0.000000
-4.235945	daker	0.000000
-4.235945	dakes	0.000000
-4.235945	dakos	0.000000
-4.059854	dale	0.000000
-4.235945	dall	0.000000
-4.235945	dalman	0.000000
-4.059854	dalmer	0.000000
-4.235945	dalson	0.000000
-4.059854	dalton	0.000000
-3.838005	daly	0.000000
-4.059854	damie	0.000000
-4.059854	damiels	0.000000
-4.235945	damils	0.000000
-3.934915	damson	0.000000
-3.934915	danders	0.000000
-4.059854	dandson	0.000000
-4.059854	dane	0.000000
-3.934915	daney	0.000000
-4.235945	danie	0.000000
-3.934915	danner	0.000000
-3.934915	dans	0.000000
-4.059854	danson	0.000000
-4.059854	darey	0.000000
-4.235945	daris	0.000000
-4.059854	darker	0.000000
-4.235945	darley	0.000000
-4.235945	darr	0.000000
-4.235945	darth	0.000000
-3.934915	dary	0.000000
-4.235945	dass	0.000000
-4.235945	daten	0.000000
-4.235945	datton	0.000000
-4.059854	daty	0.000000
-3.691877	dauglas	0.000000
-3.838005	davenfort	0.000000
-4.059854	davengort	0.000000
-4.235945	davenport	0.000000
-4.059854	daver	0.000000
-4.235945	davey	0.000000
-4.235945	davi	0.000000
-4.059854	davidson	0.000000
-4.059854	davie	0.000000
-4.059854	daviels	0.000000
-4.235945	davila	0.000000
-3.934915	davin	0.000000
-3.934915	davison	0.000000
-4.059854	daviss	0.000000
-4.235945	davita	0.000000
-4.235945	davitt	0.000000
-4.235945	davson	0.000000
-4.059854	dawyer	0.000000
-4.235945	day	0.000000
-4.235945	dc	0.000000
-3.423032	de	0.000000
-3.838005	deal	0.000000
-4.235945	deay	0.000000
-4.235945	debaum	0.000000
-4.235945	deboer	0.000000
-4.235945	decarli	0.000000
-4.059854	decarlo	0.000000
-3.934915	decher	0.000000
-4.235945	deckerson	0.000000
-4.235945	deckey	0.000000
-4.235945	dedina	0.000000
-4.059854	deeker	0.000000
-4.235945	deetz	0.000000
-4.235945	dehart	0.000000
-3.838005	dehaven	0.000000
-3.758824	dejesus	0.000000
-4.059854	dela	0.000000
-4.059854	dele	0.000000
-4.235945	delf	0.000000
-4.235945	delgado	0.000000
-4.059854	dell	0.000000
-4.059854	dellard	0.000000
-4.235945	deller	0.000000
-3.934915	dellers	0.000000
-3.691877	dellon	0.000000
-4.059854	delvalle	0.000000
-4.235945	demarais	0.000000
-4.059854	demarco	0.000000
-4.059854	demars	0.000000
-4.235945	demoss	0.000000
-4.059854	dencan	0.000000
-4.235945	denel	0.000000
-4.235945	denham	0.000000
-3.934915	denis	0.000000
-4.235945	denne	0.000000
-4.059854	dennes	0.000000
-4.235945	denniss	0.000000
-4.059854	densen	0.000000
-3.838005	depen	0.000000
-4.235945	derlin	0.000000
-4.235945	dermott	0.000000
-4.235945	derry	0.000000
-4.059854	desing	0.000000
-4.235945	devine	0.000000
-4.235945	devison	0.000000
-4.235945	devitt	0.000000
-3.934915	devore	0.000000
-4.059854	devyer	0.000000
-4.235945	dewall	0.000000
-4.235945	dewater	0.000000
-4.235945	dewell	0.000000
-4.235945	deyer	0.000000
-4.059854	deyoung	0.000000
-4.235945	diag	0.000000
-4.235945	diay	0.000000
-4.059854	diazy	0.000000
-4.235945	dich	0.000000
-3.934915	dickenson	0.000000
-4.235945	dicker	0.000000
-4.235945	dickerson	0.000000
-4.235945	dickins	0.000000
-4.059854	dickinson	0.000000
-3.838005	dickson	0.000000
-3.934915	dietrick	0.000000
-4.059854	dill	0.000000
-4.235945	dillen	0.000000
-4.235945	dillon	0.000000
-4.235945	dinen	0.000000
-4.059854	dison	0.000000
-4.235945	ditts	0.000000
-4.059854	dixan	0.000000
-4.059854	dixen	0.000000
-4.235945	dixter	0.000000
-4.235945	dlugos	0.000000
-4.235945	dodge	0.000000
-3.934915	dodson	0.000000
-4.059854	dohl	0.000000
-3.838005	dolan	0.000000
-4.235945	dolby	0.000000
-4.235945	dole	0.000000
-4.235945	dolley	0.000000
-4.235945	doly	0.000000
-3.934915	donahne	0.000000
-4.235945	donal	0.000000
-4.235945	donald	0.000000
-3.934915	donaugh	0.000000
-4.235945	donavan	0.000000
-3.934915	donchue	0.000000
-4.059854	done	0.000000
-4.059854	donell	0.000000
-4.059854	donelly	0.000000
-4.235945	donks	0.000000
-4.235945	donnelly	0.000000
-4.235945	donney	0.000000
-4.235945	donoran	0.000000
-4.059854	donough	0.000000
-4.235945	donovan	0.000000
-4.235945	dood	0.000000
-4.235945	dook	0.000000
-4.059854	doran	0.000000
-4.235945	dore	0.000000
-4.235945	dorman	0.000000
-4.235945	dorn	0.000000
-3.934915	dorothy	0.000000
-3.838005	dorsey	0.000000
-4.059854	doss	0.000000
-4.235945	dougall	0.000000
-4.235945	doughter	0.000000
-4.059854	dougles	0.000000
-4.059854	douning	0.000000
-3.934915	douns	0.000000
-4.235945	dovan	0.000000
-4.235945	dove	0.000000
-4.235945	doves	0.000000
-4.059854	dovey	0.000000
-4.235945	dowel	0.000000
-3.582732	dowell	0.000000
-4.235945	dowes	0.000000
-4.235945	downey	0.000000
-4.059854	dowson	0.000000
-4.235945	dowville	0.000000
-4.235945	drahe	0.000000
-4.235945	dran	0.000000
-4.235945	draz	0.000000
-4.235945	dresser	0.000000
-3.934915	droke	0.000000
-4.235945	dubais	0.000000
-4.235945	dube	0.000000
-4.059854	dubois	0.000000
-3.934915	dubose	0.000000
-3.934915	ducham	0.000000
-4.059854	dudley	0.000000
-4.235945	dudly	0.000000
-3.934915	duff	0.000000
-4.235945	duglas	0.000000
-4.235945	duhm	0.000000
-3.934915	dulton	0.000000
-3.934915	duman	0.000000
-4.059854	dunber	0.000000
-4.235945	duncan	0.000000
-4.235945	dune	0.000000
-4.059854	dunean	0.000000
-4.235945	dunhan	0.000000
-4.235945	dunkel	0.000000
-3.934915	dunlaf	0.000000
-4.059854	dunlap	0.000000
-4.235945	dunlop	0.000000
-4.059854	dunne	0.000000
-4.235945	duraute	0.000000
-4.235945	durham	0.000000
-3.838005	duscoll	0.000000
-4.059854	duyer	0.000000
-4.235945	dwvyer	0.000000
-4.059854	dyer	0.000000
-4.235945	eabert	0.000000
-4.059854	earl	0.000000
-4.235945	earley	0.000000
-4.235945	eartman	0.000000
-3.934915	eaton	0.000000
-4.235945	ebling	0.000000
-4.235945	echert	0.000000
-4.235945	eddelman	0.000000
-4.235945	edmands	0.000000
-4.235945	edmendson	0.000000
-4.235945	egan	0.000000
-4.235945	ehle	0.000000
-4.059854	eldridge	0.000000
-4.235945	eleanor	0.000000
-4.235945	elens	0.000000
-4.235945	eline	0.000000
-4.235945	ellen	0.000000
-4.235945	eller	0.000000
-4.235945	ellerd	0.000000
-4.235945	elliot	0.000000
-4.235945	ellison	0.000000
-4.235945	ellsworth	0.000000
-4.235945	elwards	0.000000
-3.934915	endof	0.000000
-4.059854	ends	0.000000
-4.235945	engart	0.000000
-4.235945	engers	0.000000
-4.235945	enick	0.000000
-4.235945	epperson	0.000000
-3.934915	erans	0.000000
-4.059854	ering	0.000000
-4.235945	errickson	0.000000
-4.235945	ervin	0.000000
-4.059854	erving	0.000000
-4.235945	esken	0.000000
-4.235945	estel	0.000000
-4.235945	esther	0.000000
-4.059854	eston	0.000000
-4.235945	etue	0.000000
-4.059854	eugel	0.000000
-4.235945	eugland	0.000000
-4.235945	evane	0.000000
-3.934915	evens	0.000000
-4.235945	everett	0.000000
-4.235945	everson	0.000000
-4.235945	evickson	0.000000
-4.059854	eving	0.000000
-4.235945	ewans	0.000000
-4.235945	ewards	0.000000
-4.059854	ewens	0.000000
-4.235945	ewin	0.000000
-4.235945	ewing	0.000000
-4.235945	fairfor	0.000000
-4.059854	faley	0.000000
-4.235945	falkerson	0.000000
-4.235945	fall	0.000000
-4.235945	falson	0.000000
-4.235945	fanella	0.000000
-4.235945	fank	0.000000
-4.235945	fanklin	0.000000
-4.059854	fard	0.000000
-4.235945	farguhar	0.000000
-4.235945	fark	0.000000
-3.074577	farm	0.000000
-2.088269	farmer	0.000000
-3.156764	farming	0.000000
-4.235945	farner	0.000000
-4.235945	farron	0.000000
-3.838005	fart	0.000000
-4.235945	fary	0.000000
-4.059854	fate	0.000000
-4.235945	fatone	0.000000
-3.934915	faucher	0.000000
-4.235945	fauchier	0.000000
-3.838005	fawler	0.000000
-4.235945	feather	0.000000
-4.059854	feeman	0.000000
-4.235945	feindel	0.000000
-4.235945	feitag	0.000000
-4.235945	feld	0.000000
-4.235945	feldman	0.000000
-4.235945	felds	0.000000
-4.235945	feliciano	0.000000
-4.235945	fell	0.000000
-4.059854	fench	0.000000
-4.235945	ferbes	0.000000
-4.235945	ferguson	0.000000
-4.235945	ferna	0.000000
-4.235945	fernander	0.000000
-4.235945	fernandey	0.000000
-3.934915	fernandez	0.000000
-4.235945	fernandy	0.000000
-4.235945	ferner	0.000000
-4.059854	ferris	0.000000
-4.235945	fery	0.000000
-4.235945	fescher	0.000000
-4.235945	ficher	0.000000
-4.059854	fick	0.000000
-3.934915	fields	0.000000
-3.934915	fierney	0.000000
-4.059854	figneroa	0.000000
-4.235945	figueroa	0.000000
-4.059854	figuerva	0.000000
-4.235945	filber	0.000000
-4.235945	fildman	0.000000
-4.059854	filds	0.000000
-4.059854	file	0.000000
-4.235945	filey	0.000000
-4.235945	filley	0.000000
-4.235945	filton	0.000000
-4.235945	fine	0.000000
-4.235945	finek	0.000000
-4.235945	fischer	0.000000
-3.934915	fish	0.000000
-4.059854	fitus	0.000000
-4.059854	fitzerald	0.000000
-4.235945	fitzgarld	0.000000
-4.059854	fitzgerald	0.000000
-3.934915	fitzgerold	0.000000
-4.235945	flagstad	0.000000
-4.235945	flake	0.000000
-4.235945	flanagon	0.000000
-4.059854	flelcher	0.000000
-4.059854	fleming	0.000000
-4.059854	flenning	0.000000
-4.059854	flitcher	0.000000
-4.235945	flitcraft	0.000000
-4.059854	flomers	0.000000
-4.235945	flord	0.000000
-4.235945	flore	0.000000
-4.059854	florer	0.000000
-3.934915	flores	0.000000
-4.235945	florist	0.000000
-4.235945	flover	0.000000
-4.235945	flyn	0.000000
-4.235945	fodd	0.000000
-4.235945	folk	0.000000
-4.235945	fond	0.000000
-4.059854	fones	0.000000
-4.235945	food	0.000000
-4.059854	foole	0.000000
-4.235945	fore	0.000000
-3.758824	foreman	0.000000
-4.235945	fores	0.000000
-4.235945	forgas	0.000000
-4.235945	forley	0.000000
-3.838005	former	0.000000
-4.059854	forrell	0.000000
-4.059854	forres	0.000000
-4.059854	fosler	0.000000
-4.059854	foste	0.000000
-4.235945	fosten	0.000000
-4.235945	fouler	0.000000
-4.235945	foulis	0.000000
-3.934915	foust	0.000000
-3.838005	foxter	0.000000
-4.059854	foyd	0.000000
-4.235945	foyle	0.000000
-4.235945	fracey	0.000000
-4.235945	frame	0.000000
-3.934915	fran	0.000000
-3.934915	france	0.000000
-4.235945	franch	0.000000
-3.934915	frane	0.000000
-4.235945	franer	0.000000
-4.235945	frang	0.000000
-4.235945	franke	0.000000
-4.235945	franklen	0.000000
-4.059854	fravers	0.000000
-4.235945	fravis	0.000000
-4.235945	fray	0.000000
-4.059854	frazie	0.000000
-4.059854	fred	0.000000
-4.235945	frederick	0.000000
-4.235945	freed	0.000000
-4.235945	freenan	0.000000
-4.059854	freg	0.000000
-4.059854	freiner	0.000000
-4.059854	freland	0.000000
-4.059854	frelds	0.000000
-4.235945	freman	0.000000
-4.235945	freniere	0.000000
-4.235945	frent	0.000000
-4.235945	frentress	0.000000
-3.934915	fretz	0.000000
-4.059854	frich	0.000000
-4.059854	frick	0.000000
-3.934915	fridey	0.000000
-3.838005	friedman	0.000000
-4.235945	frish	0.000000
-4.235945	fritz	0.000000
-4.059854	frochlich	0.000000
-4.235945	fross	0.000000
-4.059854	frost	0.000000
-4.059854	frye	0.000000
-3.934915	fucks	0.000000
-4.235945	fugna	0.000000
-4.235945	fugua	0.000000
-4.059854	fulds	0.000000
-4.235945	fulton	0.000000
-4.059854	furk	0.000000
-4.235945	furley	0.000000
-4.235945	fyle	0.000000
-4.235945	g2	0.000000
-3.934915	g3	0.000000
-4.235945	gabe	0.000000
-4.235945	gackill	0.000000
-4.235945	gage	0.000000
-4.235945	gaine	0.000000
-4.235945	gainer	0.000000
-4.059854	gaines	0.000000
-4.059854	galdberg	0.000000
-4.235945	galdman	0.000000
-4.235945	gall	0.000000
-4.059854	gallaghen	0.000000
-3.934915	gallagher	0.000000
-4.235945	gallagle	0.000000
-4.059854	gallin	0.000000
-3.838005	gamer	0.000000
-4.235945	games	0.000000
-4.235945	gant	0.000000
-4.235945	ganzales	0.000000
-4.059854	garcea	0.000000
-4.235945	garcie	0.000000
-3.934915	garcin	0.000000
-4.235945	garcis	0.000000
-3.838005	gardan	0.000000
-4.235945	garden	0.000000
-4.235945	gardiner	0.000000
-4.059854	garduer	0.000000
-4.059854	garga	0.000000
-4.059854	garley	0.000000
-4.235945	garman	0.000000
-4.059854	garner	0.000000
-4.235945	garrell	0.000000
-4.059854	garrin	0.000000
-3.934915	garris	0.000000
-4.235945	garrison	0.000000
-4.059854	gart	0.000000
-3.838005	garther	0.000000
-4.059854	garton	0.000000
-4.235945	gasset	0.000000
-4.235945	gate	0.000000
-3.838005	gater	0.000000
-4.059854	gaut	0.000000
-4.059854	gautt	0.000000
-4.059854	geager	0.000000
-4.059854	gearge	0.000000
-4.235945	gearhart	0.000000
-4.059854	geen	0.000000
-4.235945	genge	0.000000
-4.235945	genn	0.000000
-4.059854	georg	0.000000
-4.235945	gerbes	0.000000
-4.235945	gerger	0.000000
-4.235945	geron	0.000000
-4.059854	gerry	0.000000
-4.235945	gibbes	0.000000
-4.235945	gibbey	0.000000
-4.059854	gibbous	0.000000
-4.059854	gibbs	0.000000
-4.235945	gibles	0.000000
-3.934915	giffin	0.000000
-4.235945	gilch	0.000000
-4.235945	gile	0.000000
-3.934915	gileson	0.000000
-4.059854	gill	0.000000
-4.235945	gillespie	0.000000
-4.235945	gilliam	0.000000
-4.059854	gillin	0.000000
-4.059854	gillis	0.000000
-4.235945	gills	0.000000
-4.235945	gilman	0.000000
-4.235945	gilmon	0.000000
-4.235945	gilmore	0.000000
-4.235945	gitus	0.000000
-4.235945	glann	0.000000
-3.838005	glass	0.000000
-4.235945	glaver	0.000000
-3.934915	gleason	0.000000
-4.235945	gleen	0.000000
-3.934915	glen	0.000000
-4.059854	glenn	0.000000
-4.235945	glood	0.000000
-4.235945	glover	0.000000
-4.235945	godd	0.000000
-4.059854	godwin	0.000000
-3.838005	goedberg	0.000000
-4.235945	goff	0.000000
-4.235945	goggan	0.000000
-3.934915	gold	0.000000
-4.235945	goldberg	0.000000
-4.059854	golden	0.000000
-3.934915	goldman	0.000000
-4.235945	goldsith	0.000000
-3.838005	goldstein	0.000000
-4.235945	goldsten	0.000000
-4.059854	gole	0.000000
-4.235945	gomer	0.000000
-4.059854	gomes	0.000000
-4.235945	gomey	0.000000
-3.838005	gones	0.000000
-4.059854	gongales	0.000000
-3.934915	gongaley	0.000000
-4.059854	gonzaler	0.000000
-4.235945	gonzales	0.000000
-4.235945	goodiin	0.000000
-4.235945	goodlellow	0.000000
-4.235945	goodne	0.000000
-4.235945	goodrich	0.000000
-3.934915	goodwin	0.000000
-4.235945	gorczynski	0.000000
-3.934915	gorde	0.000000
-4.059854	gordin	0.000000
-3.838005	gordman	0.000000
-4.235945	gore	0.000000
-4.059854	gorge	0.000000
-3.838005	gorman	0.000000
-4.059854	gorner	0.000000
-3.934915	gornez	0.000000
-4.235945	gould	0.000000
-4.059854	gouzaley	0.000000
-4.059854	gouzalez	0.000000
-4.235945	gove	0.000000
-4.059854	gowell	0.000000
-3.934915	gra	0.000000
-4.059854	grace	0.000000
-4.059854	graff	0.000000
-4.059854	gragan	0.000000
-4.059854	grah	0.000000
-3.934915	grahan	0.000000
-4.235945	graher	0.000000
-4.235945	grames	0.000000
-3.934915	grand	0.000000
-3.838005	graner	0.000000
-4.235945	grange	0.000000
-4.235945	grans	0.000000
-3.934915	gras	0.000000
-3.934915	grase	0.000000
-4.235945	grasher	0.000000
-4.235945	grauger	0.000000
-4.235945	graut	0.000000
-3.934915	grave	0.000000
-4.235945	gravis	0.000000
-4.235945	grean	0.000000
-3.934915	greem	0.000000
-4.059854	greeman	0.000000
-4.059854	greenberg	0.000000
-3.934915	greene	0.000000
-3.934915	greener	0.000000
-4.235945	grees	0.000000
-4.059854	greey	0.000000
-4.235945	gregery	0.000000
-4.059854	gregg	0.000000
-4.059854	gregony	0.000000
-4.235945	gremaldi	0.000000
-3.934915	grene	0.000000
-3.934915	grffin	0.000000
-4.059854	grice	0.000000
-3.838005	griffen	0.000000
-4.059854	griffie	0.000000
-4.235945	griflin	0.000000
-3.934915	grigg	0.000000
-4.235945	grimer	0.000000
-3.934915	grimes	0.000000
-4.235945	grine	0.000000
-4.059854	grines	0.000000
-4.235945	groff	0.000000
-3.838005	groham	0.000000
-4.235945	gron	0.000000
-4.235945	grone	0.000000
-4.059854	gront	0.000000
-3.838005	groot	0.000000
-4.235945	gropp	0.000000
-4.235945	grossmon	0.000000
-4.059854	grove	0.000000
-4.235945	groves	0.000000
-4.235945	guen	0.000000
-4.235945	guerry	0.000000
-4.235945	guffin	0.000000
-4.235945	guiffin	0.000000
-4.235945	guire	0.000000
-3.934915	guller	0.000000
-4.235945	gumprecht	0.000000
-4.235945	gunnn	0.000000
-4.235945	gunnon	0.000000
-4.059854	gust	0.000000
-4.059854	gustafson	0.000000
-4.059854	gustalson	0.000000
-4.059854	gustin	0.000000
-4.235945	guyott	0.000000
-2.507591	h	0.000000
-3.582732	h1	0.000000
-3.536975	h2	0.000000
-4.235945	h4	0.000000
-4.235945	hachnel	0.000000
-4.059854	hackins	0.000000
-4.235945	hadges	0.000000
-4.235945	hadock	0.000000
-4.235945	haffman	0.000000
-4.235945	hage	0.000000
-4.235945	hagen	0.000000
-3.838005	hager	0.000000
-4.059854	hages	0.000000
-4.235945	haggis	0.000000
-4.235945	hagne	0.000000
-4.059854	hahn	0.000000
-3.934915	haines	0.000000
-4.235945	hair	0.000000
-4.235945	hake	0.000000
-4.059854	hale	0.000000
-3.934915	halen	0.000000
-4.059854	haler	0.000000
-4.059854	haley	0.000000
-3.934915	halfin	0.000000
-4.235945	halifield	0.000000
-4.059854	halker	0.000000
-4.235945	hallan	0.000000
-4.059854	hallaway	0.000000
-3.758824	halm	0.000000
-4.235945	halman	0.000000
-4.235945	halvarson	0.000000
-4.059854	haman	0.000000
-4.235945	hamen	0.000000
-4.235945	hamer	0.000000
-4.235945	hames	0.000000
-3.838005	hamillon	0.000000
-4.059854	hamitton	0.000000
-4.235945	hamkins	0.000000
-4.235945	hamley	0.000000
-4.235945	hamlton	0.000000
-4.235945	hamman	0.000000
-4.235945	hammand	0.000000
-3.934915	hammer	0.000000
-4.235945	hammergren	0.000000
-4.235945	hammon	0.000000
-4.235945	hampler	0.000000
-3.838005	hampton	0.000000
-3.758824	hams	0.000000
-4.059854	hancock	0.000000
-4.059854	hand	0.000000
-3.838005	handy	0.000000
-4.059854	hanen	0.000000
-4.059854	haner	0.000000
-4.235945	hanes	0.000000
-4.059854	haney	0.000000
-4.235945	hanis	0.000000
-4.235945	hanke	0.000000
-4.235945	hanley	0.000000
-4.235945	hanman	0.000000
-4.235945	hanmer	0.000000
-3.934915	hanmond	0.000000
-3.934915	hanna	0.000000
-3.934915	hanne	0.000000
-3.934915	hannon	0.000000
-3.758824	hanns	0.000000
-4.235945	hanris	0.000000
-4.059854	hanse	0.000000
-4.235945	hanser	0.000000
-4.235945	hansey	0.000000
-4.059854	hanter	0.000000
-4.235945	hanton	0.000000
-4.059854	hapkins	0.000000
-3.934915	harden	0.000000
-4.235945	hardey	0.000000
-4.235945	hardin	0.000000
-4.235945	harding	0.000000
-4.235945	hardrick	0.000000
-4.235945	hares	0.000000
-4.235945	harey	0.000000
-3.934915	harfer	0.000000
-3.838005	haris	0.000000
-4.235945	harison	0.000000
-4.235945	harker	0.000000
-4.059854	harl	0.000000
-4.059854	harma	0.000000
-3.838005	harman	0.000000
-3.934915	harmon	0.000000
-4.235945	harne	0.000000
-4.059854	harns	0.000000
-4.235945	harp	0.000000
-4.235945	harpert	0.000000
-4.059854	harren	0.000000
-3.691877	harres	0.000000
-4.059854	harrett	0.000000
-4.235945	harrey	0.000000
-4.235945	harrill	0.000000
-4.235945	harring	0.000000
-4.059854	harrington	0.000000
-4.059854	harriss	0.000000
-3.934915	harrris	0.000000
-4.059854	harrs	0.000000
-4.059854	hars	0.000000
-4.235945	harsen	0.000000
-4.059854	harst	0.000000
-4.235945	harston	0.000000
-4.235945	hartenbower	0.000000
-4.059854	harter	0.000000
-4.235945	harting	0.000000
-4.235945	hartly	0.000000
-3.838005	harty	0.000000
-4.235945	harvett	0.000000
-4.059854	hary	0.000000
-4.235945	haryn	0.000000
-4.235945	hasche	0.000000
-4.059854	haskins	0.000000
-4.235945	hastad	0.000000
-4.235945	hastengs	0.000000
-4.235945	hath	0.000000
-4.059854	hatt	0.000000
-4.235945	hatton	0.000000
-3.934915	haucock	0.000000
-4.235945	haugh	0.000000
-3.934915	haukins	0.000000
-4.059854	hauley	0.000000
-3.838005	hause	0.000000
-4.235945	hauson	0.000000
-4.235945	haward	0.000000
-4.059854	hawe	0.000000
-4.235945	hawell	0.000000
-4.235945	hawkins	0.000000
-4.235945	hawner	0.000000
-4.235945	hawson	0.000000
-4.059854	hayden	0.000000
-4.235945	haye	0.000000
-4.059854	hayer	0.000000
-4.235945	hayner	0.000000
-4.059854	haynes	0.000000
-4.059854	hays	0.000000
-4.235945	hayword	0.000000
-4.235945	haze	0.000000
-4.059854	head	0.000000
-4.235945	healy	0.000000
-4.059854	heary	0.000000
-4.235945	heath	0.000000
-4.235945	heatt	0.000000
-4.235945	hebert	0.000000
-4.235945	heck	0.000000
-4.235945	heckman	0.000000
-3.758824	hecks	0.000000
-4.235945	hedblom	0.000000
-4.235945	heed	0.000000
-4.235945	heel	0.000000
-4.235945	heffeman	0.000000
-3.758824	hein	0.000000
-4.235945	heing	0.000000
-4.235945	heins	0.000000
-4.235945	heister	0.000000
-3.934915	hele	0.000000
-4.059854	helen	0.000000
-4.235945	hellin	0.000000
-4.235945	hellman	0.000000
-3.934915	helm	0.000000
-4.235945	helma	0.000000
-3.838005	helman	0.000000
-4.235945	helne	0.000000
-4.059854	helson	0.000000
-4.059854	helton	0.000000
-4.235945	heman	0.000000
-4.235945	hemander	0.000000
-4.235945	hemandez	0.000000
-4.235945	hemberg	0.000000
-4.235945	hemingway	0.000000
-4.059854	hendersen	0.000000
-4.235945	hendrick	0.000000
-4.235945	hendricks	0.000000
-4.235945	henends	0.000000
-4.059854	henera	0.000000
-4.059854	henley	0.000000
-4.235945	henman	0.000000
-4.235945	henn	0.000000
-3.934915	hennedy	0.000000
-4.235945	henning	0.000000
-4.235945	henon	0.000000
-4.235945	henry	0.000000
-3.934915	henser	0.000000
-4.235945	hent	0.000000
-4.235945	henter	0.000000
-4.235945	herbert	0.000000
-4.235945	herd	0.000000
-3.838005	hereenda	0.000000
-4.059854	hereendo	0.000000
-3.934915	herenda	0.000000
-4.235945	herlends	0.000000
-4.235945	herman	0.000000
-4.235945	hermle	0.000000
-4.235945	hern	0.000000
-4.059854	hernan	0.000000
-4.235945	hernandezy	0.000000
-4.235945	hernandy	0.000000
-4.235945	herner	0.000000
-4.235945	herr	0.000000
-4.235945	herring	0.000000
-4.235945	hers	0.000000
-4.235945	herson	0.000000
-4.235945	hertin	0.000000
-4.235945	hese	0.000000
-4.235945	hess	0.000000
-4.235945	hest	0.000000
-4.059854	hester	0.000000
-4.235945	hestin	0.000000
-4.235945	heve	0.000000
-4.059854	hewett	0.000000
-4.059854	heyes	0.000000
-4.059854	hichman	0.000000
-4.235945	hicke	0.000000
-4.059854	hickey	0.000000
-4.059854	hickman	0.000000
-4.059854	hicky	0.000000
-4.059854	higgins	0.000000
-4.235945	hightomer	0.000000
-4.059854	hile	0.000000
-4.059854	hill	0.000000
-4.235945	hilles	0.000000
-4.235945	hillison	0.000000
-3.934915	hillman	0.000000
-4.059854	hillon	0.000000
-4.235945	hills	0.000000
-4.059854	hilt	0.000000
-4.235945	hilte	0.000000
-4.235945	hilton	0.000000
-4.235945	hine	0.000000
-4.235945	hines	0.000000
-4.235945	hing	0.000000
-4.235945	hinley	0.000000
-4.235945	hinsberger	0.000000
-4.235945	hinson	0.000000
-4.235945	hinton	0.000000
-4.235945	hired	0.000000
-4.235945	hirg	0.000000
-4.059854	hoag	0.000000
-4.235945	hoas	0.000000
-4.235945	hoase	0.000000
-4.235945	hobden	0.000000
-4.059854	hochn	0.000000
-4.059854	hock	0.000000
-4.235945	hockett	0.000000
-4.235945	hodger	0.000000
-4.235945	hodson	0.000000
-4.235945	hoeltzel	0.000000
-4.235945	hoffer	0.000000
-4.235945	hoffie	0.000000
-3.934915	hoffmann	0.000000
-4.059854	hofkins	0.000000
-3.934915	hofman	0.000000
-4.235945	hoft	0.000000
-4.235945	hogane	0.000000
-4.235945	hogen	0.000000
-3.934915	holbrook	0.000000
-4.235945	holcomb	0.000000
-4.235945	hold	0.000000
-4.235945	holden	0.000000
-4.235945	holder	0.000000
-4.235945	hole	0.000000
-4.235945	holes	0.000000
-4.059854	holey	0.000000
-3.934915	hollan	0.000000
-4.059854	hollard	0.000000
-4.235945	holle	0.000000
-4.059854	holler	0.000000
-4.059854	holley	0.000000
-4.235945	hollin	0.000000
-4.059854	holloway	0.000000
-3.934915	holm	0.000000
-4.235945	holschaw	0.000000
-4.235945	holson	0.000000
-4.235945	holton	0.000000
-4.235945	holzmiller	0.000000
-3.934915	homan	0.000000
-4.235945	homas	0.000000
-2.587585	home	0.000000
-4.059854	homes	0.000000
-4.235945	homilton	0.000000
-3.934915	hommond	0.000000
-4.235945	hompson	0.000000
-3.934915	hone	0.000000
-4.059854	hones	0.000000
-4.235945	hood	0.000000
-4.059854	hoon	0.000000
-4.235945	hooner	0.000000
-4.235945	hooper	0.000000
-4.235945	hoover	0.000000
-4.059854	hopkins	0.000000
-4.059854	hoppe	0.000000
-3.758824	hopper	0.000000
-4.235945	horden	0.000000
-4.235945	hork	0.000000
-4.235945	horkins	0.000000
-4.235945	horn	0.000000
-4.059854	horne	0.000000
-4.059854	horner	0.000000
-4.235945	horris	0.000000
-4.059854	horry	0.000000
-4.059854	hort	0.000000
-4.059854	hortman	0.000000
-4.235945	horver	0.000000
-3.838005	hoskins	0.000000
-4.059854	hoss	0.000000
-4.059854	hoster	0.000000
-4.235945	hoteling	0.000000
-4.235945	houck	0.000000
-4.235945	hough	0.000000
-4.235945	houghton	0.000000
-4.235945	house	0.000000
-4.235945	housen	0.000000
-4.235945	houser	0.000000
-4.235945	houston	0.000000
-4.235945	howald	0.000000
-4.059854	howe	0.000000
-4.235945	hown	0.000000
-4.235945	howvath	0.000000
-4.059854	hoxton	0.000000
-4.235945	hoynes	0.000000
-3.838005	hubbard	0.000000
-4.235945	hubert	0.000000
-3.934915	hudson	0.000000
-3.934915	huffman	0.000000
-4.235945	huggins	0.000000
-4.235945	hugh	0.000000
-3.838005	hughe	0.000000
-3.838005	hugher	0.000000
-4.059854	hugles	0.000000
-4.235945	hugo	0.000000
-4.235945	hulbard	0.000000
-4.235945	huller	0.000000
-4.235945	hulson	0.000000
-4.059854	hulton	0.000000
-4.235945	humpbrey	0.000000
-4.059854	humphey	0.000000
-4.235945	hune	0.000000
-4.235945	hunt	0.000000
-4.235945	hunz	0.000000
-4.059854	hurd	0.000000
-4.235945	hurdman	0.000000
-4.235945	hurton	0.000000
-4.235945	hurwich	0.000000
-4.235945	hust	0.000000
-4.235945	hutchenson	0.000000
-4.059854	hutcheson	0.000000
-4.235945	hutchins	0.000000
-4.059854	hyle	0.000000
-4.235945	ingram	0.000000
-4.235945	ingran	0.000000
-4.235945	installer	0.000000
-4.059854	intosh	0.000000
-4.059854	intyre	0.000000
-4.235945	irene	0.000000
-4.235945	irwin	0.000000
-4.235945	irwvin	0.000000
-4.235945	isaac	0.000000
-3.934915	isaace	0.000000
-4.235945	isaaco	0.000000
-4.059854	iugram	0.000000
-4.235945	iuman	0.000000
-4.235945	ivey	0.000000
-4.235945	jacger	0.000000
-4.235945	jacker	0.000000
-4.235945	jackett	0.000000
-4.235945	jackon	0.000000
-4.059854	jackso	0.000000
-4.235945	jacob	0.000000
-4.235945	jagnes	0.000000
-4.059854	jagues	0.000000
-4.235945	jahn	0.000000
-4.235945	jahnson	0.000000
-4.235945	jaines	0.000000
-4.235945	jair	0.000000
-4.235945	jake	0.000000
-4.235945	jally	0.000000
-4.235945	jancik	0.000000
-3.838005	janeson	0.000000
-4.235945	janett	0.000000
-4.235945	janis	0.000000
-4.235945	janks	0.000000
-3.934915	jannary	0.000000
-4.059854	janner	0.000000
-3.934915	jannes	0.000000
-4.235945	janson	0.000000
-4.059854	jardan	0.000000
-4.235945	jarnes	0.000000
-4.059854	jarris	0.000000
-3.934915	jarson	0.000000
-3.758824	javis	0.000000
-3.934915	jayce	0.000000
-4.059854	jayner	0.000000
-4.059854	jaynes	0.000000
-4.235945	jecker	0.000000
-3.838005	jefferson	0.000000
-4.235945	jene	0.000000
-4.059854	jenison	0.000000
-4.059854	jenkin	0.000000
-4.235945	jenning	0.000000
-4.235945	jenrich	0.000000
-4.235945	jentry	0.000000
-4.235945	jerich	0.000000
-4.059854	jewell	0.000000
-3.934915	jewis	0.000000
-4.059854	jhonson	0.000000
-4.235945	jickson	0.000000
-4.235945	jimenez	0.000000
-3.758824	jines	0.000000
-4.235945	jinne	0.000000
-4.235945	jobin	0.000000
-4.059854	jock	0.000000
-3.934915	jockson	0.000000
-3.691877	jodd	0.000000
-3.934915	joes	0.000000
-4.235945	joffe	0.000000
-4.235945	johannis	0.000000
-3.934915	johanson	0.000000
-4.235945	johe	0.000000
-4.235945	johen	0.000000
-4.235945	johman	0.000000
-3.934915	johnke	0.000000
-3.838005	johnn	0.000000
-3.758824	johnnson	0.000000
-4.059854	johnsen	0.000000
-4.059854	johnton	0.000000
-4.059854	johson	0.000000
-4.059854	joines	0.000000
-4.059854	jondan	0.000000
-4.059854	joness	0.000000
-3.838005	jong	0.000000
-4.235945	jonis	0.000000
-3.838005	jonnes	0.000000
-4.235945	jonsen	0.000000
-4.235945	jook	0.000000
-4.235945	jord	0.000000
-4.235945	jores	0.000000
-4.235945	jorman	0.000000
-3.838005	jose	0.000000
-4.235945	joss	0.000000
-3.934915	jost	0.000000
-4.059854	joves	0.000000
-3.838005	joyce	0.000000
-4.235945	joynes	0.000000
-4.235945	jren	0.000000
-4.235945	juck	0.000000
-3.838005	jucker	0.000000
-4.059854	juinn	0.000000
-4.235945	junn	0.000000
-4.235945	junp	0.000000
-4.235945	jurner	0.000000
-4.235945	jutila	0.000000
-4.235945	kach	0.000000
-4.059854	kachler	0.000000
-4.235945	kadon	0.000000
-4.235945	kahler	0.000000
-4.235945	kahn	0.000000
-3.758824	kale	0.000000
-4.235945	kaley	0.000000
-4.235945	kalley	0.000000
-4.059854	kamer	0.000000
-4.059854	kamp	0.000000
-4.235945	kaney	0.000000
-4.235945	kankin	0.000000
-4.059854	kant	0.000000
-4.235945	kaplan	0.000000
-4.235945	karalus	0.000000
-4.235945	kare	0.000000
-4.235945	karker	0.000000
-4.059854	karland	0.000000
-4.235945	karper	0.000000
-4.059854	kaulman	0.000000
-4.235945	kaupert	0.000000
-4.059854	kayes	0.000000
-4.059854	kaylor	0.000000
-4.235945	kean	0.000000
-4.059854	kear	0.000000
-4.235945	keathly	0.000000
-4.235945	keck	0.000000
-4.235945	keel	0.000000
-4.235945	keeley	0.000000
-3.758824	keen	0.000000
-3.934915	keenan	0.000000
-3.934915	keene	0.000000
-4.059854	keener	0.000000
-4.059854	keeney	0.000000
-4.235945	kees	0.000000
-4.059854	keese	0.000000
-3.838005	keeves	0.000000
-4.235945	kehlenbeck	0.000000
-4.059854	keid	0.000000
-3.934915	keiler	0.000000
-4.059854	keiner	0.000000
-4.235945	keis	0.000000
-4.235945	kele	0.000000
-4.235945	kellen	0.000000
-4.235945	kemingway	0.000000
-4.059854	kemp	0.000000
-4.235945	kemps	0.000000
-4.059854	kener	0.000000
-4.235945	keng	0.000000
-3.934915	kenler	0.000000
-4.235945	kenn	0.000000
-4.235945	kennar	0.000000
-4.059854	kenne	0.000000
-4.235945	kenned	0.000000
-4.059854	kennedy	0.000000
-4.059854	kennely	0.000000
-4.235945	kennerd	0.000000
-4.059854	kennery	0.000000
-3.934915	kennett	0.000000
-4.235945	kenny	0.000000
-4.235945	kenp	0.000000
-4.059854	kenson	0.000000
-4.235945	kenter	0.000000
-4.059854	kentz	0.000000
-4.235945	keny	0.000000
-4.235945	kenzie	0.000000
-3.838005	kerk	0.000000
-4.235945	kerley	0.000000
-4.059854	kern	0.000000
-4.235945	kerr	0.000000
-4.235945	kerry	0.000000
-3.934915	kers	0.000000
-3.838005	kessler	0.000000
-3.838005	key	0.000000
-4.059854	keye	0.000000
-4.235945	keyer	0.000000
-4.059854	keyes	0.000000
-4.235945	kick	0.000000
-4.235945	kie	0.000000
-4.059854	kiehl	0.000000
-4.059854	kile	0.000000
-4.059854	kiles	0.000000
-4.059854	kiley	0.000000
-4.235945	killey	0.000000
-4.059854	killy	0.000000
-4.059854	kim	0.000000
-4.059854	kimbell	0.000000
-4.235945	kimbers	0.000000
-4.059854	kimp	0.000000
-4.235945	kinball	0.000000
-4.235945	kincard	0.000000
-4.235945	kiner	0.000000
-4.059854	kinger	0.000000
-4.059854	kinkle	0.000000
-4.235945	kinn	0.000000
-4.235945	kinnie	0.000000
-3.838005	kinnon	0.000000
-4.059854	kinny	0.000000
-4.235945	kins	0.000000
-4.235945	kinsey	0.000000
-4.235945	kinstry	0.000000
-3.934915	kint	0.000000
-4.235945	kinton	0.000000
-4.059854	kinzie	0.000000
-4.059854	kirby	0.000000
-3.934915	kirk	0.000000
-4.235945	kirkland	0.000000
-3.934915	kisher	0.000000
-3.838005	kissick	0.000000
-4.235945	kithell	0.000000
-4.235945	kitter	0.000000
-3.934915	klans	0.000000
-4.059854	kleen	0.000000
-4.059854	klei	0.000000
-4.235945	klein	0.000000
-4.235945	klemm	0.000000
-4.059854	klene	0.000000
-4.235945	klin	0.000000
-3.934915	kloock	0.000000
-4.235945	knaff	0.000000
-4.235945	knapp	0.000000
-4.235945	kngh	0.000000
-4.059854	knig	0.000000
-4.059854	knight	0.000000
-4.235945	knipping	0.000000
-4.235945	knisely	0.000000
-4.059854	knowler	0.000000
-4.235945	knutson	0.000000
-4.059854	koch	0.000000
-4.059854	kochn	0.000000
-4.235945	koeffler	0.000000
-4.059854	koff	0.000000
-4.235945	koffman	0.000000
-4.235945	kogan	0.000000
-4.235945	kohlhaas	0.000000
-4.059854	kohn	0.000000
-4.235945	koll	0.000000
-4.235945	kollar	0.000000
-4.235945	kolle	0.000000
-4.235945	koller	0.000000
-4.235945	kollins	0.000000
-4.235945	kolloff	0.000000
-4.235945	kolt	0.000000
-4.059854	kooney	0.000000
-4.235945	kopka	0.000000
-4.235945	koplan	0.000000
-3.934915	kopp	0.000000
-4.235945	kose	0.000000
-4.235945	kosinski	0.000000
-4.235945	kosta	0.000000
-4.059854	kotz	0.000000
-4.235945	koug	0.000000
-4.235945	kowell	0.000000
-4.235945	koy	0.000000
-4.235945	krame	0.000000
-4.059854	kramer	0.000000
-4.235945	krames	0.000000
-4.235945	krans	0.000000
-4.235945	krant	0.000000
-4.059854	kraus	0.000000
-4.235945	krautz	0.000000
-4.235945	kreeger	0.000000
-4.235945	kreher	0.000000
-4.235945	krenger	0.000000
-4.235945	kright	0.000000
-4.235945	krimer	0.000000
-3.934915	kring	0.000000
-4.235945	kromer	0.000000
-4.235945	kropff	0.000000
-4.059854	krown	0.000000
-4.235945	kuby	0.000000
-4.235945	kuhn	0.000000
-4.235945	kull	0.000000
-4.235945	kunter	0.000000
-4.235945	kuppe	0.000000
-3.934915	kurt	0.000000
-4.235945	kurty	0.000000
-3.934915	kussell	0.000000
-4.235945	kuth	0.000000
-4.059854	kutz	0.000000
-4.235945	kyle	0.000000
-3.360884	la	0.000000
-4.059854	labelle	0.000000
-2.968773	labor	0.000000
-2.846779	laborer	0.000000
-4.235945	labour	0.000000
-4.235945	lacay	0.000000
-3.838005	lacey	0.000000
-4.235945	lach	0.000000
-4.235945	lachan	0.000000
-4.059854	lack	0.000000
-4.059854	lacker	0.000000
-3.934915	lagan	0.000000
-4.059854	lagley	0.000000
-4.059854	lahe	0.000000
-4.059854	lake	0.000000
-4.235945	laley	0.000000
-4.235945	lalie	0.000000
-4.235945	lalko	0.000000
-4.235945	lall	0.000000
-4.235945	lamar	0.000000
-4.235945	lamp	0.000000
-4.059854	lana	0.000000
-4.235945	lanchez	0.000000
-4.235945	lancock	0.000000
-4.059854	land	0.000000
-4.235945	landen	0.000000
-3.838005	landerdale	0.000000
-4.059854	landey	0.000000
-4.235945	landon	0.000000
-4.235945	landy	0.000000
-3.838005	laney	0.000000
-4.059854	lange	0.000000
-4.235945	lank	0.000000
-4.235945	lankfard	0.000000
-4.235945	lankin	0.000000
-4.235945	lann	0.000000
-4.235945	lanneau	0.000000
-4.059854	lans	0.000000
-4.059854	lansford	0.000000
-4.059854	lant	0.000000
-4.059854	lanton	0.000000
-4.059854	lany	0.000000
-4.235945	laper	0.000000
-4.235945	lapkin	0.000000
-4.235945	laray	0.000000
-4.059854	lard	0.000000
-4.235945	larey	0.000000
-4.059854	lark	0.000000
-4.235945	larkin	0.000000
-4.235945	larne	0.000000
-4.235945	larr	0.000000
-4.059854	larren	0.000000
-4.235945	larsen	0.000000
-4.059854	larson	0.000000
-3.838005	lason	0.000000
-4.235945	late	0.000000
-4.059854	laud	0.000000
-4.059854	lauge	0.000000
-4.235945	lauis	0.000000
-4.235945	launing	0.000000
-4.059854	laury	0.000000
-4.235945	laus	0.000000
-3.934915	lautz	0.000000
-3.934915	lavage	0.000000
-3.934915	laver	0.000000
-3.934915	lavey	0.000000
-4.059854	lavin	0.000000
-4.235945	lavine	0.000000
-4.235945	lawrence	0.000000
-4.235945	lawry	0.000000
-4.235945	lawsen	0.000000
-4.235945	laxson	0.000000
-3.691877	le	0.000000
-4.059854	leack	0.000000
-4.235945	leaman	0.000000
-4.235945	lean	0.000000
-4.235945	leanard	0.000000
-4.059854	lear	0.000000
-4.235945	leaton	0.000000
-4.059854	leay	0.000000
-4.235945	lech	0.000000
-4.059854	leck	0.000000
-4.235945	leclair	0.000000
-4.235945	leed	0.000000
-4.235945	leeis	0.000000
-4.235945	lees	0.000000
-4.059854	legan	0.000000
-4.059854	lehman	0.000000
-4.235945	lell	0.000000
-4.235945	leman	0.000000
-4.059854	lemis	0.000000
-4.235945	lenard	0.000000
-4.059854	lene	0.000000
-4.235945	lenn	0.000000
-4.235945	lenty	0.000000
-4.235945	leny	0.000000
-4.235945	leon	0.000000
-4.059854	leonard	0.000000
-4.235945	leris	0.000000
-4.235945	leroy	0.000000
-4.235945	letsche	0.000000
-4.059854	lettle	0.000000
-4.059854	letz	0.000000
-4.235945	leve	0.000000
-4.235945	leverson	0.000000
-3.838005	levin	0.000000
-4.235945	levingston	0.000000
-3.691877	levy	0.000000
-3.934915	lewe	0.000000
-4.235945	lewes	0.000000
-4.235945	lewin	0.000000
-4.235945	lewson	0.000000
-4.235945	lexine	0.000000
-4.235945	lich	0.000000
-4.235945	lick	0.000000
-4.235945	lightfort	0.000000
-4.059854	liley	0.000000
-4.235945	lillie	0.000000
-4.059854	lilly	0.000000
-4.235945	linder	0.000000
-4.059854	lindrey	0.000000
-4.235945	lindsey	0.000000
-4.059854	lindsoy	0.000000
-4.235945	linemen	0.000000
-4.235945	liner	0.000000
-3.934915	linger	0.000000
-4.235945	lingman	0.000000
-4.059854	linn	0.000000
-4.235945	lisher	0.000000
-4.235945	litch	0.000000
-3.934915	litle	0.000000
-4.235945	litz	0.000000
-4.235945	litzer	0.000000
-4.059854	lloyd	0.000000
-4.235945	loase	0.000000
-4.235945	locke	0.000000
-4.235945	lodl	0.000000
-4.235945	loff	0.000000
-4.235945	loland	0.000000
-4.059854	lombards	0.000000
-4.235945	lomp	0.000000
-3.934915	londen	0.000000
-4.235945	london	0.000000
-4.059854	lones	0.000000
-4.235945	longe	0.000000
-4.059854	lonie	0.000000
-4.235945	lons	0.000000
-4.235945	loonard	0.000000
-4.235945	lopes	0.000000
-4.059854	lopezy	0.000000
-4.059854	lora	0.000000
-3.934915	lord	0.000000
-3.758824	lorensen	0.000000
-4.059854	lorenson	0.000000
-4.235945	lorenzana	0.000000
-4.235945	lorsch	0.000000
-4.235945	loster	0.000000
-4.059854	loth	0.000000
-4.235945	loto	0.000000
-4.235945	loucher	0.000000
-4.235945	louda	0.000000
-4.235945	loug	0.000000
-4.059854	loughlin	0.000000
-4.235945	louther	0.000000
-4.235945	lovey	0.000000
-4.235945	lovo	0.000000
-3.934915	lower	0.000000
-4.235945	lowers	0.000000
-4.059854	lowery	0.000000
-4.235945	lowler	0.000000
-3.934915	loyd	0.000000
-4.235945	loyola	0.000000
-4.235945	lpscomb	0.000000
-4.235945	luck	0.000000
-4.059854	lugo	0.000000
-4.235945	luke	0.000000
-4.235945	lune	0.000000
-4.235945	lung	0.000000
-4.235945	lurner	0.000000
-4.235945	lutz	0.000000
-4.235945	lyle	0.000000
-3.838005	lyler	0.000000
-3.691877	lyms	0.000000
-3.838005	lynch	0.000000
-4.059854	lynck	0.000000
-4.059854	lynett	0.000000
-4.235945	lynge	0.000000
-4.059854	lyson	0.000000
-3.934915	lytte	0.000000
-4.235945	m	0.000000
-3.457794	mac	0.000000
-4.059854	mace	0.000000
-4.235945	machan	0.000000
-4.235945	machey	0.000000
-4.235945	machinery	0.000000
-4.235945	machovec	0.000000
-4.059854	macker	0.000000
-3.838005	maclean	0.000000
-4.235945	macleod	0.000000
-4.059854	macneil	0.000000
-4.235945	macwilliam	0.000000
-3.934915	madden	0.000000
-4.235945	maddex	0.000000
-3.934915	madina	0.000000
-4.235945	madley	0.000000
-4.059854	madsen	0.000000
-4.059854	maeller	0.000000
-4.235945	magan	0.000000
-4.235945	magrino	0.000000
-4.059854	mahan	0.000000
-4.235945	mahaney	0.000000
-4.059854	mahe	0.000000
-4.235945	mahen	0.000000
-3.838005	mahler	0.000000
-4.235945	mahner	0.000000
-4.059854	mahoney	0.000000
-2.829405	maid	0.000000
-4.235945	maider	0.000000
-4.059854	make	0.000000
-4.059854	maker	0.000000
-3.934915	malane	0.000000
-4.235945	malcohn	0.000000
-4.235945	males	0.000000
-4.235945	maline	0.000000
-3.934915	malker	0.000000
-3.934915	mall	0.000000
-4.059854	mallary	0.000000
-4.235945	mallay	0.000000
-4.059854	mallon	0.000000
-3.934915	malloy	0.000000
-4.059854	maloney	0.000000
-4.235945	malton	0.000000
-3.934915	man	0.000000
-4.235945	manano	0.000000
-4.235945	mandie	0.000000
-4.235945	maners	0.000000
-4.235945	manes	0.000000
-4.235945	maney	0.000000
-4.235945	maning	0.000000
-4.235945	mank	0.000000
-3.934915	mann	0.000000
-4.235945	manne	0.000000
-4.235945	mannie	0.000000
-4.235945	mannin	0.000000
-4.235945	manon	0.000000
-3.758824	mans	0.000000
-4.059854	manson	0.000000
-3.838005	mantgomery	0.000000
-3.838005	manton	0.000000
-4.235945	mantyla	0.000000
-4.059854	many	0.000000
-4.059854	maore	0.000000
-4.235945	marales	0.000000
-3.934915	maran	0.000000
-4.235945	marburg	0.000000
-3.934915	marchall	0.000000
-4.235945	marcinak	0.000000
-4.235945	mare	0.000000
-4.235945	mareland	0.000000
-4.235945	marey	0.000000
-3.934915	margaret	0.000000
-4.235945	margas	0.000000
-4.059854	marguardt	0.000000
-4.059854	margues	0.000000
-4.235945	marine	0.000000
-4.235945	marino	0.000000
-4.235945	marion	0.000000
-4.235945	maris	0.000000
-4.059854	marka	0.000000
-4.235945	marke	0.000000
-4.059854	marks	0.000000
-4.235945	marlborough	0.000000
-4.235945	marley	0.000000
-4.235945	marlon	0.000000
-3.934915	maron	0.000000
-4.059854	marray	0.000000
-4.235945	marren	0.000000
-4.235945	marriam	0.000000
-4.235945	marrill	0.000000
-4.059854	marron	0.000000
-4.235945	mars	0.000000
-3.934915	marse	0.000000
-4.235945	marsh	0.000000
-4.235945	marshell	0.000000
-4.059854	marte	0.000000
-4.235945	marter	0.000000
-4.235945	martha	0.000000
-4.059854	marthews	0.000000
-4.059854	marti	0.000000
-4.235945	martiner	0.000000
-4.235945	martines	0.000000
-4.059854	martinezy	0.000000
-4.235945	martino	0.000000
-3.838005	martins	0.000000
-4.235945	martinson	0.000000
-4.059854	martis	0.000000
-4.235945	martocci	0.000000
-3.934915	marty	0.000000
-4.059854	marvil	0.000000
-4.059854	maseley	0.000000
-4.235945	masen	0.000000
-4.235945	maser	0.000000
-4.059854	mases	0.000000
-4.235945	mash	0.000000
-4.235945	mashington	0.000000
-4.235945	mass	0.000000
-4.235945	massey	0.000000
-4.235945	massy	0.000000
-4.235945	masten	0.000000
-4.235945	master	0.000000
-4.235945	mastin	0.000000
-4.235945	matcumoto	0.000000
-3.838005	mate	0.000000
-4.235945	maten	0.000000
-4.235945	mates	0.000000
-4.235945	mathens	0.000000
-4.235945	mather	0.000000
-4.235945	mathes	0.000000
-4.235945	mathew	0.000000
-4.059854	mathie	0.000000
-4.235945	mathien	0.000000
-4.235945	mathis	0.000000
-4.059854	matin	0.000000
-4.059854	matt	0.000000
-4.235945	mattes	0.000000
-3.838005	mattie	0.000000
-3.934915	mattison	0.000000
-3.934915	matton	0.000000
-4.235945	mattoni	0.000000
-4.059854	mauchester	0.000000
-4.235945	mauhart	0.000000
-4.235945	maurer	0.000000
-3.934915	maus	0.000000
-4.235945	mausfield	0.000000
-4.235945	maver	0.000000
-4.235945	maxin	0.000000
-4.235945	maxley	0.000000
-4.235945	maxon	0.000000
-3.934915	maxwell	0.000000
-4.059854	may	0.000000
-4.235945	maydole	0.000000
-4.235945	maye	0.000000
-4.235945	mayee	0.000000
-3.934915	mayer	0.000000
-4.235945	maynard	0.000000
-4.235945	mayner	0.000000
-4.235945	maynord	0.000000
-4.235945	mayo	0.000000
-4.059854	mayr	0.000000
-4.235945	mayus	0.000000
-2.563847	mc	0.000000
-4.235945	mcado	0.000000
-3.934915	mcadoo	0.000000
-4.059854	mcalee	0.000000
-4.059854	mcaleer	0.000000
-4.059854	mcalester	0.000000
-4.235945	mcalister	0.000000
-4.059854	mcalpine	0.000000
-4.235945	mcanally	0.000000
-4.059854	mcandrews	0.000000
-4.235945	mcarthy	0.000000
-3.934915	mcauliffe	0.000000
-4.235945	mcbain	0.000000
-3.838005	mcbeth	0.000000
-4.235945	mcbrayer	0.000000
-4.235945	mcbude	0.000000
-4.235945	mcburney	0.000000
-4.059854	mccachren	0.000000
-4.235945	mccafferty	0.000000
-4.235945	mccaffery	0.000000
-4.235945	mccallister	0.000000
-4.235945	mccallough	0.000000
-4.235945	mccan	0.000000
-4.235945	mccanley	0.000000
-4.235945	mccard	0.000000
-3.838005	mccarley	0.000000
-4.235945	mccarmick	0.000000
-4.059854	mccarry	0.000000
-4.235945	mccart	0.000000
-4.235945	mccarter	0.000000
-3.934915	mccartley	0.000000
-4.059854	mccartney	0.000000
-3.838005	mccary	0.000000
-3.934915	mccaslin	0.000000
-4.235945	mccastle	0.000000
-4.235945	mccellan	0.000000
-3.838005	mcclary	0.000000
-4.235945	mcclaskey	0.000000
-4.059854	mcclaud	0.000000
-4.235945	mccleary	0.000000
-4.059854	mcclelland	0.000000
-3.934915	mcclendon	0.000000
-4.235945	mcclinton	0.000000
-4.235945	mcclorey	0.000000
-3.934915	mccloskey	0.000000
-4.059854	mccloud	0.000000
-4.059854	mcclroy	0.000000
-4.235945	mccluskey	0.000000
-3.934915	mccobe	0.000000
-4.235945	mccomb	0.000000
-4.235945	mccombs	0.000000
-4.235945	mcconn	0.000000
-4.235945	mcconnel	0.000000
-4.235945	mccorkle	0.000000
-4.235945	mccornick	0.000000
-4.059854	mccorthy	0.000000
-4.235945	mccourt	0.000000
-4.235945	mccowan	0.000000
-4.235945	mccown	0.000000
-4.235945	mccraw	0.000000
-3.691877	mccrea	0.000000
-4.059854	mccreary	0.000000
-4.235945	mccrory	0.000000
-4.235945	mcculler	0.000000
-4.235945	mcculley	0.000000
-3.633885	mcculloch	0.000000
-4.235945	mccullock	0.000000
-4.059854	mccully	0.000000
-4.235945	mccune	0.000000
-4.059854	mcdade	0.000000
-4.059854	mcdougal	0.000000
-4.059854	mcdougall	0.000000
-4.235945	mcduffy	0.000000
-4.059854	mcelhaney	0.000000
-3.934915	mcelroy	0.000000
-4.235945	mcelwain	0.000000
-3.934915	mcentee	0.000000
-4.059854	mcewan	0.000000
-3.934915	mcfall	0.000000
-3.934915	mcfarland	0.000000
-3.934915	mcfarlane	0.000000
-4.235945	mcgadden	0.000000
-4.235945	mcgann	0.000000
-4.235945	mcgarry	0.000000
-4.235945	mcgarvey	0.000000
-4.059854	mcghee	0.000000
-3.934915	mcginty	0.000000
-4.059854	mcgoldrick	0.000000
-4.059854	mcgooern	0.000000
-4.235945	mcgran	0.000000
-4.059854	mcgregar	0.000000
-4.235945	mcgreger	0.000000
-4.235945	mcgrogan	0.000000
-4.235945	mcguder	0.000000
-4.235945	mcgueen	0.000000
-4.059854	mcguin	0.000000
-4.235945	mcguine	0.000000
-4.059854	mcgure	0.000000
-4.235945	mchann	0.000000
-3.934915	mchugh	0.000000
-4.059854	mcinerney	0.000000
-4.235945	mcintash	0.000000
-4.059854	mcintoch	0.000000
-4.235945	mcintyre	0.000000
-4.059854	mciutyre	0.000000
-4.235945	mciver	0.000000
-4.059854	mckae	0.000000
-3.934915	mckelvey	0.000000
-3.934915	mckeown	0.000000
-3.934915	mckinnon	0.000000
-3.838005	mcknight	0.000000
-4.059854	mckown	0.000000
-3.838005	mclaughin	0.000000
-4.235945	mclead	0.000000
-4.059854	mclee	0.000000
-4.059854	mclellan	0.000000
-3.934915	mclemore	0.000000
-4.235945	mcleon	0.000000
-4.235945	mclin	0.000000
-4.235945	mcloy	0.000000
-4.059854	mcmann	0.000000
-4.059854	mcmasters	0.000000
-4.235945	mcmiller	0.000000
-4.059854	mcmillin	0.000000
-3.934915	mcminn	0.000000
-4.235945	mcmorris	0.000000
-4.235945	mcmorrow	0.000000
-4.059854	mcmullin	0.000000
-4.059854	mcnabb	0.000000
-4.059854	mcnalley	0.000000
-3.758824	mcnamee	0.000000
-3.934915	mcnary	0.000000
-4.235945	mcnatt	0.000000
-4.235945	mcnaughton	0.000000
-4.235945	mcneal	0.000000
-4.235945	mcnealy	0.000000
-4.235945	mcneel	0.000000
-3.934915	mcneeley	0.000000
-4.235945	mcnelly	0.000000
-4.059854	mcnerney	0.000000
-4.059854	mcnew	0.000000
-4.235945	mcnichols	0.000000
-4.235945	mcnill	0.000000
-4.235945	mcperson	0.000000
-3.934915	mcphee	0.000000
-4.235945	mcquade	0.000000
-4.235945	mcquillan	0.000000
-3.934915	mcquire	0.000000
-4.059854	mcray	0.000000
-3.838005	mcreynolds	0.000000
-4.235945	mcsherry	0.000000
-4.235945	mcsorley	0.000000
-4.235945	mcsweeney	0.000000
-4.059854	mcvicker	0.000000
-3.934915	mcwhirter	0.000000
-3.934915	mcwhorter	0.000000
-4.059854	meadows	0.000000
-4.235945	meal	0.000000
-4.235945	meam	0.000000
-4.235945	meano	0.000000
-4.235945	meary	0.000000
-4.059854	meaus	0.000000
-4.059854	meaver	0.000000
-4.059854	mechan	0.000000
-3.934915	meddleton	0.000000
-4.235945	megee	0.000000
-4.059854	meger	0.000000
-4.235945	meguire	0.000000
-4.059854	melender	0.000000
-4.235945	melendez	0.000000
-4.059854	meler	0.000000
-4.235945	meller	0.000000
-3.838005	melley	0.000000
-4.235945	mellin	0.000000
-4.235945	mencel	0.000000
-4.059854	mender	0.000000
-4.235945	mendoza	0.000000
-4.235945	mercado	0.000000
-4.235945	mercadoy	0.000000
-4.235945	merckle	0.000000
-3.758824	mergan	0.000000
-4.059854	merray	0.000000
-3.934915	merris	0.000000
-4.059854	merry	0.000000
-4.059854	merser	0.000000
-4.235945	mery	0.000000
-4.235945	mess	0.000000
-4.235945	messer	0.000000
-4.235945	messere	0.000000
-4.059854	mest	0.000000
-4.235945	metchell	0.000000
-4.059854	meter	0.000000
-3.934915	metz	0.000000
-3.934915	meye	0.000000
-4.235945	meyer	0.000000
-4.059854	meyers	0.000000
-4.059854	meyes	0.000000
-4.235945	meza	0.000000
-4.059854	michael	0.000000
-4.235945	michell	0.000000
-4.059854	michols	0.000000
-4.235945	micken	0.000000
-4.235945	mikolajewski	0.000000
-4.235945	milder	0.000000
-4.235945	mile	0.000000
-4.059854	miley	0.000000
-4.059854	milkman	0.000000
-2.804581	mill	0.000000
-3.934915	millan	0.000000
-4.235945	millard	0.000000
-3.934915	millegan	0.000000
-4.235945	millen	0.000000
-4.235945	millerman	0.000000
-4.235945	milliams	0.000000
-4.235945	millian	0.000000
-3.934915	millin	0.000000
-4.235945	millins	0.000000
-3.934915	millir	0.000000
-4.235945	milson	0.000000
-4.235945	milter	0.000000
-3.934915	mindez	0.000000
-4.235945	mine	0.000000
-3.089817	miner	0.000000
-3.934915	mines	0.000000
-4.235945	mingel	0.000000
-4.235945	minke	0.000000
-4.235945	minn	0.000000
-3.758824	minon	0.000000
-4.235945	mins	0.000000
-3.934915	mirr	0.000000
-4.235945	mithell	0.000000
-4.059854	mitler	0.000000
-4.235945	mittelstedt	0.000000
-4.059854	moffott	0.000000
-4.235945	mogan	0.000000
-4.235945	molan	0.000000
-3.934915	moll	0.000000
-4.235945	moller	0.000000
-4.235945	molly	0.000000
-3.934915	monahan	0.000000
-3.758824	mone	0.000000
-4.235945	moner	0.000000
-3.934915	mones	0.000000
-4.059854	mongan	0.000000
-4.235945	monn	0.000000
-4.235945	monning	0.000000
-4.235945	monrae	0.000000
-4.059854	monre	0.000000
-3.838005	monrow	0.000000
-4.235945	monters	0.000000
-3.934915	montgamery	0.000000
-3.934915	montgemery	0.000000
-4.059854	montgomey	0.000000
-4.235945	montgonery	0.000000
-4.235945	monton	0.000000
-4.059854	mood	0.000000
-4.235945	mooie	0.000000
-3.934915	mook	0.000000
-4.059854	mooke	0.000000
-4.235945	moone	0.000000
-4.059854	moor	0.000000
-4.235945	moora	0.000000
-4.235945	moorey	0.000000
-4.235945	moors	0.000000
-4.059854	moory	0.000000
-4.235945	moos	0.000000
-4.235945	morale	0.000000
-3.934915	morales	0.000000
-4.059854	moralesy	0.000000
-4.059854	morau	0.000000
-4.059854	moray	0.000000
-4.235945	mordhorst	0.000000
-4.059854	morean	0.000000
-3.838005	moren	0.000000
-4.059854	moreno	0.000000
-4.235945	moris	0.000000
-4.235945	mork	0.000000
-4.235945	morr	0.000000
-4.235945	morrell	0.000000
-4.235945	morrie	0.000000
-4.235945	morrison	0.000000
-3.934915	morron	0.000000
-4.059854	morrow	0.000000
-4.059854	morse	0.000000
-3.934915	morson	0.000000
-4.235945	mortenson	0.000000
-4.059854	mortin	0.000000
-4.059854	mose	0.000000
-4.059854	moser	0.000000
-4.235945	moses	0.000000
-4.235945	mosley	0.000000
-4.059854	moss	0.000000
-4.235945	mott	0.000000
-4.235945	mouroe	0.000000
-3.691877	moury	0.000000
-4.235945	move	0.000000
-4.235945	moxley	0.000000
-4.235945	moxwell	0.000000
-4.235945	mullaly	0.000000
-3.691877	mullegan	0.000000
-3.838005	mullin	0.000000
-3.934915	mullins	0.000000
-4.059854	munay	0.000000
-4.059854	muney	0.000000
-3.838005	munn	0.000000
-3.934915	munoy	0.000000
-3.934915	munoz	0.000000
-3.934915	muphy	0.000000
-4.235945	muray	0.000000
-4.235945	murday	0.000000
-3.934915	murdoch	0.000000
-4.235945	murrey	0.000000
-4.235945	murriel	0.000000
-4.235945	murtin	0.000000
-4.059854	myer	0.000000
-4.235945	mynar	0.000000
-4.059854	nable	0.000000
-4.235945	nalan	0.000000
-4.235945	nally	0.000000
-4.059854	nalson	0.000000
-3.934915	namara	0.000000
-4.235945	napoli	0.000000
-4.235945	narris	0.000000
-3.934915	narton	0.000000
-4.235945	nason	0.000000
-4.235945	naumoff	0.000000
-4.235945	navano	0.000000
-4.235945	neal	0.000000
-4.235945	neaver	0.000000
-4.235945	nebb	0.000000
-4.235945	neber	0.000000
-3.838005	neeman	0.000000
-3.838005	negent	0.000000
-4.235945	neill	0.000000
-4.235945	neilson	0.000000
-4.235945	neiss	0.000000
-4.059854	nelle	0.000000
-4.235945	nelley	0.000000
-4.235945	nelton	0.000000
-3.934915	neman	0.000000
-4.059854	nenman	0.000000
-4.235945	nerman	0.000000
-4.235945	ners	0.000000
-4.235945	nesbett	0.000000
-4.235945	ness	0.000000
-4.235945	nessier	0.000000
-3.934915	nest	0.000000
-3.691877	new	0.000000
-4.059854	newell	0.000000
-4.235945	newes	0.000000
-4.235945	newman	0.000000
-4.235945	newmann	0.000000
-3.838005	newson	0.000000
-4.059854	nichals	0.000000
-4.235945	nichans	0.000000
-4.235945	nichel	0.000000
-3.691877	nichels	0.000000
-4.059854	nicholas	0.000000
-4.235945	nick	0.000000
-4.235945	nickols	0.000000
-4.235945	nielsen	0.000000
-4.235945	nielson	0.000000
-4.059854	nieves	0.000000
-4.235945	night	0.000000
-3.934915	niller	0.000000
-4.235945	niswender	0.000000
-3.934915	nlson	0.000000
-4.235945	noah	0.000000
-4.235945	noble	0.000000
-4.235945	nodson	0.000000
-4.235945	nogel	0.000000
-4.235945	nolan	0.000000
-4.235945	nolen	0.000000
-3.934915	nolf	0.000000
-4.235945	nolfe	0.000000
-4.235945	nolsom	0.000000
-4.235945	noore	0.000000
-4.235945	norak	0.000000
-4.059854	nord	0.000000
-4.235945	norton	0.000000
-4.235945	noss	0.000000
-4.059854	novak	0.000000
-4.235945	novells	0.000000
-4.235945	nowell	0.000000
-4.235945	nulty	0.000000
-4.235945	nyers	0.000000
-3.838005	oaker	0.000000
-4.235945	obannon	0.000000
-4.235945	obold	0.000000
-3.838005	obreen	0.000000
-4.235945	obrian	0.000000
-4.059854	obrin	0.000000
-4.235945	obrine	0.000000
-4.235945	obrion	0.000000
-3.934915	obryant	0.000000
-3.838005	oconnar	0.000000
-4.235945	oconnel	0.000000
-3.934915	oconor	0.000000
-3.934915	odam	0.000000
-4.235945	odams	0.000000
-4.059854	odaniel	0.000000
-4.059854	odea	0.000000
-4.059854	odom	0.000000
-4.059854	odonald	0.000000
-3.934915	odonnel	0.000000
-4.235945	odowd	0.000000
-4.235945	odownell	0.000000
-4.235945	oels	0.000000
-3.934915	ofarrell	0.000000
-4.059854	ogara	0.000000
-4.235945	ogorman	0.000000
-4.235945	ohagan	0.000000
-4.059854	ohalloran	0.000000
-4.059854	ohern	0.000000
-4.235945	okeele	0.000000
-4.235945	okeilly	0.000000
-3.934915	olan	0.000000
-4.235945	olaney	0.000000
-4.059854	olaughlin	0.000000
-4.235945	olendorf	0.000000
-3.934915	olever	0.000000
-4.059854	oley	0.000000
-4.235945	oline	0.000000
-4.235945	olison	0.000000
-4.235945	olive	0.000000
-4.235945	oliver	0.000000
-4.059854	ollen	0.000000
-4.235945	ollendorf	0.000000
-4.059854	ollison	0.000000
-4.059854	olonnell	0.000000
-4.235945	olonnor	0.000000
-4.235945	oloughlin	0.000000
-4.059854	olsen	0.000000
-4.235945	omeara	0.000000
-4.235945	omill	0.000000
-3.934915	oneel	0.000000
-3.758824	oniel	0.000000
-3.934915	onill	0.000000
-3.838005	oprien	0.000000
-4.235945	orcott	0.000000
-3.934915	orear	0.000000
-4.059854	oreilly	0.000000
-4.235945	orien	0.000000
-4.235945	orient	0.000000
-4.235945	ormonde	0.000000
-3.934915	orouke	0.000000
-4.235945	orrock	0.000000
-4.235945	ortes	0.000000
-4.059854	ortizy	0.000000
-4.059854	orty	0.000000
-4.235945	ortz	0.000000
-4.059854	orus	0.000000
-3.838005	orvin	0.000000
-4.235945	orwin	0.000000
-4.235945	osbarne	0.000000
-4.235945	osborn	0.000000
-3.934915	osborne	0.000000
-4.235945	osterfeld	0.000000
-4.059854	oters	0.000000
-4.235945	otters	0.000000
-4.059854	otto	0.000000
-3.934915	ovens	0.000000
-4.235945	overmire	0.000000
-4.059854	owan	0.000000
-4.059854	owans	0.000000
-3.934915	owen	0.000000
-4.235945	owins	0.000000
-4.059854	own	0.000000
-4.059854	owyer	0.000000
-4.235945	pack	0.000000
-3.934915	paker	0.000000
-4.235945	palenski	0.000000
-4.059854	palk	0.000000
-4.059854	pall	0.000000
-4.235945	palley	0.000000
-4.059854	palmen	0.000000
-4.235945	palter	0.000000
-4.235945	palterson	0.000000
-4.059854	palton	0.000000
-4.235945	pander	0.000000
-4.059854	pane	0.000000
-3.934915	panker	0.000000
-3.934915	pankin	0.000000
-4.235945	panton	0.000000
-4.059854	pape	0.000000
-4.059854	parber	0.000000
-4.059854	pare	0.000000
-4.235945	parham	0.000000
-4.235945	parkes	0.000000
-3.838005	parler	0.000000
-3.758824	parley	0.000000
-3.934915	parper	0.000000
-3.838005	parrell	0.000000
-4.235945	parrich	0.000000
-4.235945	parrine	0.000000
-4.235945	parrons	0.000000
-4.235945	parsons	0.000000
-3.934915	part	0.000000
-4.235945	partland	0.000000
-4.059854	parton	0.000000
-4.235945	pasey	0.000000
-4.235945	paster	0.000000
-4.235945	paston	0.000000
-4.235945	patchen	0.000000
-4.235945	pater	0.000000
-4.235945	paterson	0.000000
-4.235945	pates	0.000000
-4.235945	patrich	0.000000
-4.059854	patt	0.000000
-4.059854	patten	0.000000
-4.059854	paul	0.000000
-4.235945	paule	0.000000
-4.235945	paulson	0.000000
-4.059854	pavis	0.000000
-4.235945	pawell	0.000000
-4.235945	pawers	0.000000
-4.235945	pay	0.000000
-4.059854	paye	0.000000
-4.235945	paylor	0.000000
-4.235945	payn	0.000000
-4.059854	peak	0.000000
-3.758824	peaples	0.000000
-4.235945	pear	0.000000
-4.235945	pearl	0.000000
-3.934915	pearson	0.000000
-4.235945	pecker	0.000000
-3.934915	peckins	0.000000
-4.235945	pecord	0.000000
-4.059854	pederson	0.000000
-4.235945	pedro	0.000000
-4.235945	peer	0.000000
-4.235945	pele	0.000000
-4.235945	pelerson	0.000000
-4.235945	pelet	0.000000
-4.059854	pendergart	0.000000
-3.934915	penington	0.000000
-4.235945	penis	0.000000
-4.059854	penn	0.000000
-4.235945	penry	0.000000
-4.235945	peppen	0.000000
-4.235945	percy	0.000000
-4.235945	perkins	0.000000
-4.235945	perrell	0.000000
-3.934915	perrey	0.000000
-4.235945	perrie	0.000000
-4.059854	perrry	0.000000
-3.934915	perry	0.000000
-3.934915	person	0.000000
-4.059854	pery	0.000000
-3.838005	perz	0.000000
-4.235945	pesner	0.000000
-4.235945	pester	0.000000
-4.235945	peston	0.000000
-4.235945	pete	0.000000
-3.838005	peter	0.000000
-3.758824	peters	0.000000
-4.235945	petes	0.000000
-4.059854	petet	0.000000
-4.235945	petman	0.000000
-4.235945	pette	0.000000
-4.235945	petters	0.000000
-4.059854	pettes	0.000000
-4.235945	pettet	0.000000
-4.059854	pettifer	0.000000
-4.235945	petty	0.000000
-4.059854	pewell	0.000000
-3.934915	phail	0.000000
-4.235945	phelan	0.000000
-4.235945	phellips	0.000000
-4.235945	phelps	0.000000
-4.235945	pherson	0.000000
-4.235945	philipps	0.000000
-4.059854	phillps	0.000000
-4.059854	phite	0.000000
-4.059854	pick	0.000000
-4.235945	pickles	0.000000
-4.059854	pierson	0.000000
-4.235945	piice	0.000000
-4.235945	pike	0.000000
-4.235945	piker	0.000000
-4.235945	piles	0.000000
-4.235945	pilotti	0.000000
-4.235945	pince	0.000000
-4.235945	pipe	0.000000
-4.235945	piper	0.000000
-3.934915	pirez	0.000000
-4.235945	pirr	0.000000
-4.235945	pite	0.000000
-4.059854	pitts	0.000000
-4.235945	plack	0.000000
-4.235945	planke	0.000000
-3.934915	plant	0.000000
-4.059854	plante	0.000000
-4.235945	planz	0.000000
-4.059854	plark	0.000000
-4.235945	platt	0.000000
-4.059854	plauk	0.000000
-3.838005	plaut	0.000000
-3.838005	plaute	0.000000
-3.934915	pleiffer	0.000000
-4.235945	plister	0.000000
-4.235945	plott	0.000000
-4.235945	pock	0.000000
-4.235945	poine	0.000000
-4.235945	point	0.000000
-4.235945	polak	0.000000
-3.934915	pole	0.000000
-4.235945	polisher	0.000000
-4.235945	politowski	0.000000
-4.235945	pollard	0.000000
-4.235945	poller	0.000000
-4.235945	pollock	0.000000
-4.059854	polter	0.000000
-4.059854	pone	0.000000
-4.235945	ponter	0.000000
-3.838005	pontins	0.000000
-3.838005	pooter	0.000000
-4.235945	pope	0.000000
-4.059854	poper	0.000000
-4.059854	porks	0.000000
-4.235945	port	0.000000
-4.235945	porte	0.000000
-4.059854	porter	0.000000
-4.235945	pose	0.000000
-3.838005	post	0.000000
-4.235945	postman	0.000000
-4.059854	poter	0.000000
-4.059854	potter	0.000000
-4.059854	potts	0.000000
-4.235945	pouler	0.000000
-4.235945	poyne	0.000000
-3.838005	prece	0.000000
-4.235945	precott	0.000000
-4.235945	prensky	0.000000
-4.059854	prerce	0.000000
-4.235945	prercott	0.000000
-4.235945	prett	0.000000
-4.235945	priger	0.000000
-4.235945	prinne	0.000000
-4.235945	print	0.000000
-4.235945	pritt	0.000000
-2.639348	private	0.000000
-3.934915	procter	0.000000
-4.235945	prott	0.000000
-4.235945	pruett	0.000000
-3.934915	prutt	0.000000
-4.059854	pryer	0.000000
-3.934915	pucker	0.000000
-4.235945	puller	0.000000
-4.235945	purner	0.000000
-4.059854	purrell	0.000000
-4.235945	purris	0.000000
-4.235945	puta	0.000000
-4.235945	putnan	0.000000
-4.059854	quich	0.000000
-4.235945	quick	0.000000
-4.235945	quim	0.000000
-4.235945	quine	0.000000
-4.235945	qunn	0.000000
-4.235945	race	0.000000
-4.235945	rachel	0.000000
-4.235945	radgers	0.000000
-4.235945	ragan	0.000000
-4.235945	rage	0.000000
-4.235945	railey	0.000000
-4.235945	raino	0.000000
-4.059854	raker	0.000000
-3.934915	rallins	0.000000
-4.059854	ramas	0.000000
-4.235945	ramer	0.000000
-4.235945	ramery	0.000000
-4.235945	ramey	0.000000
-4.059854	ramire	0.000000
-4.235945	ramires	0.000000
-4.059854	ramosy	0.000000
-4.235945	rams	0.000000
-4.235945	rankin	0.000000
-4.059854	ransey	0.000000
-4.235945	rase	0.000000
-4.235945	rasker	0.000000
-3.934915	rath	0.000000
-4.059854	rauch	0.000000
-4.235945	raukin	0.000000
-4.059854	raylor	0.000000
-4.235945	raymon	0.000000
-3.838005	raymond	0.000000
-3.934915	raynolds	0.000000
-4.235945	read	0.000000
-4.059854	reader	0.000000
-4.235945	reas	0.000000
-4.235945	rece	0.000000
-4.059854	rech	0.000000
-4.059854	recker	0.000000
-4.059854	redd	0.000000
-4.235945	reede	0.000000
-4.235945	reeder	0.000000
-4.059854	reedy	0.000000
-3.934915	reee	0.000000
-4.059854	reel	0.000000
-4.235945	reene	0.000000
-3.934915	reenes	0.000000
-4.059854	rees	0.000000
-4.235945	reess	0.000000
-4.235945	reeves	0.000000
-4.235945	reeynolds	0.000000
-3.934915	reger	0.000000
-4.059854	regers	0.000000
-4.235945	regoni	0.000000
-4.059854	reilly	0.000000
-4.235945	reisenauer	0.000000
-3.934915	reley	0.000000
-4.235945	rell	0.000000
-4.059854	relly	0.000000
-4.235945	rena	0.000000
-4.235945	renfroe	0.000000
-4.235945	renner	0.000000
-4.059854	renter	0.000000
-4.235945	repairman	0.000000
-3.934915	reyer	0.000000
-4.059854	reyesy	0.000000
-4.235945	reynalds	0.000000
-3.838005	rhoader	0.000000
-3.934915	rhodes	0.000000
-4.059854	rich	0.000000
-4.059854	richel	0.000000
-4.235945	richer	0.000000
-4.059854	richerdson	0.000000
-3.934915	richey	0.000000
-4.235945	richings	0.000000
-4.059854	richl	0.000000
-4.059854	richler	0.000000
-4.235945	richmond	0.000000
-4.235945	rickard	0.000000
-4.235945	ricker	0.000000
-4.235945	rickett	0.000000
-4.235945	rickey	0.000000
-4.059854	riddle	0.000000
-4.235945	riee	0.000000
-4.235945	rieley	0.000000
-4.235945	rienes	0.000000
-4.235945	ries	0.000000
-4.235945	rigley	0.000000
-3.934915	rile	0.000000
-4.059854	riley	0.000000
-4.235945	rines	0.000000
-4.235945	ring	0.000000
-4.235945	rinton	0.000000
-4.235945	rios	0.000000
-4.059854	rise	0.000000
-4.235945	rishop	0.000000
-4.235945	riss	0.000000
-4.235945	risson	0.000000
-3.934915	ritter	0.000000
-4.059854	riverade	0.000000
-4.059854	riveray	0.000000
-4.059854	roab	0.000000
-4.235945	roas	0.000000
-4.059854	robe	0.000000
-4.059854	robers	0.000000
-3.934915	roberson	0.000000
-4.235945	roberts	0.000000
-3.934915	robets	0.000000
-4.059854	robin	0.000000
-4.235945	robinso	0.000000
-4.059854	robirson	0.000000
-3.838005	robison	0.000000
-4.235945	roce	0.000000
-3.934915	roche	0.000000
-4.059854	rocher	0.000000
-4.235945	roddenberry	0.000000
-4.235945	roders	0.000000
-3.934915	rodger	0.000000
-4.235945	rodges	0.000000
-4.059854	rodrignez	0.000000
-4.235945	rodrigug	0.000000
-3.934915	rodrigus	0.000000
-4.059854	rodriquer	0.000000
-4.235945	rodriqus	0.000000
-4.235945	rodriquz	0.000000
-4.235945	roeber	0.000000
-4.235945	roes	0.000000
-4.235945	roge	0.000000
-4.235945	rohn	0.000000
-4.059854	roland	0.000000
-4.235945	rolin	0.000000
-4.059854	romany	0.000000
-4.059854	romer	0.000000
-4.059854	romirey	0.000000
-3.934915	romos	0.000000
-4.059854	romsey	0.000000
-4.235945	rones	0.000000
-4.235945	ronse	0.000000
-4.235945	roob	0.000000
-3.934915	root	0.000000
-4.235945	rosado	0.000000
-4.235945	rosadoy	0.000000
-4.235945	rosario	0.000000
-4.235945	rosaris	0.000000
-4.059854	rosay	0.000000
-3.934915	rosen	0.000000
-4.235945	rosse	0.000000
-4.235945	rostrom	0.000000
-4.235945	roth	0.000000
-4.235945	rouch	0.000000
-4.059854	routte	0.000000
-4.059854	rowe	0.000000
-4.235945	rower	0.000000
-4.235945	rowland	0.000000
-4.059854	rowls	0.000000
-3.934915	royd	0.000000
-4.235945	royer	0.000000
-4.235945	royes	0.000000
-4.235945	rube	0.000000
-4.059854	rubin	0.000000
-4.059854	rubinson	0.000000
-4.235945	rubis	0.000000
-4.235945	ruby	0.000000
-4.235945	rucher	0.000000
-3.838005	ruck	0.000000
-4.059854	rucker	0.000000
-3.934915	ruggiers	0.000000
-4.059854	ruhn	0.000000
-4.059854	rully	0.000000
-4.235945	rumey	0.000000
-4.235945	rumohr	0.000000
-4.235945	ruse	0.000000
-4.235945	rusell	0.000000
-4.235945	russe	0.000000
-4.235945	russel	0.000000
-4.059854	russo	0.000000
-3.934915	rynolds	0.000000
-4.235945	saki	0.000000
-4.235945	sale	0.000000
-3.838005	sales	0.000000
-4.235945	salesgirl	0.000000
-3.457794	salesman	0.000000
-4.235945	saleswomen	0.000000
-4.059854	saley	0.000000
-4.235945	salirbury	0.000000
-4.059854	sall	0.000000
-4.235945	salley	0.000000
-4.235945	sallivan	0.000000
-4.235945	sally	0.000000
-4.059854	salman	0.000000
-4.235945	salomon	0.000000
-4.235945	salton	0.000000
-4.235945	samb	0.000000
-4.235945	sambert	0.000000
-4.235945	samer	0.000000
-4.059854	sammer	0.000000
-4.235945	samuel	0.000000
-4.235945	samyer	0.000000
-4.235945	sanche	0.000000
-4.059854	sanches	0.000000
-4.059854	sanchey	0.000000
-4.235945	sanchezy	0.000000
-3.934915	sanchy	0.000000
-4.235945	sancier	0.000000
-4.235945	sancomb	0.000000
-4.235945	sanda	0.000000
-4.235945	sande	0.000000
-3.934915	sandens	0.000000
-4.059854	sandes	0.000000
-4.235945	sandeval	0.000000
-4.235945	sandige	0.000000
-3.934915	sando	0.000000
-4.235945	sandon	0.000000
-4.235945	sandry	0.000000
-4.235945	sandwell	0.000000
-4.235945	sandy	0.000000
-4.235945	sanford	0.000000
-3.758824	sang	0.000000
-4.235945	sange	0.000000
-3.838005	sanley	0.000000
-4.235945	sann	0.000000
-4.059854	sannders	0.000000
-4.059854	santana	0.000000
-4.059854	santas	0.000000
-4.059854	santiagoy	0.000000
-3.838005	santings	0.000000
-4.235945	santor	0.000000
-4.235945	santos	0.000000
-4.235945	sanyer	0.000000
-4.235945	sardner	0.000000
-3.838005	sargant	0.000000
-4.059854	sark	0.000000
-4.235945	sarrell	0.000000
-4.235945	sarser	0.000000
-4.059854	sarson	0.000000
-4.235945	sater	0.000000
-4.059854	sato	0.000000
-4.059854	satrick	0.000000
-4.059854	saule	0.000000
-4.235945	saulmon	0.000000
-4.235945	saunders	0.000000
-4.235945	savers	0.000000
-3.758824	saw	0.000000
-4.235945	sawson	0.000000
-4.235945	sayder	0.000000
-4.059854	sayler	0.000000
-4.059854	saylor	0.000000
-3.758824	scatt	0.000000
-4.235945	schachtel	0.000000
-4.059854	schaeler	0.000000
-4.059854	schaffer	0.000000
-4.235945	schaler	0.000000
-4.235945	schaner	0.000000
-4.235945	schaper	0.000000
-4.235945	scharfer	0.000000
-3.934915	schelling	0.000000
-4.235945	schener	0.000000
-4.235945	scheuck	0.000000
-4.235945	schimidt	0.000000
-3.934915	schmdt	0.000000
-3.934915	schmedt	0.000000
-4.059854	schmeider	0.000000
-4.235945	schmer	0.000000
-4.235945	schmett	0.000000
-4.059854	schmider	0.000000
-4.235945	schmilt	0.000000
-4.235945	schnider	0.000000
-3.934915	schoeffer	0.000000
-4.235945	schoffer	0.000000
-3.934915	schrader	0.000000
-4.059854	schrang	0.000000
-3.934915	schroeder	0.000000
-4.059854	schueider	0.000000
-4.235945	schul	0.000000
-4.235945	schulte	0.000000
-4.059854	schults	0.000000
-3.934915	schulty	0.000000
-3.934915	schultz	0.000000
-4.235945	schulz	0.000000
-4.235945	schumacher	0.000000
-4.235945	schwarg	0.000000
-4.235945	schwarty	0.000000
-3.934915	schwary	0.000000
-4.059854	schwat	0.000000
-4.235945	scoft	0.000000
-4.059854	scolt	0.000000
-3.934915	scoot	0.000000
-4.235945	scutt	0.000000
-3.934915	seal	0.000000
-4.059854	seaman	0.000000
-4.059854	searey	0.000000
-4.059854	sears	0.000000
-4.235945	seary	0.000000
-4.059854	seater	0.000000
-4.235945	sebert	0.000000
-4.235945	sederman	0.000000
-4.235945	segee	0.000000
-4.235945	sellen	0.000000
-4.235945	seller	0.000000
-4.059854	sellers	0.000000
-4.059854	selley	0.000000
-4.235945	semell	0.000000
-4.235945	serrano	0.000000
-4.235945	serwatka	0.000000
-4.059854	sevedge	0.000000
-4.059854	sewell	0.000000
-4.059854	sexton	0.000000
-4.235945	seymonr	0.000000
-4.235945	shaffer	0.000000
-4.235945	shalan	0.000000
-4.235945	shaler	0.000000
-4.235945	shane	0.000000
-4.235945	shaner	0.000000
-4.235945	shank	0.000000
-4.235945	shapero	0.000000
-4.059854	shapers	0.000000
-4.235945	shar	0.000000
-3.934915	sharf	0.000000
-3.758824	shark	0.000000
-3.934915	sharks	0.000000
-4.235945	sharmon	0.000000
-4.235945	sharpe	0.000000
-4.235945	sharping	0.000000
-4.235945	sharrott	0.000000
-4.235945	shaver	0.000000
-4.235945	shea	0.000000
-4.235945	shear	0.000000
-3.934915	shears	0.000000
-4.235945	sheaver	0.000000
-4.059854	shechan	0.000000
-4.235945	shee	0.000000
-4.059854	sheehan	0.000000
-4.235945	sheehay	0.000000
-4.235945	sheel	0.000000
-4.235945	sheeler	0.000000
-4.235945	sheet	0.000000
-4.059854	shelden	0.000000
-4.235945	sheler	0.000000
-4.235945	shelley	0.000000
-4.235945	shelton	0.000000
-4.059854	sheman	0.000000
-4.235945	shen	0.000000
-4.059854	shencer	0.000000
-4.235945	shendan	0.000000
-3.758824	shephard	0.000000
-4.235945	shepherd	0.000000
-4.235945	sherley	0.000000
-4.235945	shew	0.000000
-4.059854	shields	0.000000
-4.235945	shilton	0.000000
-3.934915	shin	0.000000
-4.059854	shinner	0.000000
-4.235945	shipper	0.000000
-3.838005	shite	0.000000
-4.059854	shla	0.000000
-3.838005	shoffer	0.000000
-4.059854	shon	0.000000
-4.059854	shont	0.000000
-4.059854	shork	0.000000
-4.235945	short	0.000000
-4.235945	shouf	0.000000
-4.059854	shove	0.000000
-4.059854	show	0.000000
-4.059854	shringer	0.000000
-4.235945	shullis	0.000000
-4.235945	shultz	0.000000
-4.235945	shuts	0.000000
-4.235945	shutter	0.000000
-4.235945	sibbey	0.000000
-4.059854	sibson	0.000000
-4.235945	silbert	0.000000
-4.059854	siles	0.000000
-4.235945	sillers	0.000000
-4.235945	silley	0.000000
-4.235945	silva	0.000000
-3.838005	silver	0.000000
-3.934915	silverman	0.000000
-4.235945	sima	0.000000
-4.059854	siman	0.000000
-4.235945	sime	0.000000
-4.235945	simer	0.000000
-4.059854	simmens	0.000000
-4.059854	simmer	0.000000
-4.235945	simmerman	0.000000
-4.059854	simmers	0.000000
-4.235945	simmmons	0.000000
-4.235945	simmons	0.000000
-4.235945	simson	0.000000
-4.059854	sinder	0.000000
-4.235945	sine	0.000000
-4.235945	siner	0.000000
-4.059854	sines	0.000000
-4.059854	singer	0.000000
-4.235945	singh	0.000000
-4.235945	singleton	0.000000
-4.059854	sinon	0.000000
-4.235945	sinter	0.000000
-4.235945	sista	0.000000
-4.059854	sittle	0.000000
-4.235945	sitzer	0.000000
-4.235945	sixton	0.000000
-4.059854	skinner	0.000000
-4.059854	slark	0.000000
-4.235945	slean	0.000000
-4.235945	sletto	0.000000
-4.235945	slidge	0.000000
-4.235945	sllan	0.000000
-4.235945	sloan	0.000000
-4.235945	sluga	0.000000
-4.235945	small	0.000000
-4.235945	smeth	0.000000
-4.235945	smich	0.000000
-4.059854	smithe	0.000000
-4.059854	smitth	0.000000
-4.059854	snaw	0.000000
-4.235945	snell	0.000000
-4.235945	snyde	0.000000
-4.059854	snyden	0.000000
-4.059854	soloman	0.000000
-4.235945	solomon	0.000000
-4.235945	sonders	0.000000
-4.235945	song	0.000000
-4.235945	sonnek	0.000000
-4.059854	soper	0.000000
-4.059854	sopez	0.000000
-4.059854	soto	0.000000
-4.235945	sott	0.000000
-3.934915	sovensen	0.000000
-4.235945	sovenson	0.000000
-3.934915	sparks	0.000000
-4.235945	spaugler	0.000000
-3.934915	spear	0.000000
-4.235945	spencer	0.000000
-4.235945	spener	0.000000
-4.235945	spenser	0.000000
-4.235945	spiecker	0.000000
-4.235945	spilling	0.000000
-4.059854	spincer	0.000000
-3.758824	spiney	0.000000
-4.235945	spinner	0.000000
-4.235945	spragne	0.000000
-4.235945	squnes	0.000000
-4.235945	sre	0.000000
-4.235945	srite	0.000000
-4.059854	stach	0.000000
-4.235945	stade	0.000000
-4.059854	stafford	0.000000
-4.059854	stahl	0.000000
-4.059854	stain	0.000000
-4.235945	staker	0.000000
-4.235945	stale	0.000000
-4.235945	staley	0.000000
-3.838005	stane	0.000000
-4.235945	stanen	0.000000
-4.059854	stanffer	0.000000
-4.235945	stank	0.000000
-3.934915	stanley	0.000000
-4.235945	stann	0.000000
-4.059854	stanton	0.000000
-4.235945	staple	0.000000
-4.059854	starr	0.000000
-4.235945	stater	0.000000
-4.235945	stattery	0.000000
-4.235945	staughter	0.000000
-3.758824	staut	0.000000
-4.235945	staw	0.000000
-4.235945	stear	0.000000
-4.235945	steele	0.000000
-4.235945	steenson	0.000000
-4.235945	steffano	0.000000
-4.235945	steile	0.000000
-4.059854	steles	0.000000
-3.934915	stelle	0.000000
-4.059854	steller	0.000000
-4.235945	stelley	0.000000
-4.235945	stelson	0.000000
-4.235945	stem	0.000000
-4.059854	stene	0.000000
-4.059854	stener	0.000000
-4.235945	stenography	0.000000
-4.235945	stensel	0.000000
-4.059854	stephen	0.000000
-4.235945	stephenson	0.000000
-4.235945	stepheson	0.000000
-4.235945	stephins	0.000000
-4.235945	sterber	0.000000
-3.838005	sterens	0.000000
-3.838005	sterman	0.000000
-4.059854	sterry	0.000000
-4.235945	stett	0.000000
-4.235945	stevans	0.000000
-4.059854	stevart	0.000000
-4.235945	steve	0.000000
-3.838005	steven	0.000000
-4.235945	stevene	0.000000
-4.235945	stevensen	0.000000
-3.934915	stevenson	0.000000
-4.235945	stevers	0.000000
-3.934915	steverson	0.000000
-4.235945	stevins	0.000000
-3.838005	stewert	0.000000
-4.235945	stgeorge	0.000000
-4.235945	stieb	0.000000
-4.059854	stiles	0.000000
-3.934915	stine	0.000000
-4.059854	sting	0.000000
-4.059854	stinson	0.000000
-4.235945	stively	0.000000
-4.235945	stlaurent	0.000000
-4.059854	stoan	0.000000
-4.235945	stock	0.000000
-4.059854	stohes	0.000000
-4.235945	stoke	0.000000
-3.758824	stokes	0.000000
-4.235945	storck	0.000000
-4.059854	story	0.000000
-4.235945	stover	0.000000
-3.934915	strand	0.000000
-4.235945	strang	0.000000
-4.235945	strans	0.000000
-4.059854	strant	0.000000
-4.235945	strauge	0.000000
-4.235945	strause	0.000000
-4.235945	straut	0.000000
-4.235945	strickland	0.000000
-4.235945	string	0.000000
-4.059854	strond	0.000000
-4.235945	strong	0.000000
-4.235945	strut	0.000000
-4.235945	stuewer	0.000000
-3.934915	stwart	0.000000
-4.235945	sucas	0.000000
-4.059854	suell	0.000000
-4.235945	suith	0.000000
-4.235945	suley	0.000000
-4.059854	suller	0.000000
-4.235945	sullivon	0.000000
-4.059854	sullman	0.000000
-4.235945	sullwan	0.000000
-4.235945	summer	0.000000
-3.934915	sumner	0.000000
-4.235945	sumwalt	0.000000
-4.059854	sunders	0.000000
-4.059854	sunter	0.000000
-4.059854	sutler	0.000000
-4.235945	sutz	0.000000
-4.059854	swain	0.000000
-4.059854	swan	0.000000
-4.235945	swansen	0.000000
-3.838005	swanson	0.000000
-4.235945	swape	0.000000
-4.059854	sward	0.000000
-4.235945	swenson	0.000000
-4.235945	swerney	0.000000
-3.838005	swert	0.000000
-4.235945	swiff	0.000000
-4.235945	swin	0.000000
-4.235945	syler	0.000000
-3.838005	syles	0.000000
-4.235945	synch	0.000000
-4.235945	taber	0.000000
-4.235945	tale	0.000000
-4.235945	taller	0.000000
-4.235945	tallmon	0.000000
-3.934915	tallon	0.000000
-4.059854	talor	0.000000
-3.934915	tambert	0.000000
-4.059854	tampson	0.000000
-4.235945	tarmer	0.000000
-4.059854	tarner	0.000000
-4.235945	tarr	0.000000
-4.059854	tate	0.000000
-4.235945	tayer	0.000000
-4.235945	tayl	0.000000
-4.235945	taylar	0.000000
-4.059854	taylo	0.000000
-4.059854	tayton	0.000000
-4.235945	taytor	0.000000
-3.582732	teacher	0.000000
-4.235945	teller	0.000000
-4.235945	teran	0.000000
-4.235945	terguson	0.000000
-4.059854	terney	0.000000
-4.235945	terrell	0.000000
-4.235945	terris	0.000000
-4.059854	tewis	0.000000
-4.235945	thamas	0.000000
-4.235945	tharnton	0.000000
-4.235945	thayer	0.000000
-4.235945	themas	0.000000
-3.934915	thempson	0.000000
-4.235945	theno	0.000000
-4.235945	thimpson	0.000000
-3.633885	thisends	0.000000
-3.934915	thmpson	0.000000
-4.059854	thom	0.000000
-4.235945	thoma	0.000000
-4.235945	thoman	0.000000
-4.059854	thommas	0.000000
-4.235945	thommpson	0.000000
-4.235945	thompso	0.000000
-4.235945	thomson	0.000000
-4.235945	thomton	0.000000
-4.059854	thonas	0.000000
-4.235945	thonton	0.000000
-4.235945	thor	0.000000
-4.059854	thornton	0.000000
-4.235945	thurman	0.000000
-4.235945	tietgen	0.000000
-4.235945	tilus	0.000000
-4.235945	timmerman	0.000000
-4.059854	toft	0.000000
-3.934915	tolbert	0.000000
-4.059854	tomer	0.000000
-4.059854	tomes	0.000000
-4.059854	toner	0.000000
-4.235945	tones	0.000000
-4.059854	tonesy	0.000000
-4.235945	toney	0.000000
-3.934915	tong	0.000000
-4.059854	tonres	0.000000
-4.235945	tood	0.000000
-4.059854	torman	0.000000
-4.235945	torris	0.000000
-4.235945	toster	0.000000
-4.235945	towell	0.000000
-3.934915	townsen	0.000000
-4.235945	toylor	0.000000
-4.235945	traham	0.000000
-4.235945	trant	0.000000
-4.235945	traut	0.000000
-3.838005	tray	0.000000
-4.059854	trazier	0.000000
-4.235945	treeman	0.000000
-4.235945	trenor	0.000000
-4.235945	trestrail	0.000000
-4.235945	trevers	0.000000
-4.235945	trey	0.000000
-4.235945	triplet	0.000000
-4.235945	tromme	0.000000
-4.059854	tront	0.000000
-4.235945	trufillo	0.000000
-3.691877	tulton	0.000000
-3.838005	tuner	0.000000
-3.934915	turne	0.000000
-4.235945	turnen	0.000000
-3.934915	turnes	0.000000
-4.059854	turney	0.000000
-4.235945	turre	0.000000
-4.235945	turro	0.000000
-4.235945	turton	0.000000
-3.934915	tyle	0.000000
-4.059854	tyler	0.000000
-3.934915	tylor	0.000000
-4.235945	ulatowski	0.000000
-4.235945	urguhart	0.000000
-4.235945	utsler	0.000000
-3.934915	vagel	0.000000
-4.235945	valdey	0.000000
-3.934915	valley	0.000000
-4.059854	van	0.000000
-3.838005	vanburen	0.000000
-4.235945	vande	0.000000
-4.235945	vanden	0.000000
-4.235945	vandyke	0.000000
-4.235945	vann	0.000000
-4.059854	vanness	0.000000
-4.235945	vantilburg	0.000000
-4.235945	vantress	0.000000
-4.235945	vanwagner	0.000000
-4.235945	varant	0.000000
-4.235945	varner	0.000000
-4.235945	vaugh	0.000000
-4.235945	vaughan	0.000000
-4.059854	vaughn	0.000000
-4.235945	vaughs	0.000000
-3.838005	vay	0.000000
-3.934915	vazquez	0.000000
-4.235945	veader	0.000000
-3.934915	veley	0.000000
-4.235945	velez	0.000000
-4.235945	vencent	0.000000
-4.235945	verren	0.000000
-4.235945	verry	0.000000
-3.691877	vilez	0.000000
-4.235945	villanneva	0.000000
-4.235945	vincent	0.000000
-4.059854	vingard	0.000000
-3.934915	voyt	0.000000
-4.235945	wabb	0.000000
-4.059854	wacker	0.000000
-4.235945	wadle	0.000000
-4.235945	wagle	0.000000
-4.059854	wagne	0.000000
-4.059854	wahefield	0.000000
-4.235945	waight	0.000000
-4.235945	wakker	0.000000
-3.934915	walber	0.000000
-4.059854	wald	0.000000
-4.059854	walde	0.000000
-4.235945	walder	0.000000
-4.235945	waldson	0.000000
-4.235945	waler	0.000000
-4.235945	wales	0.000000
-4.235945	waley	0.000000
-3.691877	walher	0.000000
-4.235945	walk	0.000000
-4.059854	walkes	0.000000
-3.934915	walkin	0.000000
-4.235945	wallac	0.000000
-3.934915	wallan	0.000000
-3.934915	wallare	0.000000
-3.934915	walle	0.000000
-4.235945	wallers	0.000000
-3.758824	walles	0.000000
-4.235945	walley	0.000000
-4.235945	walls	0.000000
-4.235945	walper	0.000000
-4.059854	walten	0.000000
-4.235945	walton	0.000000
-3.838005	wamack	0.000000
-4.235945	wanen	0.000000
-4.059854	wanren	0.000000
-4.235945	warden	0.000000
-4.235945	ware	0.000000
-4.059854	warhington	0.000000
-4.059854	warl	0.000000
-4.235945	warming	0.000000
-4.059854	warner	0.000000
-4.059854	warnes	0.000000
-4.235945	waron	0.000000
-4.235945	warrell	0.000000
-4.235945	warris	0.000000
-4.059854	warson	0.000000
-4.059854	warte	0.000000
-4.235945	warthington	0.000000
-4.059854	warver	0.000000
-4.235945	wase	0.000000
-4.235945	washingtin	0.000000
-3.838005	waslington	0.000000
-4.235945	wast	0.000000
-4.059854	wate	0.000000
-4.235945	waters	0.000000
-4.235945	wath	0.000000
-4.235945	wathews	0.000000
-4.235945	wathins	0.000000
-4.059854	watker	0.000000
-4.235945	watkin	0.000000
-4.059854	watter	0.000000
-3.934915	watters	0.000000
-4.059854	watton	0.000000
-4.235945	wattson	0.000000
-4.235945	wayer	0.000000
-4.235945	wayes	0.000000
-4.235945	waylor	0.000000
-4.235945	waynes	0.000000
-3.758824	wead	0.000000
-4.059854	weal	0.000000
-4.059854	weaner	0.000000
-4.235945	wearer	0.000000
-4.235945	weat	0.000000
-4.059854	webbe	0.000000
-4.235945	webber	0.000000
-4.235945	webbs	0.000000
-3.838005	weber	0.000000
-4.235945	webl	0.000000
-4.235945	webster	0.000000
-4.235945	weeke	0.000000
-4.059854	weels	0.000000
-4.059854	weess	0.000000
-4.235945	weff	0.000000
-4.235945	wegher	0.000000
-4.059854	weher	0.000000
-4.235945	weichbrodt	0.000000
-3.838005	weil	0.000000
-3.934915	wein	0.000000
-4.059854	weir	0.000000
-4.059854	weis	0.000000
-4.059854	weise	0.000000
-4.059854	weiss	0.000000
-4.235945	weissbach	0.000000
-4.235945	weisse	0.000000
-4.059854	weith	0.000000
-4.235945	weitz	0.000000
-4.235945	welb	0.000000
-4.235945	welbarn	0.000000
-4.235945	welber	0.000000
-4.235945	weleh	0.000000
-4.235945	welker	0.000000
-4.235945	welks	0.000000
-4.235945	welley	0.000000
-4.235945	welliams	0.000000
-3.934915	wellis	0.000000
-4.059854	wenn	0.000000
-3.934915	went	0.000000
-3.758824	wenter	0.000000
-3.838005	wenters	0.000000
-4.235945	wenzer	0.000000
-4.235945	werner	0.000000
-4.059854	wesh	0.000000
-4.059854	weshington	0.000000
-4.235945	wesley	0.000000
-3.934915	wess	0.000000
-4.059854	weston	0.000000
-4.235945	wetsch	0.000000
-4.059854	wetson	0.000000
