\data\
ngram 1=6215
ngram 2=12442
ngram 3=6378
ngram 4=150

\1-grams:
-5.000000	<unk>	0.000000
-1.195164	0	0.000000
-2.837015	1	0.000000
-2.572662	2	0.000000
-2.513632	3	0.000000
-2.532937	4	0.000000
-2.849424	5	0.000000
-2.633277	6	0.000000
-4.211152	63	0.000000
-3.025515	7	0.000000
-2.650846	8	0.000000
-0.512167	</s>	0.000000
-0.512167	<s>	0.000000
-4.688273	aakes	0.000000
-4.387243	aanderson	0.000000
-4.211152	abbatt	0.000000
-4.688273	abens	0.000000
-4.688273	abert	0.000000
-4.688273	abren	0.000000
-4.688273	acer	0.000000
-4.387243	acherman	0.000000
-4.512182	ackerman	0.000000
-4.387243	ackins	0.000000
-4.290333	acosta	0.000000
-4.290333	adama	0.000000
-4.144205	adame	0.000000
-4.211152	adans	0.000000
-4.688273	adanson	0.000000
-4.211152	aderson	0.000000
-4.387243	adkins	0.000000
-4.387243	adoms	0.000000
-4.512182	afflerbach	0.000000
-4.512182	agers	0.000000
-4.688273	agles	0.000000
-4.211152	agne	0.000000
-4.512182	agnen	0.000000
-4.211152	agnes	0.000000
-4.688273	agnese	0.000000
-4.688273	aguino	0.000000
-4.688273	ailman	0.000000
-4.512182	ailsworth	0.000000
-4.387243	aken	0.000000
-4.211152	alams	0.000000
-4.688273	albern	0.000000
-4.688273	alberts	0.000000
-4.290333	albott	0.000000
-4.512182	albricht	0.000000
-3.989303	alcom	0.000000
-4.211152	aldham	0.000000
-4.290333	alen	0.000000
-4.512182	aler	0.000000
-4.144205	alexande	0.000000
-4.688273	alexon	0.000000
-4.688273	alford	0.000000
-4.512182	alice	0.000000
-4.387243	alicea	0.000000
-4.688273	alina	0.000000
-4.290333	alison	0.000000
-4.688273	aliss	0.000000
-4.211152	aliver	0.000000
-4.144205	alkins	0.000000
-4.290333	alkinson	0.000000
-4.688273	allabaugh	0.000000
-4.512182	allan	0.000000
-3.875360	allem	0.000000
-4.688273	allens	0.000000
-4.144205	aller	0.000000
-4.688273	alleshouse	0.000000
-4.512182	alleson	0.000000
-4.387243	allgor	0.000000
-4.387243	allin	0.000000
-4.144205	allison	0.000000
-4.086213	allister	0.000000
-3.947910	allman	0.000000
-4.387243	allright	0.000000
-4.688273	allyn	0.000000
-4.144205	almer	0.000000
-4.688273	almers	0.000000
-4.688273	alna	0.000000
-4.688273	alrahamson	0.000000
-4.211152	alrich	0.000000
-4.035060	alsen	0.000000
-4.688273	alsobrooks	0.000000
-4.512182	alting	0.000000
-4.387243	altman	0.000000
-4.512182	alton	0.000000
-4.290333	alvarado	0.000000
-4.688273	alvare	0.000000
-4.512182	alvary	0.000000
-4.688273	alver	0.000000
-4.512182	alwood	0.000000
-4.144205	alxander	0.000000
-4.512182	amador	0.000000
-4.512182	amas	0.000000
-4.387243	amer	0.000000
-4.144205	ames	0.000000
-4.688273	amnes	0.000000
-4.387243	amodt	0.000000
-4.688273	amos	0.000000
-4.688273	anda	0.000000
-4.688273	ander	0.000000
-4.387243	andersn	0.000000
-4.290333	andersson	0.000000
-4.512182	andeson	0.000000
-4.688273	andett	0.000000
-4.512182	andren	0.000000
-4.290333	andrens	0.000000
-4.512182	andres	0.000000
-4.035060	andress	0.000000
-4.688273	andrewa	0.000000
-4.688273	andros	0.000000
-4.144205	andrrson	0.000000
-4.688273	andrson	0.000000
-4.688273	andrus	0.000000
-4.290333	anes	0.000000
-4.688273	angan	0.000000
-4.512182	angelico	0.000000
-4.387243	angelo	0.000000
-4.290333	anger	0.000000
-4.688273	anmstrong	0.000000
-4.688273	anne	0.000000
-4.290333	annie	0.000000
-4.144205	annstrong	0.000000
-4.387243	anton	0.000000
-4.688273	aoley	0.000000
-4.290333	aponte	0.000000
-4.688273	aquilla	0.000000
-4.387243	arban	0.000000
-4.211152	arce	0.000000
-4.688273	archer	0.000000
-4.688273	architect	0.000000
-4.688273	ardelean	0.000000
-4.688273	arderson	0.000000
-4.688273	arendes	0.000000
-4.512182	areson	0.000000
-4.290333	arkins	0.000000
-4.512182	arman	0.000000
-4.688273	arment	0.000000
-4.688273	armetta	0.000000
-4.512182	armstring	0.000000
-4.290333	armstron	0.000000
-4.211152	arnald	0.000000
-4.688273	arnason	0.000000
-4.086213	arnes	0.000000
-4.512182	arnstrong	0.000000
-4.688273	arocha	0.000000
-4.290333	arroys	0.000000
-4.290333	arth	0.000000
-4.387243	arther	0.000000
-4.035060	arthur	0.000000
-4.512182	arton	0.000000
-4.512182	ashburner	0.000000
-4.144205	ashley	0.000000
-4.688273	ashly	0.000000
-4.688273	ashmun	0.000000
-4.688273	askeland	0.000000
-4.387243	asker	0.000000
-4.512182	ason	0.000000
-4.387243	atkins	0.000000
-4.688273	atzinger	0.000000
-4.512182	auderson	0.000000
-4.688273	audin	0.000000
-4.688273	auinones	0.000000
-4.290333	ausley	0.000000
-4.688273	averbach	0.000000
-4.144205	aviles	0.000000
-4.688273	aviley	0.000000
-4.211152	ayala	0.000000
-4.688273	ayees	0.000000
-4.387243	ayers	0.000000
-4.512182	ayres	0.000000
-4.144205	baber	0.000000
-4.290333	babrock	0.000000
-4.387243	bace	0.000000
-4.290333	bach	0.000000
-4.211152	bachman	0.000000
-4.387243	bachr	0.000000
-4.211152	back	0.000000
-4.211152	backman	0.000000
-4.688273	bacone	0.000000
-4.387243	bader	0.000000
-4.688273	badley	0.000000
-4.688273	badowski	0.000000
-4.290333	bady	0.000000
-4.512182	baer	0.000000
-4.688273	baers	0.000000
-4.086213	bagley	0.000000
-3.989303	baher	0.000000
-4.512182	baile	0.000000
-4.144205	baily	0.000000
-4.688273	bain	0.000000
-4.290333	bair	0.000000
-4.387243	baird	0.000000
-4.688273	bakr	0.000000
-4.688273	balaguer	0.000000
-4.086213	balden	0.000000
-4.512182	baldin	0.000000
-4.387243	baldwin	0.000000
-4.512182	baldwine	0.000000
-4.086213	baler	0.000000
-4.144205	baley	0.000000
-4.387243	ballan	0.000000
-4.290333	ballard	0.000000
-4.290333	balle	0.000000
-4.512182	ballen	0.000000
-4.290333	baller	0.000000
-4.688273	balley	0.000000
-4.387243	ballinger	0.000000
-4.211152	ballon	0.000000
-4.512182	balson	0.000000
-4.512182	balt	0.000000
-4.290333	balton	0.000000
-4.512182	bames	0.000000
-4.387243	bancom	0.000000
-4.290333	band	0.000000
-4.211152	bander	0.000000
-4.290333	bane	0.000000
-4.512182	banett	0.000000
-4.512182	bankers	0.000000
-4.512182	bankston	0.000000
-4.211152	banman	0.000000
-4.688273	bann	0.000000
-4.688273	banner	0.000000
-4.290333	bannett	0.000000
-4.211152	banr	0.000000
-4.512182	banton	0.000000
-4.688273	barbara	0.000000
-3.947910	barbaur	0.000000
-4.290333	barbee	0.000000
-4.688273	barbers	0.000000
-4.688273	barbi	0.000000
-4.086213	barcley	0.000000
-4.387243	barden	0.000000
-4.387243	barders	0.000000
-4.688273	bare	0.000000
-4.387243	barer	0.000000
-4.688273	bares	0.000000
-4.688273	barfell	0.000000
-4.512182	barfuss	0.000000
-4.144205	barger	0.000000
-4.688273	bargh	0.000000
-4.387243	baris	0.000000
-4.211152	barken	0.000000
-4.512182	barker	0.000000
-4.387243	barkes	0.000000
-4.086213	barlaw	0.000000
-4.144205	barler	0.000000
-4.688273	barlon	0.000000
-4.387243	barnard	0.000000
-4.086213	barnett	0.000000
-4.086213	barney	0.000000
-4.290333	barns	0.000000
-4.290333	baron	0.000000
-4.512182	barral	0.000000
-4.512182	barrell	0.000000
-4.512182	barrelt	0.000000
-4.512182	barres	0.000000
-4.512182	barrow	0.000000
-4.512182	bars	0.000000
-3.989303	barson	0.000000
-4.387243	bart	0.000000
-4.512182	barter	0.000000
-4.387243	bartholomen	0.000000
-4.512182	barti	0.000000
-4.387243	bartin	0.000000
-4.290333	bartlet	0.000000
-4.290333	bartlett	0.000000
-4.688273	bartness	0.000000
-4.688273	bartola	0.000000
-4.144205	barts	0.000000
-4.387243	bary	0.000000
-4.688273	basett	0.000000
-4.512182	bason	0.000000
-4.290333	bass	0.000000
-4.688273	baster	0.000000
-4.688273	batchellor	0.000000
-4.387243	bate	0.000000
-4.290333	bater	0.000000
-4.290333	bates	0.000000
-4.144205	batler	0.000000
-4.688273	batt	0.000000
-4.512182	batton	0.000000
-4.144205	batts	0.000000
-4.144205	baud	0.000000
-4.387243	bauer	0.000000
-4.290333	bauman	0.000000
-4.688273	baun	0.000000
-4.688273	bautley	0.000000
-4.035060	baver	0.000000
-4.512182	bawer	0.000000
-4.688273	baxber	0.000000
-4.290333	baxler	0.000000
-4.688273	baxter	0.000000
-4.688273	bayerl	0.000000
-4.512182	bayes	0.000000
-4.387243	baykin	0.000000
-4.688273	bayla	0.000000
-4.035060	bayle	0.000000
-4.387243	bayler	0.000000
-4.512182	bayles	0.000000
-4.290333	bayley	0.000000
-4.688273	bayls	0.000000
-4.387243	baynton	0.000000
-4.290333	beach	0.000000
-4.512182	beack	0.000000
-4.688273	beake	0.000000
-4.688273	beal	0.000000
-4.688273	beales	0.000000
-4.512182	bean	0.000000
-4.688273	beanson	0.000000
-4.290333	bear	0.000000
-3.989303	beard	0.000000
-4.512182	beasley	0.000000
-4.290333	beat	0.000000
-4.387243	beatly	0.000000
-4.387243	beau	0.000000
-4.512182	beaunegard	0.000000
-4.688273	beauparlant	0.000000
-4.387243	beaver	0.000000
-4.387243	bechman	0.000000
-4.688273	becke	0.000000
-4.512182	becken	0.000000
-4.512182	becket	0.000000
-4.688273	becktold	0.000000
-4.086213	bee	0.000000
-4.688273	beed	0.000000
-4.688273	been	0.000000
-4.512182	beer	0.000000
-4.387243	beger	0.000000
-4.688273	beguette	0.000000
-4.290333	belcher	0.000000
-4.512182	bele	0.000000
-4.688273	bella	0.000000
-4.144205	bellen	0.000000
-4.144205	beller	0.000000
-4.688273	bellhop	0.000000
-4.512182	belson	0.000000
-4.387243	belt	0.000000
-4.688273	belzner	0.000000
-4.688273	benaway	0.000000
-4.211152	bend	0.000000
-4.512182	bender	0.000000
-4.688273	bene	0.000000
-4.512182	benediet	0.000000
-4.688273	benely	0.000000
-4.512182	benett	0.000000
-4.144205	beng	0.000000
-4.688273	benjamin	0.000000
-4.512182	benko	0.000000
-4.290333	bennell	0.000000
-4.688273	bennitt	0.000000
-4.290333	benry	0.000000
-4.688273	bens	0.000000
-4.512182	bent	0.000000
-4.387243	bentley	0.000000
-4.211152	benton	0.000000
-4.688273	berch	0.000000
-4.290333	berg	0.000000
-4.387243	berge	0.000000
-4.688273	bergenson	0.000000
-4.211152	berger	0.000000
-4.688273	bergerow	0.000000
-4.035060	bergeson	0.000000
-4.688273	berill	0.000000
-4.290333	berk	0.000000
-4.144205	berker	0.000000
-4.086213	berman	0.000000
-4.290333	bern	0.000000
-4.211152	bernard	0.000000
-4.387243	bernbe	0.000000
-4.688273	berndsen	0.000000
-4.144205	berner	0.000000
-4.387243	bernes	0.000000
-4.387243	bernis	0.000000
-4.387243	bernsten	0.000000
-3.947910	berr	0.000000
-4.512182	berris	0.000000
-4.290333	bers	0.000000
-4.144205	berson	0.000000
-4.211152	bert	0.000000
-4.688273	berting	0.000000
-4.144205	berton	0.000000
-4.688273	bertt	0.000000
-4.211152	bery	0.000000
-4.387243	besh	0.000000
-4.211152	beshop	0.000000
-4.290333	besley	0.000000
-4.387243	bess	0.000000
-4.512182	bessie	0.000000
-4.086213	best	0.000000
-4.290333	beston	0.000000
-4.512182	betler	0.000000
-4.512182	bett	0.000000
-4.211152	better	0.000000
-4.387243	betts	0.000000
-4.290333	betty	0.000000
-4.688273	beulley	0.000000
-4.512182	bexson	0.000000
-4.512182	beyant	0.000000
-4.290333	beyer	0.000000
-4.512182	beyson	0.000000
-4.290333	bichop	0.000000
-4.290333	bick	0.000000
-4.211152	bicker	0.000000
-4.688273	biddings	0.000000
-4.688273	bieman	0.000000
-4.688273	bigel	0.000000
-4.387243	biley	0.000000
-4.211152	bille	0.000000
-4.512182	biller	0.000000
-4.688273	billips	0.000000
-4.688273	bilse	0.000000
-4.387243	bilyen	0.000000
-4.688273	binkly	0.000000
-4.387243	binson	0.000000
-4.387243	binton	0.000000
-4.211152	bird	0.000000
-4.512182	birtwistle	0.000000
-4.688273	bishop	0.000000
-4.086213	bishops	0.000000
-4.688273	bisi	0.000000
-4.512182	bissing	0.000000
-4.211152	blachburn	0.000000
-4.387243	blachman	0.000000
-4.211152	blachwell	0.000000
-4.688273	blackeell	0.000000
-4.211152	blackman	0.000000
-4.688273	blackweel	0.000000
-4.211152	blackwell	0.000000
-4.035060	blahe	0.000000
-4.290333	blain	0.000000
-4.211152	blair	0.000000
-4.688273	blais	0.000000
-4.387243	blak	0.000000
-4.086213	blan	0.000000
-4.387243	blanc	0.000000
-4.688273	blanchard	0.000000
-4.211152	bland	0.000000
-4.512182	blank	0.000000
-4.688273	blanka	0.000000
-4.512182	blant	0.000000
-4.387243	blaud	0.000000
-4.387243	blaunt	0.000000
-4.688273	blechle	0.000000
-4.290333	blecker	0.000000
-4.688273	blee	0.000000
-4.688273	blek	0.000000
-4.688273	bleyle	0.000000
-4.512182	blide	0.000000
-4.688273	blinco	0.000000
-4.290333	bloch	0.000000
-4.512182	blown	0.000000
-4.688273	bluc	0.000000
-4.290333	bluck	0.000000
-4.688273	blun	0.000000
-4.688273	blund	0.000000
-4.688273	boaker	0.000000
-4.035060	boath	0.000000
-4.086213	bobb	0.000000
-4.144205	bochm	0.000000
-4.290333	bochmer	0.000000
-4.688273	bodenschatz	0.000000
-4.688273	bodge	0.000000
-4.688273	boeglin	0.000000
-4.512182	boger	0.000000
-4.688273	boggan	0.000000
-4.688273	bogge	0.000000
-4.688273	bogues	0.000000
-4.688273	bohrn	0.000000
-4.512182	boiler	0.000000
-4.688273	boilermaker	0.000000
-4.688273	boist	0.000000
-4.688273	bokar	0.000000
-4.688273	bolay	0.000000
-4.688273	boldon	0.000000
-4.688273	boldwin	0.000000
-4.688273	bolenger	0.000000
-4.688273	bolhm	0.000000
-4.211152	boll	0.000000
-4.211152	bolton	0.000000
-4.290333	bomers	0.000000
-4.387243	bondreau	0.000000
-4.688273	bondreaux	0.000000
-4.290333	boner	0.000000
-4.512182	boners	0.000000
-4.512182	bong	0.000000
-4.211152	bonilla	0.000000
-4.512182	bonks	0.000000
-4.290333	bonnett	0.000000
-4.688273	bonnetti	0.000000
-4.211152	bonton	0.000000
-4.688273	boodry	0.000000
-4.387243	boody	0.000000
-4.387243	booe	0.000000
-4.387243	booke	0.000000
-4.688273	booker	0.000000
-4.688273	bookkeeping	0.000000
-4.688273	boon	0.000000
-4.290333	boone	0.000000
-4.387243	boooks	0.000000
-4.688273	boott	0.000000
-4.688273	boowell	0.000000
-4.387243	boown	0.000000
-3.989303	borber	0.000000
-4.512182	borch	0.000000
-4.512182	bord	0.000000
-4.512182	bore	0.000000
-4.688273	borg	0.000000
-4.512182	borgel	0.000000
-4.688273	bork	0.000000
-4.211152	borker	0.000000
-4.290333	borman	0.000000
-4.290333	borner	0.000000
-4.144205	bornes	0.000000
-4.211152	bornett	0.000000
-4.512182	borns	0.000000
-4.290333	borth	0.000000
-4.211152	borton	0.000000
-4.688273	bosin	0.000000
-4.512182	boss	0.000000
-4.144205	bott	0.000000
-4.688273	botton	0.000000
-4.688273	botts	0.000000
-4.688273	bottz	0.000000
-4.144205	bouman	0.000000
-4.086213	bourgue	0.000000
-4.512182	bowder	0.000000
-4.688273	bowe	0.000000
-4.512182	bowell	0.000000
-4.211152	bowens	0.000000
-3.989303	bower	0.000000
-4.512182	bowers	0.000000
-4.387243	bowes	0.000000
-4.512182	bowins	0.000000
-4.144205	bowler	0.000000
-4.688273	boxter	0.000000
-4.387243	boyce	0.000000
-4.512182	boyde	0.000000
-4.211152	boye	0.000000
-4.387243	boyee	0.000000
-4.144205	boyer	0.000000
-4.387243	boyes	0.000000
-4.688273	boyler	0.000000
-4.688273	boylon	0.000000
-4.688273	boyns	0.000000
-4.688273	braccia	0.000000
-4.688273	braccini	0.000000
-4.290333	brace	0.000000
-4.290333	brach	0.000000
-3.910122	brack	0.000000
-4.211152	brad	0.000000
-4.688273	brade	0.000000
-4.688273	braden	0.000000
-4.512182	braderick	0.000000
-4.211152	bradford	0.000000
-4.688273	bradie	0.000000
-4.512182	bradle	0.000000
-4.290333	bradly	0.000000
-4.512182	bradshaw	0.000000
-4.387243	brady	0.000000
-4.211152	brake	0.000000
-4.688273	bramm	0.000000
-4.290333	bran	0.000000
-4.387243	branch	0.000000
-4.144205	brand	0.000000
-4.387243	brandan	0.000000
-4.512182	brande	0.000000
-4.512182	branden	0.000000
-4.387243	brane	0.000000
-4.688273	braner	0.000000
-4.387243	brann	0.000000
-4.211152	brant	0.000000
-4.688273	brassell	0.000000
-4.290333	bratty	0.000000
-4.290333	braun	0.000000
-4.512182	braut	0.000000
-4.512182	brautley	0.000000
-4.290333	braver	0.000000
-4.211152	braw	0.000000
-4.688273	brawer	0.000000
-4.512182	bray	0.000000
-4.211152	brazie	0.000000
-4.688273	brean	0.000000
-4.688273	breden	0.000000
-4.290333	breen	0.000000
-4.688273	brell	0.000000
-4.290333	breman	0.000000
-4.211152	bremer	0.000000
-4.688273	bren	0.000000
-4.211152	brener	0.000000
-4.290333	brenman	0.000000
-3.989303	brenn	0.000000
-4.144205	brennan	0.000000
-4.211152	brennen	0.000000
-4.512182	brenner	0.000000
-4.512182	brennon	0.000000
-4.512182	brenson	0.000000
-4.688273	brentley	0.000000
-4.387243	brerman	0.000000
-4.290333	brewen	0.000000
-4.290333	brewn	0.000000
-4.387243	brggs	0.000000
-4.688273	briant	0.000000
-4.290333	brice	0.000000
-4.086213	brich	0.000000
-4.512182	brick	0.000000
-4.688273	brickmason	0.000000
-4.290333	bridges	0.000000
-4.688273	briece	0.000000
-4.290333	brigge	0.000000
-4.512182	bright	0.000000
-4.688273	brignon	0.000000
-4.688273	brin	0.000000
-4.290333	briston	0.000000
-4.387243	britt	0.000000
-4.211152	britton	0.000000
-4.688273	brizzee	0.000000
-4.688273	brlley	0.000000
-4.512182	broch	0.000000
-4.211152	brodley	0.000000
-4.211152	brody	0.000000
-4.688273	broes	0.000000
-4.512182	brogg	0.000000
-4.086213	brom	0.000000
-4.211152	bromer	0.000000
-4.290333	bronn	0.000000
-4.688273	broodbent	0.000000
-4.387243	brooke	0.000000
-4.144205	broon	0.000000
-4.688273	brotemarkle	0.000000
-4.387243	broth	0.000000
-4.512182	broun	0.000000
-4.387243	browe	0.000000
-4.688273	browen	0.000000
-4.144205	browing	0.000000
-4.290333	browley	0.000000
-4.035060	browne	0.000000
-4.086213	browner	0.000000
-4.512182	browning	0.000000
-4.211152	brownler	0.000000
-4.512182	browns	0.000000
-4.688273	broy	0.000000
-4.387243	broyn	0.000000
-4.086213	brrown	0.000000
-4.035060	bruce	0.000000
-4.211152	bruch	0.000000
-4.512182	bruck	0.000000
-4.688273	brucl	0.000000
-4.688273	brudzinski	0.000000
-4.086213	brum	0.000000
-4.688273	bruman	0.000000
-3.989303	brun	0.000000
-4.035060	brune	0.000000
-4.688273	brunell	0.000000
-4.290333	bruner	0.000000
-4.387243	brunn	0.000000
-4.512182	brunner	0.000000
-3.989303	bruno	0.000000
-4.035060	bruns	0.000000
-4.211152	bryan	0.000000
-4.688273	bryce	0.000000
-4.211152	bryer	0.000000
-4.086213	buce	0.000000
-4.688273	buchaman	0.000000
-4.290333	buchanan	0.000000
-4.512182	bucher	0.000000
-4.211152	buchley	0.000000
-4.512182	buchman	0.000000
-4.688273	buchner	0.000000
-4.512182	buck	0.000000
-3.989303	bucke	0.000000
-4.512182	buckett	0.000000
-4.144205	buckler	0.000000
-4.290333	buckman	0.000000
-4.512182	buckminster	0.000000
-4.387243	buckner	0.000000
-4.688273	buese	0.000000
-4.688273	bugers	0.000000
-4.387243	buggs	0.000000
-4.144205	bugh	0.000000
-4.688273	bugos	0.000000
-4.688273	buisson	0.000000
-4.290333	buke	0.000000
-4.512182	buker	0.000000
-4.086213	bull	0.000000
-4.211152	bullack	0.000000
-4.512182	bullard	0.000000
-4.387243	bulloch	0.000000
-4.387243	bullock	0.000000
-4.387243	bulter	0.000000
-4.387243	bulton	0.000000
-4.688273	buna	0.000000
-4.688273	bungamer	0.000000
-4.688273	bunh	0.000000
-4.512182	bunker	0.000000
-4.512182	bunn	0.000000
-4.211152	buns	0.000000
-4.512182	bunton	0.000000
-4.512182	burby	0.000000
-4.290333	burch	0.000000
-4.688273	burd	0.000000
-4.290333	burdich	0.000000
-4.688273	buren	0.000000
-4.290333	burger	0.000000
-4.211152	burgers	0.000000
-4.290333	burges	0.000000
-4.211152	burgess	0.000000
-4.290333	burgos	0.000000
-4.144205	burh	0.000000
-4.512182	burker	0.000000
-4.144205	burks	0.000000
-4.512182	burn	0.000000
-4.512182	burna	0.000000
-4.387243	burne	0.000000
-4.144205	burnell	0.000000
-4.035060	burner	0.000000
-4.290333	burnett	0.000000
-4.290333	burno	0.000000
-4.512182	burr	0.000000
-4.688273	burra	0.000000
-4.290333	burrell	0.000000
-4.035060	burrett	0.000000
-4.035060	burris	0.000000
-4.387243	burron	0.000000
-4.290333	burrs	0.000000
-4.290333	burry	0.000000
-4.290333	burs	0.000000
-4.086213	burt	0.000000
-4.688273	burtor	0.000000
-4.512182	bury	0.000000
-4.512182	buske	0.000000
-4.512182	buskley	0.000000
-4.512182	busley	0.000000
-4.290333	buss	0.000000
-4.290333	bust	0.000000
-4.688273	buste	0.000000
-4.290333	buston	0.000000
-4.688273	butherford	0.000000
-4.290333	butlen	0.000000
-3.947910	butles	0.000000
-4.387243	butley	0.000000
-4.512182	button	0.000000
-4.512182	butts	0.000000
-4.387243	buxton	0.000000
-4.512182	bwell	0.000000
-4.688273	byan	0.000000
-4.290333	byant	0.000000
-4.688273	byder	0.000000
-4.387243	byers	0.000000
-4.688273	bymun	0.000000
-4.144205	byrd	0.000000
-4.211152	byrne	0.000000
-4.688273	bytheway	0.000000
-2.459103	c	0.000000
-3.376519	c2	0.000000
-4.688273	c3	0.000000
-4.688273	c4	0.000000
-4.688273	c6	0.000000
-4.387243	cachran	0.000000
-4.688273	cagan	0.000000
-4.512182	cagle	0.000000
-4.688273	cahell	0.000000
-3.875360	cain	0.000000
-4.688273	cairne	0.000000
-4.086213	caker	0.000000
-3.989303	calbert	0.000000
-4.290333	calderon	0.000000
-4.211152	cale	0.000000
-4.035060	cales	0.000000
-4.086213	caley	0.000000
-4.387243	calhaun	0.000000
-4.688273	caliman	0.000000
-4.688273	callaghen	0.000000
-4.387243	callahan	0.000000
-4.512182	calle	0.000000
-4.211152	callen	0.000000
-4.290333	caller	0.000000
-4.211152	calley	0.000000
-4.512182	callie	0.000000
-4.086213	callister	0.000000
-4.688273	callon	0.000000
-4.512182	calloway	0.000000
-4.211152	cally	0.000000
-4.512182	calman	0.000000
-4.688273	calmer	0.000000
-4.387243	calon	0.000000
-4.387243	caloway	0.000000
-4.035060	calson	0.000000
-4.144205	calter	0.000000
-4.387243	calvin	0.000000
-4.512182	camb	0.000000
-4.290333	cambell	0.000000
-3.989303	cambert	0.000000
-4.688273	cambs	0.000000
-4.688273	camenzind	0.000000
-4.688273	cameroy	0.000000
-4.512182	cames	0.000000
-4.086213	camon	0.000000
-3.989303	camp	0.000000
-4.144205	campbel	0.000000
-4.144205	campell	0.000000
-4.387243	camphell	0.000000
-4.387243	camps	0.000000
-4.144205	campton	0.000000
-4.688273	can	0.000000
-4.211152	candell	0.000000
-4.290333	candle	0.000000
-4.290333	candless	0.000000
-4.290333	caney	0.000000
-4.211152	canley	0.000000
-4.688273	canmnon	0.000000
-4.387243	cann	0.000000
-4.035060	canner	0.000000
-4.512182	canon	0.000000
-4.688273	canpbell	0.000000
-4.387243	canr	0.000000
-4.688273	canrey	0.000000
-4.512182	cant	0.000000
-4.211152	canton	0.000000
-4.688273	capanna	0.000000
-4.387243	capeland	0.000000
-4.512182	caper	0.000000
-4.512182	cara	0.000000
-4.144205	caraballo	0.000000
-4.387243	caranaugh	0.000000
-4.387243	carber	0.000000
-4.387243	carbett	0.000000
-4.211152	carcia	0.000000
-4.688273	card	0.000000
-4.512182	carden	0.000000
-4.387243	cardona	0.000000
-4.688273	care	0.000000
-4.387243	caren	0.000000
-4.688273	carker	0.000000
-4.512182	carlaugh	0.000000
-4.086213	carle	0.000000
-4.387243	carlen	0.000000
-4.387243	carler	0.000000
-4.387243	carley	0.000000
-4.144205	carlin	0.000000
-4.688273	carlyle	0.000000
-4.290333	carman	0.000000
-4.512182	carmichall	0.000000
-4.290333	carmon	0.000000
-4.290333	carnell	0.000000
-4.211152	carner	0.000000
-4.086213	carnes	0.000000
-4.211152	carnett	0.000000
-4.290333	carney	0.000000
-4.387243	caron	0.000000
-4.144205	carpente	0.000000
-3.526905	carpenter	0.000000
-4.512182	carpentry	0.000000
-4.144205	carper	0.000000
-4.290333	carr	0.000000
-4.387243	carran	0.000000
-4.512182	carre	0.000000
-4.035060	carrell	0.000000
-4.512182	carrer	0.000000
-4.290333	carrett	0.000000
-4.688273	carrie	0.000000
-4.211152	carrion	0.000000
-4.211152	carris	0.000000
-4.688273	carrison	0.000000
-4.688273	carritt	0.000000
-4.290333	carron	0.000000
-4.512182	cars	0.000000
-4.144205	carsen	0.000000
-4.035060	cart	0.000000
-4.688273	cartelli	0.000000
-4.512182	carten	0.000000
-4.387243	cartin	0.000000
-4.688273	cartis	0.000000
-4.144205	cartle	0.000000
-4.211152	cartney	0.000000
-4.387243	carton	0.000000
-4.387243	carty	0.000000
-4.688273	caruba	0.000000
-4.688273	carufel	0.000000
-4.688273	carver	0.000000
-4.211152	carvey	0.000000
-4.688273	cary	0.000000
-4.290333	case	0.000000
-4.688273	caselle	0.000000
-4.512182	caselman	0.000000
-4.688273	casey	0.000000
-4.290333	cash	0.000000
-4.086213	casley	0.000000
-4.387243	cason	0.000000
-4.688273	cassedy	0.000000
-4.688273	cassely	0.000000
-4.512182	cast	0.000000
-4.688273	castell	0.000000
-4.387243	castello	0.000000
-4.211152	castman	0.000000
-4.290333	caston	0.000000
-3.989303	castro	0.000000
-4.290333	cater	0.000000
-4.290333	catherine	0.000000
-4.688273	catright	0.000000
-4.290333	cauch	0.000000
-4.387243	caufield	0.000000
-4.144205	caulson	0.000000
-4.387243	caupbell	0.000000
-4.387243	cauter	0.000000
-3.910122	cautrell	0.000000
-4.387243	cave	0.000000
-4.688273	cavine	0.000000
-4.512182	caward	0.000000
-4.211152	cawford	0.000000
-4.688273	caxe	0.000000
-4.144205	cay	0.000000
-4.086213	cayle	0.000000
-4.688273	ceis	0.000000
-4.688273	cesal	0.000000
-4.512182	cestro	0.000000
-4.512182	chaffer	0.000000
-4.688273	chaler	0.000000
-4.688273	chalson	0.000000
-4.688273	chaltin	0.000000
-4.086213	chamber	0.000000
-4.387243	chambers	0.000000
-4.688273	champagne	0.000000
-4.290333	champson	0.000000
-4.144205	chanbers	0.000000
-4.035060	chandler	0.000000
-4.211152	chane	0.000000
-4.290333	chaney	0.000000
-4.688273	chanle	0.000000
-4.688273	chapman	0.000000
-4.688273	chara	0.000000
-4.086213	chare	0.000000
-4.086213	chark	0.000000
-4.688273	charley	0.000000
-4.688273	charlotte	0.000000
-4.387243	chas	0.000000
-4.688273	chatburn	0.000000
-4.086213	chaudler	0.000000
-4.688273	chauffer	0.000000
-4.688273	chauffeur	0.000000
-4.086213	chave	0.000000
-4.290333	chavey	0.000000
-4.688273	chaw	0.000000
-4.512182	chee	0.000000
-4.211152	cheek	0.000000
-4.688273	cheney	0.000000
-4.290333	cherry	0.000000
-4.512182	chill	0.000000
-4.387243	chin	0.000000
-4.688273	chlan	0.000000
-4.688273	chomiak	0.000000
-4.290333	chopman	0.000000
-4.688273	chorn	0.000000
-4.144205	christenson	0.000000
-4.512182	christian	0.000000
-4.290333	christianson	0.000000
-4.688273	christinson	0.000000
-4.688273	christison	0.000000
-4.688273	chromy	0.000000
-4.512182	church	0.000000
-4.688273	cielinski	0.000000
-4.211152	cintron	0.000000
-4.211152	clair	0.000000
-4.387243	clandler	0.000000
-3.947910	clank	0.000000
-4.512182	clapman	0.000000
-4.387243	clara	0.000000
-4.290333	clare	0.000000
-4.387243	clarke	0.000000
-4.290333	clarl	0.000000
-4.211152	clarle	0.000000
-4.211152	clarp	0.000000
-4.512182	clary	0.000000
-4.688273	claudia	0.000000
-4.688273	clauson	0.000000
-4.387243	clauton	0.000000
-4.688273	clauts	0.000000
-4.688273	claver	0.000000
-4.144205	clay	0.000000
-4.512182	clayton	0.000000
-4.688273	clegg	0.000000
-4.387243	clemants	0.000000
-4.387243	clements	0.000000
-4.688273	clemets	0.000000
-4.035060	clendon	0.000000
-4.688273	clerical	0.000000
-4.387243	clevland	0.000000
-4.688273	cley	0.000000
-4.688273	cliff	0.000000
-4.035060	clifford	0.000000
-4.512182	clin	0.000000
-4.387243	cline	0.000000
-4.290333	clintock	0.000000
-4.211152	cllen	0.000000
-4.387243	clork	0.000000
-4.035060	cloy	0.000000
-4.688273	cloyd	0.000000
-4.688273	clter	0.000000
-4.688273	clurg	0.000000
-4.512182	clurk	0.000000
-4.688273	clyce	0.000000
-4.512182	cmos	0.000000
-4.512182	cmpbell	0.000000
-4.688273	cnant	0.000000
-4.512182	cnningham	0.000000
-4.688273	co	0.000000
-4.387243	coater	0.000000
-4.688273	coates	0.000000
-4.512182	cobe	0.000000
-4.512182	cochram	0.000000
-4.512182	cock	0.000000
-4.290333	cocks	0.000000
-4.688273	coers	0.000000
-4.144205	coff	0.000000
-4.688273	coffer	0.000000
-4.211152	coffey	0.000000
-4.512182	cogan	0.000000
-4.211152	cohe	0.000000
-4.144205	cohen	0.000000
-4.387243	cohill	0.000000
-4.688273	cohm	0.000000
-4.086213	coke	0.000000
-4.387243	coken	0.000000
-4.290333	cola	0.000000
-3.989303	colan	0.000000
-4.688273	coldwell	0.000000
-4.211152	colen	0.000000
-4.211152	coley	0.000000
-4.035060	coll	0.000000
-4.290333	collens	0.000000
-4.688273	coller	0.000000
-4.512182	collie	0.000000
-4.035060	collier	0.000000
-4.211152	collman	0.000000
-4.688273	colo	0.000000
-4.688273	colonel	0.000000
-4.688273	colson	0.000000
-4.211152	colton	0.000000
-4.144205	colvin	0.000000
-4.035060	coman	0.000000
-4.387243	comber	0.000000
-4.387243	combs	0.000000
-4.512182	comell	0.000000
-4.688273	comer	0.000000
-4.688273	comeron	0.000000
-4.387243	comes	0.000000
-4.035060	comles	0.000000
-4.512182	commer	0.000000
-4.688273	comner	0.000000
-4.688273	comnes	0.000000
-4.512182	comp	0.000000
-4.688273	compton	0.000000
-4.688273	conaday	0.000000
-4.688273	conan	0.000000
-4.290333	conch	0.000000
-4.290333	conden	0.000000
-4.688273	condon	0.000000
-4.512182	cone	0.000000
-4.387243	conea	0.000000
-4.290333	conell	0.000000
-4.387243	coner	0.000000
-4.035060	cones	0.000000
-4.512182	coney	0.000000
-4.688273	confer	0.000000
-4.512182	congers	0.000000
-4.688273	conk	0.000000
-4.290333	conklin	0.000000
-4.086213	conley	0.000000
-4.211152	conlon	0.000000
-4.512182	conn	0.000000
-4.035060	connar	0.000000
-4.387243	connay	0.000000
-4.512182	conne	0.000000
-4.144205	connel	0.000000
-4.211152	connelly	0.000000
-4.387243	conners	0.000000
-4.387243	conney	0.000000
-4.387243	connick	0.000000
-4.688273	conningham	0.000000
-4.290333	connolly	0.000000
-4.688273	connon	0.000000
-4.688273	conole	0.000000
-4.512182	conrad	0.000000
-4.144205	conray	0.000000
-4.387243	conrod	0.000000
-4.688273	constructed	0.000000
-4.144205	conter	0.000000
-4.387243	conway	0.000000
-4.290333	coob	0.000000
-4.688273	coocker	0.000000
-4.290333	coody	0.000000
-4.512182	coofer	0.000000
-2.605488	cook	0.000000
-4.688273	cooka	0.000000
-4.086213	cooke	0.000000
-3.947910	cooker	0.000000
-4.290333	cookley	0.000000
-4.387243	cooks	0.000000
-4.144205	cool	0.000000
-4.144205	coole	0.000000
-4.035060	cooley	0.000000
-4.035060	cools	0.000000
-3.989303	coon	0.000000
-4.688273	coone	0.000000
-4.211152	cooner	0.000000
-4.086213	cooney	0.000000
-4.387243	coopen	0.000000
-4.290333	coot	0.000000
-4.512182	coox	0.000000
-4.144205	cope	0.000000
-4.512182	copeland	0.000000
-4.211152	copp	0.000000
-4.144205	copps	0.000000
-4.387243	cora	0.000000
-4.144205	corbett	0.000000
-4.512182	corden	0.000000
-4.512182	coret	0.000000
-4.144205	corey	0.000000
-4.290333	cork	0.000000
-4.512182	corke	0.000000
-4.512182	corl	0.000000
-4.144205	corley	0.000000
-4.512182	corlez	0.000000
-4.086213	corlson	0.000000
-4.688273	cormic	0.000000
-4.211152	cormick	0.000000
-4.290333	corn	0.000000
-4.290333	cornell	0.000000
-4.144205	corney	0.000000
-4.512182	cornick	0.000000
-4.144205	corpenter	0.000000
-4.387243	corper	0.000000
-4.290333	corr	0.000000
-4.688273	correra	0.000000
-4.688273	corsant	0.000000
-4.688273	corsette	0.000000
-4.688273	cort	0.000000
-4.512182	cortis	0.000000
-4.512182	cory	0.000000
-4.035060	cose	0.000000
-4.144205	cosh	0.000000
-4.211152	cosley	0.000000
-4.290333	cosper	0.000000
-4.290333	costa	0.000000
-4.290333	costell	0.000000
-4.512182	costella	0.000000
-4.086213	costelle	0.000000
-4.144205	costello	0.000000
-4.290333	coster	0.000000
-4.688273	costey	0.000000
-4.387243	coswell	0.000000
-4.211152	cote	0.000000
-4.688273	coto	0.000000
-4.086213	coton	0.000000
-3.947910	cotter	0.000000
-2.852582	cotton	0.000000
-4.144205	couch	0.000000
-4.387243	coughlin	0.000000
-4.512182	couley	0.000000
-4.688273	coupler	0.000000
-4.387243	courad	0.000000
-4.688273	court	0.000000
-4.512182	cousino	0.000000
-4.512182	cousley	0.000000
-4.512182	coutney	0.000000
-4.512182	cove	0.000000
-4.144205	covey	0.000000
-4.086213	cowan	0.000000
-4.688273	coward	0.000000
-4.211152	cowe	0.000000
-4.688273	cower	0.000000
-4.387243	cowrad	0.000000
-4.035060	coxter	0.000000
-4.387243	cracker	0.000000
-4.387243	craff	0.000000
-4.144205	craft	0.000000
-4.387243	craham	0.000000
-4.688273	crahtree	0.000000
-4.290333	craiy	0.000000
-4.035060	cram	0.000000
-4.512182	crame	0.000000
-3.947910	cramer	0.000000
-4.035060	cramford	0.000000
-3.989303	cran	0.000000
-4.512182	crance	0.000000
-4.512182	crane	0.000000
-4.512182	crans	0.000000
-4.688273	crant	0.000000
-4.290333	crasby	0.000000
-4.387243	crasley	0.000000
-4.688273	cratt	0.000000
-4.387243	crauch	0.000000
-4.688273	craue	0.000000
-4.144205	crauford	0.000000
-4.688273	crauge	0.000000
-4.086213	crauston	0.000000
-4.688273	cravath	0.000000
-4.387243	crave	0.000000
-4.035060	craw	0.000000
-4.211152	crawder	0.000000
-4.290333	crawley	0.000000
-4.387243	crawlord	0.000000
-3.875360	creen	0.000000
-4.688273	crettenden	0.000000
-4.688273	crewson	0.000000
-4.211152	crey	0.000000
-4.688273	cribley	0.000000
-4.512182	crice	0.000000
-4.290333	crickson	0.000000
-4.387243	criffin	0.000000
-4.688273	crish	0.000000
-4.144205	crobb	0.000000
-4.387243	crocker	0.000000
-4.512182	croff	0.000000
-4.688273	croft	0.000000
-4.387243	cromer	0.000000
-4.211152	crone	0.000000
-4.512182	crook	0.000000
-4.387243	croper	0.000000
-4.211152	crosley	0.000000
-4.688273	crouch	0.000000
-4.688273	crovch	0.000000
-4.211152	crovin	0.000000
-4.211152	crow	0.000000
-4.211152	crowell	0.000000
-4.144205	crowford	0.000000
-4.086213	crowley	0.000000
-4.688273	crrie	0.000000
-4.211152	crug	0.000000
-4.387243	crum	0.000000
-4.512182	cuey	0.000000
-4.688273	cugan	0.000000
-4.387243	culf	0.000000
-4.387243	cull	0.000000
-4.211152	cullen	0.000000
-4.086213	culler	0.000000
-4.688273	cullett	0.000000
-4.688273	cullin	0.000000
-4.290333	cullins	0.000000
-4.688273	cullivan	0.000000
-4.387243	cullough	0.000000
-4.387243	cumming	0.000000
-4.387243	cummings	0.000000
-4.035060	cumnings	0.000000
-4.387243	cunes	0.000000
-4.290333	cuningham	0.000000
-4.144205	cunmings	0.000000
-4.035060	cunnigham	0.000000
-4.387243	cunningham	0.000000
-4.512182	cunnningham	0.000000
-4.387243	curley	0.000000
-4.512182	curner	0.000000
-4.387243	curningham	0.000000
-4.211152	curr	0.000000
-4.035060	curran	0.000000
-4.512182	curris	0.000000
-4.512182	curry	0.000000
-3.989303	curter	0.000000
-4.512182	curtes	0.000000
-4.290333	curtin	0.000000
-4.387243	cury	0.000000
-4.688273	cushine	0.000000
-4.035060	custin	0.000000
-4.387243	cutler	0.000000
-4.387243	cutter	0.000000
-4.387243	dage	0.000000
-4.688273	daggitt	0.000000
-4.211152	dailey	0.000000
-4.688273	dais	0.000000
-4.387243	dake	0.000000
-4.387243	daker	0.000000
-4.512182	dakes	0.000000
-4.688273	dakken	0.000000
-4.688273	dakos	0.000000
-4.512182	dalan	0.000000
-4.086213	dale	0.000000
-3.989303	dall	0.000000
-4.512182	dallar	0.000000
-4.512182	dalley	0.000000
-4.688273	dallor	0.000000
-4.387243	dalman	0.000000
-4.144205	dalmer	0.000000
-4.512182	dalson	0.000000
-4.290333	dalton	0.000000
-4.035060	daly	0.000000
-4.688273	damico	0.000000
-4.387243	damie	0.000000
-4.387243	damiels	0.000000
-4.290333	damils	0.000000
-4.144205	damson	0.000000
-4.688273	dande	0.000000
-4.290333	danders	0.000000
-4.290333	dandson	0.000000
-4.387243	dane	0.000000
-4.688273	danek	0.000000
-4.512182	danels	0.000000
-4.387243	daner	0.000000
-4.144205	daney	0.000000
-4.290333	danidson	0.000000
-4.387243	danie	0.000000
-4.512182	danley	0.000000
-4.688273	dann	0.000000
-4.144205	danner	0.000000
-4.144205	dans	0.000000
-4.211152	danson	0.000000
-4.688273	danze	0.000000
-4.688273	dappen	0.000000
-3.989303	darey	0.000000
-4.688273	daris	0.000000
-4.387243	darker	0.000000
-4.688273	darley	0.000000
-4.387243	darr	0.000000
-4.211152	darris	0.000000
-4.512182	darry	0.000000
-4.688273	darson	0.000000
-4.688273	darth	0.000000
-4.144205	dary	0.000000
-4.512182	dass	0.000000
-4.688273	daten	0.000000
-4.688273	datterfield	0.000000
-4.211152	datton	0.000000
-4.035060	daty	0.000000
-3.947910	dauglas	0.000000
-4.688273	dauker	0.000000
-4.688273	davalle	0.000000
-4.290333	dave	0.000000
-3.875360	davenfort	0.000000
-4.387243	davengort	0.000000
-4.688273	davenport	0.000000
-4.035060	daver	0.000000
-4.387243	davey	0.000000
-4.290333	davi	0.000000
-4.144205	davidson	0.000000
-4.290333	davie	0.000000
-4.387243	daviel	0.000000
-3.989303	daviels	0.000000
-4.688273	davila	0.000000
-4.688273	davils	0.000000
-4.086213	davin	0.000000
-4.688273	davinfort	0.000000
-4.144205	davison	0.000000
-4.211152	daviss	0.000000
-4.688273	davita	0.000000
-4.688273	davitt	0.000000
-4.512182	davson	0.000000
-4.688273	dawkins	0.000000
-4.086213	dawyer	0.000000
-4.688273	day	0.000000
-4.387243	dayne	0.000000
-4.688273	dc	0.000000
-3.248940	de	0.000000
-4.211152	deal	0.000000
-4.512182	deandrea	0.000000
-4.688273	dearin	0.000000
-4.688273	dearmon	0.000000
-4.512182	deas	0.000000
-4.512182	deay	0.000000
-4.688273	debaum	0.000000
-4.387243	deboer	0.000000
-4.688273	decarli	0.000000
-4.290333	decarlo	0.000000
-4.086213	decher	0.000000
-4.387243	deckerson	0.000000
-4.512182	deckey	0.000000
-4.512182	dedina	0.000000
-4.290333	deeker	0.000000
-4.512182	deen	0.000000
-4.512182	deetz	0.000000
-4.290333	degan	0.000000
-4.290333	dehart	0.000000
-4.086213	dehaven	0.000000
-4.035060	dejesus	0.000000
-4.512182	deka	0.000000
-4.290333	dela	0.000000
-4.512182	dele	0.000000
-4.688273	deley	0.000000
-4.211152	delf	0.000000
-4.035060	delgado	0.000000
-3.947910	dell	0.000000
-4.512182	della	0.000000
-4.512182	dellard	0.000000
-4.512182	deller	0.000000
-4.086213	dellers	0.000000
-4.035060	dellon	0.000000
-4.688273	delmotte	0.000000
-4.211152	delvalle	0.000000
-4.387243	deman	0.000000
-4.688273	demarais	0.000000
-4.387243	demarco	0.000000
-4.387243	demars	0.000000
-4.688273	demess	0.000000
-4.211152	demoss	0.000000
-4.290333	dencan	0.000000
-4.688273	dene	0.000000
-4.688273	denel	0.000000
-4.688273	denenberg	0.000000
-4.512182	denham	0.000000
-4.512182	denigan	0.000000
-4.512182	deninson	0.000000
-4.290333	denis	0.000000
-4.387243	denn	0.000000
-4.144205	denne	0.000000
-4.512182	dennes	0.000000
-4.512182	denney	0.000000
-4.688273	denniss	0.000000
-4.688273	denny	0.000000
-4.144205	densen	0.000000
-4.688273	densky	0.000000
-4.290333	denton	0.000000
-4.688273	dentsch	0.000000
-3.910122	depen	0.000000
-4.688273	depriest	0.000000
-4.688273	derell	0.000000
-4.211152	derlin	0.000000
-4.387243	dermott	0.000000
-4.290333	derosa	0.000000
-4.290333	derry	0.000000
-4.688273	designer	0.000000
-4.512182	desing	0.000000
-4.688273	dess	0.000000
-4.512182	devine	0.000000
-4.688273	devison	0.000000
-4.086213	devitt	0.000000
-4.688273	devora	0.000000
-4.086213	devore	0.000000
-4.387243	devries	0.000000
-4.086213	devyer	0.000000
-4.512182	dewall	0.000000
-4.688273	dewater	0.000000
-4.290333	dewell	0.000000
-4.688273	dewett	0.000000
-4.688273	dewis	0.000000
-4.512182	dewolf	0.000000
-4.688273	dexter	0.000000
-4.387243	deyer	0.000000
-4.387243	deyoung	0.000000
-4.387243	diag	0.000000
-4.512182	dian	0.000000
-4.387243	diay	0.000000
-4.290333	diazy	0.000000
-4.688273	diblasi	0.000000
-4.688273	dich	0.000000
-4.387243	dicherson	0.000000
-4.144205	dichl	0.000000
-4.086213	dickenson	0.000000
-4.211152	dicker	0.000000
-4.387243	dickerson	0.000000
-4.290333	dickins	0.000000
-4.290333	dickinson	0.000000
-4.688273	dicks	0.000000
-3.989303	dickson	0.000000
-4.688273	dietician	0.000000
-4.688273	dietitian	0.000000
-3.989303	dietrick	0.000000
-4.688273	diey	0.000000
-4.387243	dill	0.000000
-4.512182	dillard	0.000000
-4.688273	dillen	0.000000
-4.387243	dillon	0.000000
-4.512182	dinen	0.000000
-4.290333	dison	0.000000
-4.512182	ditts	0.000000
-4.211152	dixan	0.000000
-4.387243	dixen	0.000000
-4.688273	dixter	0.000000
-4.688273	dlugos	0.000000
-4.290333	doberty	0.000000
-4.688273	dobrich	0.000000
-4.688273	dock	0.000000
-4.290333	dodd	0.000000
-4.688273	dodge	0.000000
-4.688273	dodger	0.000000
-4.211152	dodson	0.000000
-4.688273	doffs	0.000000
-4.086213	dohl	0.000000
-4.688273	dokas	0.000000
-3.947910	dolan	0.000000
-4.688273	dolby	0.000000
-4.512182	dole	0.000000
-4.387243	doley	0.000000
-4.688273	doline	0.000000
-4.211152	dolley	0.000000
-4.512182	dolny	0.000000
-4.512182	dolson	0.000000
-4.688273	dolton	0.000000
-4.512182	doly	0.000000
-4.688273	doman	0.000000
-4.688273	doming	0.000000
-4.211152	donahne	0.000000
-4.035060	donahue	0.000000
-4.211152	donal	0.000000
-4.290333	donald	0.000000
-4.211152	donaugh	0.000000
-4.387243	donavan	0.000000
-4.086213	donchue	0.000000
-4.290333	dond	0.000000
-4.290333	done	0.000000
-4.211152	donell	0.000000
-4.290333	donelly	0.000000
-4.688273	dones	0.000000
-4.512182	doney	0.000000
-4.688273	dong	0.000000
-4.688273	donis	0.000000
-4.512182	donks	0.000000
-4.688273	donnelly	0.000000
-4.512182	donnen	0.000000
-4.086213	donney	0.000000
-4.387243	donoran	0.000000
-4.211152	donough	0.000000
-4.211152	donovan	0.000000
-4.688273	dood	0.000000
-4.144205	dook	0.000000
-4.290333	doran	0.000000
-4.290333	dore	0.000000
-4.512182	doris	0.000000
-4.688273	dorley	0.000000
-4.512182	dorman	0.000000
-4.512182	dorn	0.000000
-4.211152	dorothy	0.000000
-4.290333	dorsey	0.000000
-4.211152	doss	0.000000
-4.512182	doud	0.000000
-4.144205	dougall	0.000000
-4.211152	doughert	0.000000
-4.688273	doughter	0.000000
-4.512182	douglass	0.000000
-4.144205	dougles	0.000000
-4.387243	douning	0.000000
-4.290333	douns	0.000000
-4.211152	dovan	0.000000
-4.688273	dove	0.000000
-4.688273	dovel	0.000000
-4.512182	doves	0.000000
-4.086213	dovey	0.000000
-4.512182	dowald	0.000000
-4.290333	dowel	0.000000
-3.813212	dowell	0.000000
-4.387243	dowers	0.000000
-4.688273	dowes	0.000000
-4.512182	down	0.000000
-4.688273	downe	0.000000
-4.512182	downey	0.000000
-4.211152	dowson	0.000000
-4.688273	dowville	0.000000
-4.387243	drahe	0.000000
-4.688273	drake	0.000000
-4.387243	dramond	0.000000
-4.512182	dran	0.000000
-4.688273	dray	0.000000
-4.211152	draz	0.000000
-4.211152	dren	0.000000
-4.688273	dress	0.000000
-4.512182	dresser	0.000000
-4.688273	driscall	0.000000
-4.688273	droese	0.000000
-4.086213	droke	0.000000
-4.387243	droper	0.000000
-4.144205	dubais	0.000000
-4.290333	dube	0.000000
-4.144205	dubois	0.000000
-4.387243	dubose	0.000000
-4.688273	dubvis	0.000000
-4.387243	ducham	0.000000
-4.387243	ducker	0.000000
-4.211152	dudley	0.000000
-4.290333	dudly	0.000000
-4.688273	duemler	0.000000
-4.688273	duenn	0.000000
-4.688273	dueyer	0.000000
-4.211152	duff	0.000000
-4.086213	duffy	0.000000
-4.211152	duglas	0.000000
-4.688273	duhm	0.000000
-4.512182	duke	0.000000
-4.512182	dukehart	0.000000
-4.512182	duker	0.000000
-4.688273	duling	0.000000
-4.387243	dullivan	0.000000
-4.035060	dulton	0.000000
-3.989303	duman	0.000000
-4.512182	dumphy	0.000000
-4.688273	dunaway	0.000000
-4.512182	dunber	0.000000
-4.290333	duncan	0.000000
-4.387243	dune	0.000000
-4.387243	dunean	0.000000
-4.290333	dunham	0.000000
-4.290333	dunhan	0.000000
-4.688273	dunkel	0.000000
-3.989303	dunlaf	0.000000
-4.387243	dunlap	0.000000
-4.290333	dunlay	0.000000
-4.688273	dunley	0.000000
-4.512182	dunlop	0.000000
-4.512182	dunne	0.000000
-4.512182	dunsan	0.000000
-4.512182	dunson	0.000000
-4.688273	duraute	0.000000
-4.512182	durham	0.000000
-4.688273	durvin	0.000000
-4.211152	duscoll	0.000000
-4.688273	dushane	0.000000
-4.688273	dustin	0.000000
-4.688273	dutts	0.000000
-4.512182	duyer	0.000000
-4.688273	dwvyer	0.000000
-4.211152	dyer	0.000000
-4.387243	dyes	0.000000
-4.688273	eabert	0.000000
-4.512182	earl	0.000000
-4.387243	earley	0.000000
-4.290333	eartman	0.000000
-4.688273	easter	0.000000
-4.290333	eaton	0.000000
-4.512182	ebersbach	0.000000
-4.688273	ebling	0.000000
-4.688273	echert	0.000000
-4.688273	eddelman	0.000000
-4.290333	edmands	0.000000
-4.688273	edmendson	0.000000
-4.512182	edmonds	0.000000
-4.688273	edwardes	0.000000
-4.086213	egan	0.000000
-4.688273	ehle	0.000000
-4.688273	einspahr	0.000000
-4.688273	ekenberg	0.000000
-4.290333	eldridge	0.000000
-4.688273	eleanor	0.000000
-4.387243	electrical	0.000000
-4.688273	elens	0.000000
-4.512182	elexander	0.000000
-4.512182	eley	0.000000
-4.290333	eline	0.000000
-4.290333	elizabeth	0.000000
-4.387243	ellcott	0.000000
-4.387243	ellen	0.000000
-4.211152	eller	0.000000
-4.688273	ellerd	0.000000
-4.688273	elleworth	0.000000
-4.688273	ellie	0.000000
-4.512182	ellin	0.000000
-4.387243	elliot	0.000000
-4.512182	ellison	0.000000
-4.512182	ellsworth	0.000000
-4.688273	elson	0.000000
-4.387243	elwards	0.000000
-4.688273	embretson	0.000000
-4.688273	emery	0.000000
-4.086213	endof	0.000000
-4.290333	ends	0.000000
-4.512182	engart	0.000000
-4.688273	engers	0.000000
-4.512182	engle	0.000000
-4.688273	englick	0.000000
-4.512182	enick	0.000000
-4.512182	ephriam	0.000000
-4.688273	epling	0.000000
-4.688273	epperson	0.000000
-4.211152	erans	0.000000
-4.688273	erbeck	0.000000
-4.387243	ering	0.000000
-4.387243	errickson	0.000000
-4.688273	erust	0.000000
-4.086213	ervin	0.000000
-4.086213	erving	0.000000
-4.512182	erwin	0.000000
-4.688273	eschliman	0.000000
-4.290333	esken	0.000000
-4.290333	estel	0.000000
-4.387243	estes	0.000000
-4.688273	esther	0.000000
-4.387243	eston	0.000000
-4.387243	ethel	0.000000
-4.688273	etue	0.000000
-4.387243	eugel	0.000000
-4.144205	eugland	0.000000
-4.512182	euglish	0.000000
-4.688273	euke	0.000000
-4.387243	evane	0.000000
-3.947910	evens	0.000000
-4.387243	everett	0.000000
-4.144205	everson	0.000000
-4.387243	evickson	0.000000
-4.035060	eving	0.000000
-4.512182	evons	0.000000
-4.290333	ewans	0.000000
-4.086213	ewards	0.000000
-4.387243	ewens	0.000000
-4.512182	ewin	0.000000
-4.512182	ewing	0.000000
-4.688273	ezard	0.000000
-4.688273	fainchild	0.000000
-4.512182	fairfor	0.000000
-3.989303	faley	0.000000
-4.688273	falkerson	0.000000
-4.688273	fall	0.000000
-4.512182	faller	0.000000
-4.688273	falletti	0.000000
-4.512182	falley	0.000000
-4.688273	falson	0.000000
-4.512182	fane	0.000000
-4.688273	fanella	0.000000
-4.387243	fank	0.000000
-4.290333	fanklin	0.000000
-4.144205	fard	0.000000
-4.387243	farguhar	0.000000
-4.688273	fark	0.000000
-4.512182	farls	0.000000
-3.080818	farm	0.000000
-2.040401	farmer	0.000000
-3.044820	farming	0.000000
-4.688273	farner	0.000000
-4.688273	farroll	0.000000
-4.688273	farron	0.000000
-3.947910	fart	0.000000
-4.512182	fary	0.000000
-4.144205	fate	0.000000
-4.688273	fath	0.000000
-4.688273	fatone	0.000000
-4.086213	faucher	0.000000
-4.688273	fauchier	0.000000
-4.688273	fauler	0.000000
-3.947910	fawler	0.000000
-4.688273	fayan	0.000000
-4.290333	faylor	0.000000
-4.688273	feather	0.000000
-4.688273	federline	0.000000
-4.688273	fedt	0.000000
-4.144205	feeman	0.000000
-4.688273	feindel	0.000000
-4.688273	feitag	0.000000
-4.512182	feld	0.000000
-4.387243	feldman	0.000000
-4.512182	felds	0.000000
-4.086213	feliciano	0.000000
-4.512182	fell	0.000000
-4.688273	fempleton	0.000000
-4.086213	fench	0.000000
-4.387243	fener	0.000000
-4.688273	fenerty	0.000000
-4.512182	fenn	0.000000
-4.688273	ferbes	0.000000
-4.211152	fergerson	0.000000
-4.688273	fergeson	0.000000
-4.035060	ferguson	0.000000
-4.512182	ferman	0.000000
-4.688273	ferna	0.000000
-4.387243	fernande	0.000000
-4.387243	fernander	0.000000
-4.211152	fernandey	0.000000
-4.211152	fernandez	0.000000
-4.290333	fernandy	0.000000
-4.387243	ferner	0.000000
-4.211152	ferrell	0.000000
-4.387243	ferris	0.000000
-4.290333	fery	0.000000
-4.211152	fescher	0.000000
-4.688273	fich	0.000000
-4.211152	ficher	0.000000
-4.512182	fick	0.000000
-4.512182	fidwell	0.000000
-4.290333	fields	0.000000
-4.211152	fierney	0.000000
-4.512182	figneroa	0.000000
-4.144205	figueroa	0.000000
-4.211152	figuerva	0.000000
-4.688273	filber	0.000000
-4.387243	fildman	0.000000
-4.086213	filds	0.000000
-4.290333	file	0.000000
-4.688273	filer	0.000000
-4.387243	filey	0.000000
-4.387243	filley	0.000000
-4.211152	filton	0.000000
-4.211152	fine	0.000000
-4.688273	finek	0.000000
-4.512182	finnerman	0.000000
-4.688273	finneyan	0.000000
-4.387243	finsley	0.000000
-4.688273	finton	0.000000
-4.512182	fiorina	0.000000
-4.688273	fischer	0.000000
-4.035060	fish	0.000000
-4.387243	fishe	0.000000
-4.144205	fishen	0.000000
-4.688273	fishing	0.000000
-4.512182	fisker	0.000000
-4.211152	fisler	0.000000
-4.144205	fitus	0.000000
-4.512182	fitz	0.000000
-4.688273	fitzaimmons	0.000000
-4.211152	fitzerald	0.000000
-4.688273	fitzgarld	0.000000
-4.290333	fitzgerald	0.000000
-4.290333	fitzgerold	0.000000
-4.688273	flaberty	0.000000
-4.688273	flagstad	0.000000
-4.512182	flake	0.000000
-4.688273	flanagon	0.000000
-4.512182	fleck	0.000000
-4.144205	flelcher	0.000000
-4.086213	fleming	0.000000
-4.290333	flenning	0.000000
-4.512182	fletcher	0.000000
-4.144205	flitcher	0.000000
-4.688273	flitcraft	0.000000
-4.688273	fller	0.000000
-4.035060	flomers	0.000000
-4.086213	flord	0.000000
-4.387243	flore	0.000000
-4.688273	florene	0.000000
-4.035060	florer	0.000000
-4.211152	flores	0.000000
-4.512182	florist	0.000000
-4.512182	flover	0.000000
-4.290333	flym	0.000000
-4.512182	flyn	0.000000
-4.387243	fodd	0.000000
-4.688273	foggs	0.000000
-4.512182	foley	0.000000
-4.290333	folk	0.000000
-4.688273	fond	0.000000
-4.290333	fones	0.000000
-4.144205	food	0.000000
-4.290333	foole	0.000000
-4.512182	foot	0.000000
-4.688273	forant	0.000000
-4.688273	fore	0.000000
-3.785183	foreman	0.000000
-4.512182	fores	0.000000
-4.688273	forgas	0.000000
-4.688273	forgenson	0.000000
-4.688273	forin	0.000000
-4.512182	fork	0.000000
-4.688273	forley	0.000000
-4.688273	formen	0.000000
-4.086213	former	0.000000
-4.290333	forrell	0.000000
-4.211152	forres	0.000000
-4.512182	forsyth	0.000000
-4.688273	fosket	0.000000
-4.086213	fosler	0.000000
-4.688273	fosness	0.000000
-4.688273	fossel	0.000000
-4.688273	fosset	0.000000
-4.211152	foste	0.000000
-4.512182	fosten	0.000000
-4.144205	fouler	0.000000
-4.688273	foulis	0.000000
-4.512182	foun	0.000000
-4.144205	foust	0.000000
-4.144205	foxter	0.000000
-4.211152	foyd	0.000000
-4.144205	foyle	0.000000
-4.512182	fracey	0.000000
-4.387243	fracy	0.000000
-4.688273	fragier	0.000000
-4.688273	fraly	0.000000
-4.688273	frame	0.000000
-4.211152	fran	0.000000
-4.086213	france	0.000000
-4.512182	franch	0.000000
-3.947910	frane	0.000000
-4.290333	franer	0.000000
-4.512182	franes	0.000000
-4.688273	frang	0.000000
-4.290333	franke	0.000000
-4.688273	franklen	0.000000
-4.387243	franks	0.000000
-4.512182	fraser	0.000000
-4.512182	frast	0.000000
-4.211152	fravers	0.000000
-4.035060	fravis	0.000000
-4.512182	fray	0.000000
-4.144205	frazie	0.000000
-4.688273	freal	0.000000
-4.290333	fred	0.000000
-4.144205	frederick	0.000000
-4.512182	fredrick	0.000000
-4.688273	fredy	0.000000
-4.512182	freed	0.000000
-4.387243	freedman	0.000000
-4.688273	freenan	0.000000
-4.688273	freetag	0.000000
-4.512182	freg	0.000000
-4.512182	freiner	0.000000
-4.290333	freland	0.000000
-4.211152	frelds	0.000000
-4.512182	freman	0.000000
-4.688273	fren	0.000000
-4.387243	french	0.000000
-4.688273	frend	0.000000
-4.688273	freniere	0.000000
-4.688273	frent	0.000000
-4.688273	frentress	0.000000
-4.290333	fretz	0.000000
-4.290333	frey	0.000000
-4.387243	frice	0.000000
-4.086213	frich	0.000000
-4.211152	frick	0.000000
-4.290333	fridey	0.000000
-4.086213	friedman	0.000000
-4.387243	frish	0.000000
-4.512182	frisher	0.000000
-4.688273	frist	0.000000
-4.512182	fritchley	0.000000
-4.512182	fritz	0.000000
-4.290333	frochlich	0.000000
-4.387243	fross	0.000000
-4.086213	frost	0.000000
-4.688273	frsher	0.000000
-4.512182	fruch	0.000000
-4.387243	fruman	0.000000
-4.290333	frye	0.000000
-3.910122	fucks	0.000000
-4.387243	fugna	0.000000
-4.387243	fugua	0.000000
-4.512182	fulds	0.000000
-4.290333	full	0.000000
-4.688273	fulle	0.000000
-4.290333	fulton	0.000000
-4.387243	funk	0.000000
-4.290333	furk	0.000000
-4.387243	furley	0.000000
-4.211152	furner	0.000000
-4.688273	futrell	0.000000
-4.512182	fyle	0.000000
-4.688273	g2	0.000000
-3.947910	g3	0.000000
-4.688273	g8	0.000000
-4.688273	gabe	0.000000
-4.387243	gackill	0.000000
-4.688273	gadowski	0.000000
-4.512182	gage	0.000000
-4.387243	gager	0.000000
-4.290333	gaine	0.000000
-4.387243	gainer	0.000000
-4.387243	gaines	0.000000
-4.290333	galdberg	0.000000
-4.387243	galdman	0.000000
-4.512182	galdstein	0.000000
-4.211152	gales	0.000000
-4.387243	gall	0.000000
-4.688273	gallaghe	0.000000
-4.211152	gallaghen	0.000000
-4.035060	gallagher	0.000000
-4.688273	gallagle	0.000000
-4.512182	galley	0.000000
-4.387243	gallin	0.000000
-4.512182	galloway	0.000000
-4.035060	gamer	0.000000
-4.290333	games	0.000000
-4.512182	gant	0.000000
-4.211152	ganzales	0.000000
-3.989303	garcea	0.000000
-4.290333	garciay	0.000000
-4.387243	garcie	0.000000
-4.211152	garcin	0.000000
-4.144205	garcis	0.000000
-4.512182	gard	0.000000
-4.144205	gardan	0.000000
-4.387243	garden	0.000000
-4.512182	gardiner	0.000000
-4.688273	gardne	0.000000
-3.989303	garduer	0.000000
-4.387243	gare	0.000000
-4.688273	garee	0.000000
-4.387243	garga	0.000000
-4.512182	garl	0.000000
-4.035060	garley	0.000000
-4.086213	garman	0.000000
-4.086213	garner	0.000000
-4.512182	garrell	0.000000
-4.512182	garrette	0.000000
-4.290333	garrin	0.000000
-4.211152	garris	0.000000
-4.387243	garrison	0.000000
-4.290333	garsia	0.000000
-4.688273	garsman	0.000000
-4.144205	gart	0.000000
-4.086213	garther	0.000000
-4.387243	garton	0.000000
-4.387243	garver	0.000000
-4.512182	gass	0.000000
-4.688273	gasset	0.000000
-4.512182	gate	0.000000
-3.947910	gater	0.000000
-4.688273	gates	0.000000
-4.688273	gaudet	0.000000
-4.144205	gaut	0.000000
-4.086213	gautt	0.000000
-4.688273	gayden	0.000000
-4.688273	gayner	0.000000
-4.035060	geager	0.000000
-4.035060	gearge	0.000000
-4.688273	gearhart	0.000000
-4.512182	gebbart	0.000000
-4.688273	geele	0.000000
-4.211152	geen	0.000000
-4.688273	geer	0.000000
-4.688273	geig	0.000000
-4.688273	geller	0.000000
-4.688273	gempler	0.000000
-4.387243	genge	0.000000
-4.512182	genn	0.000000
-4.688273	gentili	0.000000
-4.211152	georg	0.000000
-4.688273	geouge	0.000000
-4.688273	gerbes	0.000000
-4.512182	gerger	0.000000
-4.211152	geron	0.000000
-4.387243	gerry	0.000000
-4.387243	gibbes	0.000000
-4.688273	gibbey	0.000000
-4.688273	gibbone	0.000000
-4.290333	gibbous	0.000000
-4.512182	gibbs	0.000000
-4.688273	gibles	0.000000
-3.910122	giffin	0.000000
-4.688273	giglotti	0.000000
-4.512182	gilch	0.000000
-4.688273	gildea	0.000000
-4.688273	gile	0.000000
-4.211152	giles	0.000000
-4.086213	gileson	0.000000
-4.144205	gill	0.000000
-4.512182	gillen	0.000000
-4.387243	giller	0.000000
-4.688273	gillert	0.000000
-4.688273	gilles	0.000000
-4.512182	gillesfie	0.000000
-4.387243	gillespie	0.000000
-4.512182	gilley	0.000000
-4.512182	gilliam	0.000000
-4.512182	gilliams	0.000000
-4.512182	gillin	0.000000
-4.512182	gillis	0.000000
-4.688273	gillland	0.000000
-4.688273	gillmon	0.000000
-4.290333	gills	0.000000
-4.211152	gilman	0.000000
-4.512182	gilmare	0.000000
-4.512182	gilmon	0.000000
-4.688273	gilmone	0.000000
-4.290333	gilmore	0.000000
-4.688273	gilmorer	0.000000
-4.290333	gines	0.000000
-4.688273	gisin	0.000000
-4.688273	gitchell	0.000000
-4.688273	gither	0.000000
-4.512182	gitler	0.000000
-4.688273	gitus	0.000000
-4.688273	glam	0.000000
-4.512182	glan	0.000000
-4.688273	glann	0.000000
-4.035060	glass	0.000000
-4.144205	glaver	0.000000
-4.211152	gleason	0.000000
-4.688273	gleen	0.000000
-4.211152	glen	0.000000
-4.211152	glenn	0.000000
-4.688273	gloner	0.000000
-4.688273	glood	0.000000
-4.512182	glover	0.000000
-4.086213	godd	0.000000
-4.688273	godein	0.000000
-4.290333	godwin	0.000000
-4.512182	goebert	0.000000
-4.144205	goedberg	0.000000
-4.512182	goff	0.000000
-4.688273	goggan	0.000000
-4.688273	goher	0.000000
-4.688273	goins	0.000000
-4.144205	gold	0.000000
-4.387243	goldberg	0.000000
-4.387243	golden	0.000000
-4.688273	goldie	0.000000
-4.211152	goldman	0.000000
-4.688273	goldsith	0.000000
-3.989303	goldstein	0.000000
-4.086213	goldsten	0.000000
-4.211152	gole	0.000000
-4.688273	golli	0.000000
-4.512182	gomer	0.000000
-4.035060	gomes	0.000000
-4.211152	gomey	0.000000
-4.144205	gones	0.000000
-4.035060	gongales	0.000000
-4.035060	gongaley	0.000000
-4.144205	gonzaler	0.000000
-4.387243	gonzales	0.000000
-4.688273	goodiin	0.000000
-4.688273	goodlellow	0.000000
-4.688273	goodlow	0.000000
-4.688273	goodmin	0.000000
-4.688273	goodne	0.000000
-4.688273	goodnon	0.000000
-4.688273	goodon	0.000000
-4.512182	goodrich	0.000000
-4.086213	goodwin	0.000000
-4.688273	gooke	0.000000
-4.387243	goracke	0.000000
-4.512182	gorcia	0.000000
-4.512182	gorczynski	0.000000
-4.086213	gorde	0.000000
-4.512182	gordin	0.000000
-3.843175	gordman	0.000000
-4.290333	gore	0.000000
-4.387243	gorge	0.000000
-4.086213	gorman	0.000000
-4.144205	gorner	0.000000
-4.035060	gornez	0.000000
-4.688273	gouce	0.000000
-4.290333	gougales	0.000000
-4.512182	gould	0.000000
-4.290333	gouzaley	0.000000
-4.211152	gouzalez	0.000000
-4.387243	gove	0.000000
-4.387243	gowell	0.000000
-4.211152	gra	0.000000
-4.688273	grable	0.000000
-4.211152	grace	0.000000
-4.144205	graff	0.000000
-4.290333	gragan	0.000000
-4.211152	grah	0.000000
-4.086213	grahan	0.000000
-4.512182	graher	0.000000
-4.688273	grames	0.000000
-4.387243	gran	0.000000
-4.211152	grand	0.000000
-4.688273	granee	0.000000
-4.144205	graner	0.000000
-4.387243	granes	0.000000
-4.290333	grange	0.000000
-4.144205	grans	0.000000
-4.086213	gras	0.000000
-4.144205	grase	0.000000
-4.512182	grasher	0.000000
-4.512182	grate	0.000000
-4.387243	grath	0.000000
-4.290333	grauger	0.000000
-4.688273	graut	0.000000
-4.211152	grave	0.000000
-4.144205	gravis	0.000000
-4.290333	grean	0.000000
-4.512182	greee	0.000000
-4.290333	greem	0.000000
-4.290333	greeman	0.000000
-3.989303	greenberg	0.000000
-4.290333	greene	0.000000
-4.211152	greener	0.000000
-4.144205	greer	0.000000
-4.387243	grees	0.000000
-4.290333	greey	0.000000
-4.211152	gregery	0.000000
-4.290333	gregg	0.000000
-4.211152	gregony	0.000000
-4.688273	gremaldi	0.000000
-4.144205	grene	0.000000
-4.688273	greser	0.000000
-4.688273	gress	0.000000
-4.688273	greubel	0.000000
-4.512182	greves	0.000000
-4.144205	grffin	0.000000
-4.512182	grice	0.000000
-4.086213	griffen	0.000000
-4.290333	griffie	0.000000
-4.144205	griflin	0.000000
-4.144205	grigg	0.000000
-4.512182	grimer	0.000000
-4.211152	grimes	0.000000
-4.512182	grin	0.000000
-4.387243	grine	0.000000
-4.086213	grines	0.000000
-4.512182	grinn	0.000000
-4.211152	groff	0.000000
-4.086213	groham	0.000000
-4.688273	gron	0.000000
-4.688273	grond	0.000000
-4.387243	grone	0.000000
-4.387243	gront	0.000000
-3.947910	groot	0.000000
-4.688273	gropp	0.000000
-4.688273	gross	0.000000
-4.688273	grossmon	0.000000
-4.290333	grove	0.000000
-4.512182	groves	0.000000
-4.688273	gruska	0.000000
-4.688273	gudaitis	0.000000
-4.688273	gueen	0.000000
-4.387243	guen	0.000000
-4.688273	guerry	0.000000
-4.512182	guertin	0.000000
-4.688273	gueth	0.000000
-4.688273	guffeth	0.000000
-4.144205	guffin	0.000000
-4.688273	guiffin	0.000000
-4.387243	guinn	0.000000
-4.688273	guire	0.000000
-4.144205	guller	0.000000
-4.512182	guly	0.000000
-4.688273	gumprecht	0.000000
-4.688273	gunnn	0.000000
-4.688273	gunnon	0.000000
-4.688273	gunta	0.000000
-4.512182	gurman	0.000000
-4.688273	guskin	0.000000
-4.387243	gust	0.000000
-4.211152	gustafson	0.000000
-4.290333	gustalson	0.000000
-4.290333	gustin	0.000000
-4.688273	guthrie	0.000000
-4.512182	guyott	0.000000
-4.387243	gyman	0.000000
-2.490992	h	0.000000
-3.843175	h1	0.000000
-3.710549	h2	0.000000
-4.512182	h3	0.000000
-4.290333	h4	0.000000
-4.688273	habbe	0.000000
-4.688273	hachnel	0.000000
-4.688273	hack	0.000000
-4.688273	hacker	0.000000
-4.387243	hackett	0.000000
-4.512182	hackins	0.000000
-4.290333	hadges	0.000000
-4.688273	hadock	0.000000
-4.211152	hadson	0.000000
-4.688273	haessly	0.000000
-4.387243	haffman	0.000000
-4.290333	hage	0.000000
-4.512182	hagen	0.000000
-4.688273	hagene	0.000000
-4.144205	hager	0.000000
-4.211152	hages	0.000000
-4.688273	haggis	0.000000
-4.290333	hagne	0.000000
-3.947910	hahn	0.000000
-4.144205	haines	0.000000
-4.512182	hair	0.000000
-4.688273	haitsma	0.000000
-4.512182	hake	0.000000
-4.688273	halch	0.000000
-4.035060	hale	0.000000
-4.211152	halen	0.000000
-3.989303	haler	0.000000
-4.144205	haley	0.000000
-4.387243	halfield	0.000000
-4.035060	halfin	0.000000
-4.688273	halifield	0.000000
-4.211152	halker	0.000000
-4.688273	hallaham	0.000000
-4.688273	hallamay	0.000000
-4.512182	hallan	0.000000
-4.387243	hallaway	0.000000
-4.512182	hallen	0.000000
-4.688273	hallenberger	0.000000
-4.688273	hallester	0.000000
-4.688273	hallmack	0.000000
-4.387243	hallman	0.000000
-4.387243	halloway	0.000000
-4.086213	halm	0.000000
-4.290333	halman	0.000000
-4.290333	halmer	0.000000
-4.512182	halt	0.000000
-4.688273	halter	0.000000
-4.688273	halton	0.000000
-4.512182	halvarson	0.000000
-4.512182	halverson	0.000000
-4.688273	haly	0.000000
-4.144205	haman	0.000000
-4.387243	hamen	0.000000
-4.387243	hamer	0.000000
-4.290333	hames	0.000000
-4.086213	hamillon	0.000000
-4.144205	hamitton	0.000000
-4.290333	hamkins	0.000000
-4.688273	hamley	0.000000
-4.387243	hamlton	0.000000
-4.512182	hamman	0.000000
-4.512182	hammand	0.000000
-4.211152	hammer	0.000000
-4.387243	hammergren	0.000000
-4.387243	hammon	0.000000
-4.688273	hamnrick	0.000000
-4.688273	hampler	0.000000
-4.086213	hampton	0.000000
-4.035060	hams	0.000000
-4.688273	hamson	0.000000
-4.512182	hamway	0.000000
-4.290333	hana	0.000000
-4.290333	hancoch	0.000000
-4.387243	hancock	0.000000
-4.387243	hand	0.000000
-4.512182	handen	0.000000
-4.512182	handerson	0.000000
-4.211152	handy	0.000000
-4.512182	hanen	0.000000
-4.144205	haner	0.000000
-4.512182	hanes	0.000000
-4.387243	haney	0.000000
-4.387243	hanis	0.000000
-4.387243	hank	0.000000
-4.290333	hanke	0.000000
-4.086213	hanley	0.000000
-4.035060	hanman	0.000000
-4.290333	hanmer	0.000000
-4.144205	hanmond	0.000000
-4.211152	hanna	0.000000
-4.290333	hanne	0.000000
-4.512182	hanner	0.000000
-4.211152	hannon	0.000000
-3.910122	hanns	0.000000
-4.144205	hanon	0.000000
-4.290333	hanris	0.000000
-4.290333	hanse	0.000000
-4.086213	hanser	0.000000
-4.211152	hansey	0.000000
-4.290333	hanson	0.000000
-4.387243	hanter	0.000000
-4.387243	hanton	0.000000
-4.211152	hapkins	0.000000
-4.512182	hara	0.000000
-4.211152	harden	0.000000
-4.688273	hardey	0.000000
-4.144205	hardin	0.000000
-4.688273	harding	0.000000
-4.512182	hardrick	0.000000
-4.211152	hares	0.000000
-4.512182	harey	0.000000
-4.211152	harfer	0.000000
-4.688273	harg	0.000000
-4.290333	harington	0.000000
-4.035060	haris	0.000000
-4.512182	harison	0.000000
-4.512182	hark	0.000000
-4.035060	harker	0.000000
-4.688273	harklerood	0.000000
-4.387243	harl	0.000000
-4.688273	harlan	0.000000
-4.387243	harma	0.000000
-4.144205	harman	0.000000
-4.688273	harmel	0.000000
-4.290333	harmon	0.000000
-4.512182	harne	0.000000
-4.290333	harns	0.000000
-4.290333	harp	0.000000
-4.290333	harpe	0.000000
-4.688273	harpert	0.000000
-4.290333	harren	0.000000
-3.989303	harres	0.000000
-4.387243	harrett	0.000000
-4.290333	harrey	0.000000
-4.211152	harrill	0.000000
-4.512182	harring	0.000000
-4.211152	harrington	0.000000
-4.211152	harriss	0.000000
-4.688273	harrls	0.000000
-4.290333	harrris	0.000000
-4.290333	harrs	0.000000
-4.688273	harrson	0.000000
-4.290333	hars	0.000000
-4.688273	harsen	0.000000
-4.688273	harshan	0.000000
-4.512182	harst	0.000000
-4.290333	harston	0.000000
-4.688273	hartenbower	0.000000
-4.512182	harter	0.000000
-4.688273	hartfelder	0.000000
-4.211152	harting	0.000000
-4.086213	hartings	0.000000
-4.387243	hartly	0.000000
-4.290333	hartman	0.000000
-4.688273	hartmay	0.000000
-4.290333	harty	0.000000
-4.512182	harvett	0.000000
-4.387243	hary	0.000000
-4.688273	haryn	0.000000
-4.688273	hasche	0.000000
-4.688273	hashell	0.000000
-4.387243	haskins	0.000000
-4.688273	hastad	0.000000
-4.688273	hastengs	0.000000
-4.512182	haster	0.000000
-4.688273	hastreiter	0.000000
-4.688273	hatchett	0.000000
-4.688273	hath	0.000000
-4.211152	hatt	0.000000
-4.387243	hatton	0.000000
-4.387243	hauch	0.000000
-4.211152	haucock	0.000000
-4.512182	haugh	0.000000
-4.688273	haughy	0.000000
-4.290333	hauk	0.000000
-4.086213	haukins	0.000000
-4.290333	hauley	0.000000
-4.387243	haurahan	0.000000
-3.989303	hause	0.000000
-4.290333	hauson	0.000000
-4.290333	havis	0.000000
-4.512182	haward	0.000000
-4.512182	hawe	0.000000
-4.086213	hawell	0.000000
-4.688273	hawkes	0.000000
-4.688273	hawkins	0.000000
-4.512182	hawley	0.000000
-4.512182	hawner	0.000000
-4.512182	hawson	0.000000
-4.512182	hay	0.000000
-4.290333	hayden	0.000000
-4.688273	haydt	0.000000
-4.144205	haye	0.000000
-4.688273	hayen	0.000000
-4.144205	hayer	0.000000
-4.688273	hayle	0.000000
-4.688273	hayler	0.000000
-4.290333	hayner	0.000000
-4.211152	haynes	0.000000
-4.035060	hays	0.000000
-4.688273	hayt	0.000000
-4.512182	hayword	0.000000
-4.290333	haze	0.000000
-4.144205	head	0.000000
-4.688273	heal	0.000000
-4.688273	healey	0.000000
-4.387243	healy	0.000000
-4.688273	hear	0.000000
-4.688273	heark	0.000000
-4.688273	hearse	0.000000
-4.290333	heary	0.000000
-4.512182	heater	0.000000
-4.512182	heath	0.000000
-4.512182	heatt	0.000000
-4.290333	hebert	0.000000
-4.290333	heck	0.000000
-4.290333	heckman	0.000000
-3.947910	hecks	0.000000
-4.688273	hedblom	0.000000
-4.688273	heed	0.000000
-4.512182	heel	0.000000
-4.086213	heffeman	0.000000
-4.688273	hegner	0.000000
-4.688273	heil	0.000000
-3.989303	hein	0.000000
-4.512182	heiner	0.000000
-4.211152	heing	0.000000
-4.387243	heins	0.000000
-4.688273	heiselman	0.000000
-4.688273	heister	0.000000
-4.688273	heitel	0.000000
-4.688273	helding	0.000000
-4.290333	hele	0.000000
-4.086213	helen	0.000000
-4.688273	helle	0.000000
-4.211152	hellen	0.000000
-4.211152	hellin	0.000000
-4.512182	hellman	0.000000
-4.290333	hells	0.000000
-4.688273	hellson	0.000000
-4.086213	helly	0.000000
-4.290333	helm	0.000000
-4.144205	helma	0.000000
-4.211152	helman	0.000000
-4.512182	helme	0.000000
-4.688273	helne	0.000000
-4.290333	helson	0.000000
-4.512182	helt	0.000000
-3.910122	helton	0.000000
-4.144205	heman	0.000000
-4.512182	hemander	0.000000
-4.211152	hemandez	0.000000
-4.512182	hemberg	0.000000
-4.688273	hemery	0.000000
-4.688273	hemingway	0.000000
-4.688273	hempleman	0.000000
-4.688273	hender	0.000000
-4.512182	hendersen	0.000000
-3.989303	hendrick	0.000000
-4.290333	hendricks	0.000000
-4.512182	henends	0.000000
-4.144205	henera	0.000000
-4.512182	henes	0.000000
-4.688273	heney	0.000000
-4.387243	hening	0.000000
-4.144205	henley	0.000000
-4.512182	henman	0.000000
-4.290333	henn	0.000000
-4.290333	hennedy	0.000000
-4.512182	hennery	0.000000
-4.512182	henning	0.000000
-4.512182	henon	0.000000
-4.387243	henry	0.000000
-4.688273	hensen	0.000000
-4.086213	henser	0.000000
-4.512182	hensley	0.000000
-4.688273	hent	0.000000
-4.688273	henter	0.000000
-4.688273	henton	0.000000
-4.688273	heny	0.000000
-4.290333	herbert	0.000000
-4.688273	herbey	0.000000
-4.688273	herd	0.000000
-4.290333	hereenda	0.000000
-4.144205	hereendo	0.000000
-4.688273	herek	0.000000
-4.144205	herenda	0.000000
-4.387243	herlends	0.000000
-4.387243	herley	0.000000
-4.387243	herman	0.000000
-4.512182	hermano	0.000000
-4.688273	herme	0.000000
-4.688273	hermle	0.000000
-4.290333	hern	0.000000
-4.290333	hernan	0.000000
-4.387243	hernandezy	0.000000
-4.688273	hernandy	0.000000
-4.512182	herner	0.000000
-4.211152	herr	0.000000
-4.290333	herring	0.000000
-4.512182	herron	0.000000
-4.290333	hers	0.000000
-4.688273	hersch	0.000000
-4.387243	herson	0.000000
-4.688273	hertin	0.000000
-4.688273	hese	0.000000
-4.688273	hess	0.000000
-4.688273	hest	0.000000
-4.211152	hester	0.000000
-4.688273	hestin	0.000000
-4.387243	heve	0.000000
-4.387243	hewett	0.000000
-4.211152	heyes	0.000000
-4.144205	hichman	0.000000
-4.290333	hicke	0.000000
-4.211152	hickey	0.000000
-4.290333	hickman	0.000000
-4.211152	hicky	0.000000
-4.290333	higgins	0.000000
-4.387243	hightomer	0.000000
-4.387243	hilbert	0.000000
-4.290333	hile	0.000000
-4.387243	hiles	0.000000
-4.144205	hill	0.000000
-4.144205	hille	0.000000
-4.387243	hilles	0.000000
-4.688273	hillison	0.000000
-4.211152	hillman	0.000000
-4.290333	hillon	0.000000
-4.688273	hills	0.000000
-4.387243	hilly	0.000000
-4.290333	hilt	0.000000
-4.512182	hilte	0.000000
-4.387243	hilton	0.000000
-4.512182	hinderson	0.000000
-4.144205	hine	0.000000
-4.211152	hines	0.000000
-4.290333	hing	0.000000
-4.211152	hinley	0.000000
-4.512182	hins	0.000000
-4.688273	hinsberger	0.000000
-4.688273	hinson	0.000000
-4.211152	hinton	0.000000
-4.688273	hired	0.000000
-4.512182	hirg	0.000000
-4.688273	hitzgerald	0.000000
-4.688273	hlll	0.000000
-4.387243	hoag	0.000000
-4.144205	hoas	0.000000
-4.512182	hoase	0.000000
-4.688273	hobden	0.000000
-4.144205	hochn	0.000000
-4.144205	hock	0.000000
-4.688273	hockberg	0.000000
-4.512182	hockett	0.000000
-4.387243	hodger	0.000000
-4.512182	hodsen	0.000000
-4.512182	hodson	0.000000
-4.512182	hoeltzel	0.000000
-4.512182	hoffer	0.000000
-4.688273	hoffie	0.000000
-4.512182	hoffman	0.000000
-4.211152	hoffmann	0.000000
-4.086213	hofkins	0.000000
-4.144205	hofman	0.000000
-4.688273	hoft	0.000000
-4.688273	hogane	0.000000
-4.512182	hogen	0.000000
-4.387243	holbrook	0.000000
-4.688273	holcomb	0.000000
-4.688273	hold	0.000000
-4.512182	holden	0.000000
-4.387243	holder	0.000000
-4.512182	holdman	0.000000
-4.086213	hole	0.000000
-4.688273	holer	0.000000
-4.512182	holes	0.000000
-4.211152	holey	0.000000
-4.688273	holf	0.000000
-4.688273	holing	0.000000
-4.512182	hollady	0.000000
-4.290333	hollan	0.000000
-4.512182	hollard	0.000000
-4.512182	holle	0.000000
-4.387243	holler	0.000000
-4.211152	holley	0.000000
-4.688273	hollidey	0.000000
-4.211152	hollin	0.000000
-4.512182	holloway	0.000000
-4.144205	holm	0.000000
-4.688273	holnes	0.000000
-4.688273	holschaw	0.000000
-4.290333	holson	0.000000
-4.688273	holt	0.000000
-4.387243	holton	0.000000
-4.688273	holzmiller	0.000000
-4.290333	homan	0.000000
-4.387243	homas	0.000000
-2.564421	home	0.000000
-4.387243	homer	0.000000
-4.512182	homes	0.000000
-4.211152	homilton	0.000000
-4.290333	hommond	0.000000
-4.211152	hompson	0.000000
-4.688273	homsley	0.000000
-3.910122	hone	0.000000
-4.144205	hones	0.000000
-4.387243	honsen	0.000000
-4.688273	honson	0.000000
-4.211152	hood	0.000000
-4.688273	hooker	0.000000
-3.910122	hoon	0.000000
-4.387243	hooner	0.000000
-4.387243	hooper	0.000000
-4.144205	hoover	0.000000
-4.512182	hophins	0.000000
-4.512182	hopkins	0.000000
-4.290333	hoppe	0.000000
-3.947910	hopper	0.000000
-4.512182	hord	0.000000
-4.387243	horden	0.000000
-4.512182	hordy	0.000000
-4.512182	hork	0.000000
-4.512182	horkins	0.000000
-4.035060	horn	0.000000
-4.688273	hornbostel	0.000000
-4.211152	horne	0.000000
-4.290333	horner	0.000000
-4.144205	horper	0.000000
-4.290333	horris	0.000000
-4.688273	horrison	0.000000
-4.387243	horry	0.000000
-4.387243	hort	0.000000
-4.387243	hortman	0.000000
-4.512182	horver	0.000000
-4.290333	horvey	0.000000
-4.387243	hory	0.000000
-4.688273	hoskie	0.000000
-4.035060	hoskins	0.000000
-4.144205	hoss	0.000000
-4.144205	hosteen	0.000000
-4.387243	hoster	0.000000
-4.688273	hoston	0.000000
-4.512182	hoteling	0.000000
-4.144205	houck	0.000000
-4.387243	houge	0.000000
-4.387243	hough	0.000000
-4.688273	houghton	0.000000
-4.688273	houglas	0.000000
-4.512182	house	0.000000
-4.512182	housen	0.000000
-4.688273	houser	0.000000
-4.290333	houston	0.000000
-4.144205	howald	0.000000
-4.290333	howath	0.000000
-4.035060	howe	0.000000
-4.512182	howel	0.000000
-4.512182	hower	0.000000
-4.290333	hown	0.000000
-4.290333	howvath	0.000000
-4.688273	howvatt	0.000000
-4.290333	hoxton	0.000000
-4.512182	hoye	0.000000
-4.688273	hoyem	0.000000
-4.512182	hoyes	0.000000
-4.387243	hoynes	0.000000
-4.290333	hoys	0.000000
-3.989303	hubbard	0.000000
-4.512182	huber	0.000000
-4.387243	hubert	0.000000
-4.387243	hubfard	0.000000
-4.512182	huches	0.000000
-4.387243	hudsen	0.000000
-4.144205	hudson	0.000000
-4.688273	huff	0.000000
-4.211152	huffman	0.000000
-4.688273	huffnagle	0.000000
-4.387243	huggins	0.000000
-4.387243	hugh	0.000000
-4.086213	hughe	0.000000
-4.512182	hughen	0.000000
-4.086213	hugher	0.000000
-4.512182	hughs	0.000000
-4.211152	hugles	0.000000
-4.512182	hugo	0.000000
-4.688273	huhner	0.000000
-4.211152	hulbard	0.000000
-4.688273	hulbner	0.000000
-4.512182	huller	0.000000
-4.688273	hulsiger	0.000000
-4.211152	hulson	0.000000
-4.144205	hulton	0.000000
-4.512182	humpbrey	0.000000
-4.211152	humphey	0.000000
-4.211152	humphrey	0.000000
-4.290333	hune	0.000000
-4.512182	hunler	0.000000
-4.688273	hunsicker	0.000000
-4.290333	hunt	0.000000
-4.688273	hunte	0.000000
-4.688273	hunz	0.000000
-4.211152	hurd	0.000000
-4.688273	hurdman	0.000000
-4.688273	huren	0.000000
-4.512182	hurley	0.000000
-4.688273	hurne	0.000000
-4.688273	hurris	0.000000
-4.512182	hurst	0.000000
-4.387243	hurton	0.000000
-4.688273	hurwich	0.000000
-4.688273	hushberger	0.000000
-4.512182	hust	0.000000
-4.144205	hutchenson	0.000000
-4.211152	hutcheson	0.000000
-4.290333	hutchins	0.000000
-4.688273	hutchinson	0.000000
-4.688273	hutnik	0.000000
-4.512182	hyle	0.000000
-4.290333	hyman	0.000000
-4.688273	hysen	0.000000
-4.688273	hysom	0.000000
-4.211152	ingram	0.000000
-4.512182	ingran	0.000000
-4.688273	installer	0.000000
-4.512182	instructor	0.000000
-4.211152	intosh	0.000000
-4.290333	intyre	0.000000
-4.688273	irene	0.000000
-4.688273	irey	0.000000
-4.512182	irsher	0.000000
-4.512182	irwin	0.000000
-4.688273	irwvin	0.000000
-4.387243	isaac	0.000000
-4.086213	isaace	0.000000
-4.512182	isaaco	0.000000
-4.688273	iuch	0.000000
-4.211152	iugram	0.000000
-4.387243	iuman	0.000000
-4.688273	iversen	0.000000
-4.211152	ivey	0.000000
-4.688273	iwain	0.000000
-4.387243	jacger	0.000000
-4.688273	jacke	0.000000
-4.387243	jacker	0.000000
-4.512182	jackett	0.000000
-4.512182	jackon	0.000000
-4.290333	jacksen	0.000000
-4.290333	jackso	0.000000
-4.688273	jacob	0.000000
-4.512182	jagnes	0.000000
-4.290333	jagues	0.000000
-4.290333	jahn	0.000000
-4.512182	jahnson	0.000000
-4.035060	jaines	0.000000
-4.688273	jair	0.000000
-4.512182	jake	0.000000
-4.211152	jally	0.000000
-4.688273	jame	0.000000
-4.688273	jamesson	0.000000
-4.512182	jams	0.000000
-4.688273	jancik	0.000000
-4.688273	jane	0.000000
-4.688273	janer	0.000000
-3.989303	janeson	0.000000
-4.211152	janett	0.000000
-4.688273	janis	0.000000
-4.688273	janison	0.000000
-4.688273	jank	0.000000
-4.512182	jankis	0.000000
-4.387243	janks	0.000000
-4.688273	jann	0.000000
-4.290333	jannary	0.000000
-4.387243	janner	0.000000
-4.035060	jannes	0.000000
-4.144205	jansen	0.000000
-4.290333	janson	0.000000
-4.211152	jardan	0.000000
-4.290333	jarnes	0.000000
-4.512182	jarrett	0.000000
-4.211152	jarris	0.000000
-4.035060	jarson	0.000000
-4.035060	javis	0.000000
-4.211152	jayce	0.000000
-4.290333	jayner	0.000000
-4.144205	jaynes	0.000000
-4.688273	jead	0.000000
-4.688273	jean	0.000000
-4.211152	jeck	0.000000
-4.387243	jecker	0.000000
-4.211152	jefferson	0.000000
-4.688273	jehle	0.000000
-4.688273	jene	0.000000
-4.512182	jenes	0.000000
-4.512182	jenhins	0.000000
-4.512182	jenison	0.000000
-4.387243	jenkens	0.000000
-4.211152	jenkin	0.000000
-4.688273	jennie	0.000000
-4.387243	jenning	0.000000
-4.688273	jenrich	0.000000
-4.387243	jenson	0.000000
-4.290333	jentry	0.000000
-4.512182	jerich	0.000000
-4.688273	jeringan	0.000000
-4.688273	jernell	0.000000
-4.512182	jerry	0.000000
-4.688273	jess	0.000000
-4.387243	jeter	0.000000
-4.512182	jewell	0.000000
-4.290333	jewis	0.000000
-4.387243	jhonson	0.000000
-4.512182	jickson	0.000000
-4.290333	jimenez	0.000000
-4.211152	jimmerman	0.000000
-3.910122	jines	0.000000
-4.387243	jink	0.000000
-4.290333	jinkins	0.000000
-4.688273	jinne	0.000000
-4.512182	jobin	0.000000
-4.387243	jock	0.000000
-3.910122	jockson	0.000000
-4.688273	jodan	0.000000
-3.910122	jodd	0.000000
-4.211152	joes	0.000000
-4.144205	joffe	0.000000
-4.688273	johannis	0.000000
-4.211152	johanson	0.000000
-4.086213	johe	0.000000
-4.144205	johen	0.000000
-4.387243	johman	0.000000
-4.688273	johne	0.000000
-4.144205	johnke	0.000000
-4.035060	johnn	0.000000
-4.086213	johnnson	0.000000
-4.290333	johns	0.000000
-4.290333	johnsen	0.000000
-4.512182	johnsom	0.000000
-4.512182	johnsonn	0.000000
-4.688273	johnsoon	0.000000
-4.290333	johnton	0.000000
-4.086213	johson	0.000000
-4.387243	joines	0.000000
-4.387243	jondan	0.000000
-4.211152	joness	0.000000
-4.688273	joney	0.000000
-4.211152	jong	0.000000
-4.512182	jonis	0.000000
-3.989303	jonnes	0.000000
-4.387243	jons	0.000000
-4.688273	jonsen	0.000000
-4.211152	jook	0.000000
-4.688273	jooley	0.000000
-4.688273	joones	0.000000
-4.290333	jord	0.000000
-4.512182	jore	0.000000
-4.290333	jores	0.000000
-4.688273	jorgenson	0.000000
-4.290333	jork	0.000000
-4.387243	jorman	0.000000
-4.688273	jornes	0.000000
-4.688273	jorr	0.000000
-4.512182	jorres	0.000000
-4.211152	jose	0.000000
-4.688273	josh	0.000000
-4.387243	joss	0.000000
-4.290333	jost	0.000000
-4.290333	joster	0.000000
-4.211152	joung	0.000000
-4.512182	joves	0.000000
-4.688273	jowne	0.000000
-4.211152	joyce	0.000000
-4.512182	joynes	0.000000
-4.688273	jren	0.000000
-4.688273	jseph	0.000000
-4.688273	juana	0.000000
-4.035060	juck	0.000000
-4.144205	jucker	0.000000
-4.688273	judd	0.000000
-4.512182	judkins	0.000000
-4.688273	judson	0.000000
-4.290333	juinn	0.000000
-4.688273	julia	0.000000
-4.688273	jullivan	0.000000
-4.290333	junn	0.000000
-4.512182	junp	0.000000
-4.211152	jurner	0.000000
-4.688273	jutila	0.000000
-4.290333	kach	0.000000
-4.387243	kachler	0.000000
-4.512182	kadon	0.000000
-4.211152	kahler	0.000000
-4.035060	kahn	0.000000
-4.688273	kain	0.000000
-4.688273	kaiser	0.000000
-4.144205	kale	0.000000
-4.512182	kaley	0.000000
-4.688273	kaller	0.000000
-4.688273	kalley	0.000000
-4.688273	kally	0.000000
-4.512182	kamer	0.000000
-4.688273	kammler	0.000000
-4.290333	kamp	0.000000
-4.688273	kaner	0.000000
-4.512182	kaney	0.000000
-4.211152	kanfman	0.000000
-4.688273	kangman	0.000000
-4.688273	kankin	0.000000
-4.290333	kant	0.000000
-4.512182	kaplan	0.000000
-4.688273	kapp	0.000000
-4.512182	karalus	0.000000
-4.512182	kare	0.000000
-4.688273	kark	0.000000
-4.387243	karker	0.000000
-4.512182	karland	0.000000
-4.211152	karper	0.000000
-4.512182	karren	0.000000
-4.211152	karser	0.000000
-4.688273	katy	0.000000
-4.387243	katz	0.000000
-4.290333	kaufman	0.000000
-4.290333	kaulman	0.000000
-4.688273	kaupert	0.000000
-4.387243	kause	0.000000
-4.290333	kayes	0.000000
-4.144205	kaylor	0.000000
-4.688273	keadley	0.000000
-4.688273	keage	0.000000
-4.144205	kean	0.000000
-4.290333	kear	0.000000
-4.387243	keasler	0.000000
-4.688273	keathly	0.000000
-4.387243	keck	0.000000
-4.387243	keel	0.000000
-4.688273	keele	0.000000
-4.688273	keeley	0.000000
-4.387243	keely	0.000000
-4.688273	keeman	0.000000
-3.813212	keen	0.000000
-4.290333	keenan	0.000000
-4.144205	keene	0.000000
-4.086213	keener	0.000000
-4.290333	keeney	0.000000
-4.688273	keer	0.000000
-4.387243	kees	0.000000
-3.947910	keese	0.000000
-4.290333	keeves	0.000000
-4.688273	kefalas	0.000000
-4.688273	kehlenbeck	0.000000
-3.989303	keid	0.000000
-4.211152	keiler	0.000000
-4.144205	keilly	0.000000
-4.688273	keine	0.000000
-4.290333	keiner	0.000000
-4.688273	keinze	0.000000
-4.688273	keirnan	0.000000
-4.688273	keis	0.000000
-4.688273	keiser	0.000000
-4.144205	keitz	0.000000
-4.688273	kele	0.000000
-4.688273	keler	0.000000
-4.387243	kellen	0.000000
-4.512182	kelsey	0.000000
-4.688273	kelson	0.000000
-4.688273	keman	0.000000
-4.688273	kemingway	0.000000
-4.688273	kemmerle	0.000000
-4.387243	kemp	0.000000
-4.387243	kemps	0.000000
-4.688273	kendrick	0.000000
-4.387243	kener	0.000000
-4.512182	keng	0.000000
-4.211152	kenler	0.000000
-4.512182	kenley	0.000000
-4.387243	kenn	0.000000
-4.688273	kennar	0.000000
-4.512182	kenndy	0.000000
-4.512182	kenne	0.000000
-4.290333	kenned	0.000000
-4.290333	kennedy	0.000000
-4.688273	kenneke	0.000000
-4.086213	kennely	0.000000
-4.688273	kennerd	0.000000
-4.290333	kennery	0.000000
-4.387243	kennett	0.000000
-4.688273	kenney	0.000000
-4.387243	kennie	0.000000
-4.512182	kenny	0.000000
-4.387243	kenp	0.000000
-4.688273	kensey	0.000000
-4.688273	kensley	0.000000
-4.290333	kenson	0.000000
-4.144205	kenter	0.000000
-4.290333	kentz	0.000000
-4.387243	keny	0.000000
-4.144205	kenzie	0.000000
-4.688273	kepka	0.000000
-4.512182	kerby	0.000000
-4.035060	kerk	0.000000
-4.387243	kerley	0.000000
-4.144205	kern	0.000000
-4.144205	kerner	0.000000
-4.144205	kerr	0.000000
-4.290333	kerry	0.000000
-4.211152	kers	0.000000
-4.688273	kess	0.000000
-4.144205	kessler	0.000000
-4.688273	kester	0.000000
-4.035060	key	0.000000
-4.387243	keye	0.000000
-4.387243	keyer	0.000000
-4.211152	keyes	0.000000
-4.512182	keymer	0.000000
-4.211152	kick	0.000000
-4.688273	kickbush	0.000000
-4.512182	kie	0.000000
-4.512182	kiehl	0.000000
-4.688273	kieler	0.000000
-4.512182	kight	0.000000
-4.688273	kildare	0.000000
-4.211152	kile	0.000000
-4.512182	kiler	0.000000
-4.290333	kiles	0.000000
-4.387243	kiley	0.000000
-4.688273	kille	0.000000
-4.512182	killer	0.000000
-4.387243	killey	0.000000
-4.512182	killiam	0.000000
-4.290333	killy	0.000000
-4.211152	kim	0.000000
-4.086213	kimbell	0.000000
-4.688273	kimbers	0.000000
-4.688273	kimerer	0.000000
-4.688273	kimmett	0.000000
-4.211152	kimp	0.000000
-4.688273	kin	0.000000
-4.688273	kinball	0.000000
-4.387243	kincard	0.000000
-4.688273	kinch	0.000000
-4.290333	kine	0.000000
-4.144205	kiner	0.000000
-4.387243	kiney	0.000000
-4.387243	kinge	0.000000
-4.211152	kinger	0.000000
-4.512182	kinkle	0.000000
-4.688273	kinley	0.000000
-4.688273	kinn	0.000000
-4.688273	kinne	0.000000
-4.211152	kinnedy	0.000000
-4.688273	kinner	0.000000
-4.290333	kinnie	0.000000
-4.035060	kinnon	0.000000
-4.387243	kinny	0.000000
-4.512182	kins	0.000000
-4.290333	kinsey	0.000000
-4.211152	kinstry	0.000000
-4.144205	kint	0.000000
-4.211152	kinton	0.000000
-4.086213	kinzie	0.000000
-4.290333	kirby	0.000000
-4.688273	kirhland	0.000000
-4.211152	kirk	0.000000
-4.688273	kirkland	0.000000
-4.688273	kirly	0.000000
-4.086213	kisher	0.000000
-4.290333	kissick	0.000000
-4.688273	kissie	0.000000
-4.688273	kithell	0.000000
-4.512182	kitter	0.000000
-4.688273	kitz	0.000000
-4.387243	kivera	0.000000
-4.512182	kivers	0.000000
-3.989303	klans	0.000000
-4.035060	kleen	0.000000
-4.387243	klei	0.000000
-4.387243	klein	0.000000
-4.688273	kleinmeyer	0.000000
-4.512182	klemm	0.000000
-4.290333	klene	0.000000
-4.688273	klenert	0.000000
-4.688273	klesel	0.000000
-4.512182	klin	0.000000
-4.290333	kloock	0.000000
-4.688273	klung	0.000000
-4.512182	knaff	0.000000
-4.688273	knapp	0.000000
-4.688273	knester	0.000000
-4.688273	kngh	0.000000
-4.035060	knig	0.000000
-4.144205	knight	0.000000
-4.688273	kniglt	0.000000
-4.688273	knipfel	0.000000
-4.512182	knipping	0.000000
-4.688273	knisely	0.000000
-4.688273	knot	0.000000
-4.211152	knowler	0.000000
-4.290333	knox	0.000000
-4.290333	knoy	0.000000
-4.688273	knutson	0.000000
-4.688273	koben	0.000000
-4.086213	koch	0.000000
-4.688273	kochman	0.000000
-4.290333	kochn	0.000000
-4.688273	kodani	0.000000
-4.512182	koeffler	0.000000
-4.512182	koff	0.000000
-4.387243	koffman	0.000000
-4.512182	kogan	0.000000
-4.688273	kogers	0.000000
-4.688273	kohlhaas	0.000000
-4.290333	kohn	0.000000
-4.688273	koll	0.000000
-4.688273	kollar	0.000000
-4.387243	kolle	0.000000
-4.290333	koller	0.000000
-4.387243	kollins	0.000000
-4.688273	kolloff	0.000000
-4.290333	kolt	0.000000
-4.688273	koman	0.000000
-4.512182	komer	0.000000
-4.086213	kooney	0.000000
-4.512182	kooutz	0.000000
-4.512182	kopka	0.000000
-4.290333	koplan	0.000000
-4.144205	kopp	0.000000
-4.512182	koppe	0.000000
-4.387243	kose	0.000000
-4.688273	kosinski	0.000000
-4.688273	kosta	0.000000
-4.688273	koster	0.000000
-4.211152	koth	0.000000
-4.512182	kotowicz	0.000000
-4.211152	kotz	0.000000
-4.688273	koug	0.000000
-4.512182	kouse	0.000000
-4.512182	kowe	0.000000
-4.688273	kowell	0.000000
-4.387243	koy	0.000000
-4.512182	kraff	0.000000
-4.387243	krame	0.000000
-4.144205	kramer	0.000000
-4.387243	krames	0.000000
-4.387243	krans	0.000000
-4.387243	krant	0.000000
-4.688273	kraps	0.000000
-4.512182	kraus	0.000000
-4.290333	krause	0.000000
-4.688273	krautman	0.000000
-4.512182	krautz	0.000000
-4.688273	kreeger	0.000000
-4.387243	kreger	0.000000
-4.688273	kreher	0.000000
-4.688273	kreitman	0.000000
-4.290333	krenger	0.000000
-4.688273	krenzke	0.000000
-4.290333	kright	0.000000
-4.688273	krimer	0.000000
-4.688273	krinble	0.000000
-4.211152	kring	0.000000
-4.688273	kringen	0.000000
-4.688273	krobel	0.000000
-4.688273	krogel	0.000000
-4.086213	kromer	0.000000
-4.688273	kropff	0.000000
-4.688273	kroun	0.000000
-4.512182	krouse	0.000000
-3.989303	krown	0.000000
-4.512182	krueger	0.000000
-4.512182	kruger	0.000000
-4.688273	krurger	0.000000
-4.290333	kuby	0.000000
-4.688273	kuca	0.000000
-4.512182	kucker	0.000000
-4.688273	kuffy	0.000000
-4.144205	kuhn	0.000000
-4.512182	kuitz	0.000000
-4.688273	kull	0.000000
-4.688273	kumble	0.000000
-4.290333	kunter	0.000000
-4.688273	kupferman	0.000000
-4.688273	kuppe	0.000000
-4.688273	kurner	0.000000
-4.086213	kurt	0.000000
-4.688273	kurten	0.000000
-4.688273	kurty	0.000000
-4.688273	kush	0.000000
-4.144205	kussell	0.000000
-4.290333	kuth	0.000000
-4.387243	kutz	0.000000
-4.688273	kuzak	0.000000
-4.290333	kyle	0.000000
-3.526905	la	0.000000
-4.387243	labelle	0.000000
-4.688273	laboer	0.000000
-2.840084	labor	0.000000
-2.816117	laborer	0.000000
-4.688273	labour	0.000000
-4.688273	labow	0.000000
-4.688273	lacay	0.000000
-4.211152	lacey	0.000000
-4.512182	lach	0.000000
-4.387243	lachan	0.000000
-4.387243	lack	0.000000
-4.211152	lacke	0.000000
-4.211152	lacker	0.000000
-4.290333	lackett	0.000000
-4.688273	lackey	0.000000
-4.512182	lackwood	0.000000
-4.688273	ladenberger	0.000000
-4.688273	lafleur	0.000000
-4.035060	lagan	0.000000
-4.290333	lagley	0.000000
-4.512182	lagrone	0.000000
-4.512182	lahe	0.000000
-4.688273	lainey	0.000000
-4.035060	lake	0.000000
-4.512182	laley	0.000000
-4.688273	lalie	0.000000
-4.688273	lalko	0.000000
-4.290333	lall	0.000000
-4.512182	lamar	0.000000
-4.387243	lame	0.000000
-4.387243	lamer	0.000000
-4.688273	lamona	0.000000
-4.688273	lamp	0.000000
-4.512182	lana	0.000000
-4.512182	lanchez	0.000000
-4.688273	lancock	0.000000
-4.211152	land	0.000000
-4.512182	lande	0.000000
-4.512182	landen	0.000000
-3.989303	landerdale	0.000000
-4.688273	landers	0.000000
-4.211152	landey	0.000000
-4.211152	landon	0.000000
-4.688273	landscaper	0.000000
-4.387243	landy	0.000000
-4.035060	laney	0.000000
-4.211152	lange	0.000000
-4.387243	langer	0.000000
-4.387243	lank	0.000000
-4.688273	lankfard	0.000000
-4.688273	lankin	0.000000
-4.512182	lann	0.000000
-4.688273	lanneau	0.000000
-4.211152	lanner	0.000000
-4.688273	lanon	0.000000
-4.688273	lanos	0.000000
-4.144205	lans	0.000000
-4.512182	lansford	0.000000
-4.035060	lant	0.000000
-4.290333	lanton	0.000000
-4.512182	lanty	0.000000
-4.290333	lany	0.000000
-4.688273	lapainte	0.000000
-4.512182	laper	0.000000
-4.688273	lapkin	0.000000
-4.688273	lara	0.000000
-4.688273	laray	0.000000
-4.211152	lard	0.000000
-4.387243	larey	0.000000
-4.688273	lari	0.000000
-4.512182	laris	0.000000
-4.290333	lark	0.000000
-4.512182	larken	0.000000
-4.387243	larkin	0.000000
-4.688273	larking	0.000000
-4.387243	larne	0.000000
-4.688273	larner	0.000000
-4.512182	larp	0.000000
-4.211152	larr	0.000000
-4.387243	larren	0.000000
-4.688273	larris	0.000000
-4.512182	larsen	0.000000
-4.144205	larson	0.000000
-4.688273	lary	0.000000
-4.086213	lason	0.000000
-4.512182	lasson	0.000000
-4.290333	late	0.000000
-4.688273	latimes	0.000000
-4.387243	laton	0.000000
-4.387243	latt	0.000000
-4.512182	laucaster	0.000000
-4.290333	laud	0.000000
-4.387243	lauge	0.000000
-4.688273	lauing	0.000000
-4.290333	lauis	0.000000
-4.688273	lauks	0.000000
-4.387243	launders	0.000000
-4.688273	launing	0.000000
-4.211152	laury	0.000000
-4.211152	laus	0.000000
-4.512182	lauson	0.000000
-3.989303	lautz	0.000000
-4.387243	lavage	0.000000
-4.688273	lavard	0.000000
-4.290333	laver	0.000000
-4.290333	lavey	0.000000
-4.688273	lavid	0.000000
-4.211152	lavin	0.000000
-4.688273	lavine	0.000000
-4.688273	lavn	0.000000
-4.512182	lawler	0.000000
-4.290333	lawrence	0.000000
-4.688273	lawrey	0.000000
-4.688273	lawry	0.000000
-4.512182	lawsen	0.000000
-4.211152	laxson	0.000000
-4.086213	laylor	0.000000
-4.688273	lazore	0.000000
-4.688273	lchman	0.000000
-3.627575	le	0.000000
-4.211152	leack	0.000000
-4.688273	lead	0.000000
-4.688273	league	0.000000
-4.512182	leal	0.000000
-4.211152	leaman	0.000000
-4.512182	lean	0.000000
-4.290333	leanard	0.000000
-4.688273	leanza	0.000000
-4.512182	lear	0.000000
-4.290333	leary	0.000000
-4.512182	leaton	0.000000
-4.211152	leay	0.000000
-4.688273	lech	0.000000
-4.144205	leck	0.000000
-4.512182	leclair	0.000000
-4.688273	lecomte	0.000000
-4.688273	ledoux	0.000000
-4.688273	leed	0.000000
-4.512182	leee	0.000000
-4.290333	leeis	0.000000
-4.688273	leel	0.000000
-4.688273	lees	0.000000
-4.211152	legan	0.000000
-4.688273	legy	0.000000
-3.989303	lehman	0.000000
-4.688273	lell	0.000000
-4.512182	lelly	0.000000
-4.387243	leman	0.000000
-4.512182	lemard	0.000000
-4.512182	lemis	0.000000
-4.688273	lemon	0.000000
-4.387243	lenard	0.000000
-4.211152	lene	0.000000
-4.387243	lenn	0.000000
-4.688273	lenson	0.000000
-4.290333	lent	0.000000
-4.512182	lenty	0.000000
-4.688273	leny	0.000000
-4.512182	leon	0.000000
-4.512182	leonard	0.000000
-4.688273	lepscomb	0.000000
-4.387243	leris	0.000000
-4.086213	leroy	0.000000
-4.290333	lerson	0.000000
-4.688273	less	0.000000
-4.688273	lester	0.000000
-4.688273	lethers	0.000000
-4.688273	letsche	0.000000
-4.290333	lettle	0.000000
-4.512182	letz	0.000000
-4.211152	leutz	0.000000
-4.512182	levake	0.000000
-4.387243	leve	0.000000
-4.688273	leveritt	0.000000
-4.144205	leverson	0.000000
-4.086213	levin	0.000000
-4.688273	levine	0.000000
-4.211152	levingston	0.000000
-4.688273	levinton	0.000000
-3.947910	levy	0.000000
-4.290333	lewe	0.000000
-4.211152	lewes	0.000000
-4.512182	lewin	0.000000
-4.387243	lews	0.000000
-4.211152	lewson	0.000000
-4.688273	lexine	0.000000
-4.512182	lich	0.000000
-3.989303	lick	0.000000
-4.688273	licky	0.000000
-4.688273	lield	0.000000
-4.387243	lightfort	0.000000
-4.290333	liley	0.000000
-4.512182	lillian	0.000000
-4.387243	lillie	0.000000
-4.387243	lilly	0.000000
-4.688273	linabury	0.000000
-4.688273	linch	0.000000
-4.387243	lind	0.000000
-4.211152	linder	0.000000
-4.688273	lindey	0.000000
-4.688273	lindgeen	0.000000
-4.144205	lindrey	0.000000
-4.144205	lindsey	0.000000
-4.211152	lindsoy	0.000000
-4.512182	line	0.000000
-4.688273	linely	0.000000
-4.512182	linemen	0.000000
-4.512182	liner	0.000000
-4.387243	lines	0.000000
-4.086213	linger	0.000000
-4.512182	lingley	0.000000
-4.512182	lingman	0.000000
-4.290333	linn	0.000000
-4.512182	lion	0.000000
-4.688273	lipez	0.000000
-4.688273	liscom	0.000000
-4.512182	lisher	0.000000
-4.290333	lister	0.000000
-4.688273	litch	0.000000
-4.144205	litle	0.000000
-4.688273	littl	0.000000
-4.387243	litz	0.000000
-4.688273	litzer	0.000000
-4.512182	litzman	0.000000
-4.387243	livera	0.000000
-4.512182	lloyd	0.000000
-4.688273	loase	0.000000
-3.989303	lock	0.000000
-4.290333	locke	0.000000
-4.290333	lodd	0.000000
-4.688273	lodl	0.000000
-4.512182	loff	0.000000
-4.290333	loland	0.000000
-4.290333	loley	0.000000
-4.086213	lombards	0.000000
-4.512182	lomp	0.000000
-4.512182	lona	0.000000
-4.512182	lonard	0.000000
-4.144205	londen	0.000000
-4.688273	londer	0.000000
-4.086213	london	0.000000
-4.290333	lone	0.000000
-4.512182	loner	0.000000
-4.211152	lones	0.000000
-4.387243	loney	0.000000
-4.290333	longe	0.000000
-4.035060	lonie	0.000000
-4.512182	lons	0.000000
-4.211152	lony	0.000000
-4.688273	loonard	0.000000
-4.035060	lopes	0.000000
-4.211152	lopezy	0.000000
-4.086213	lora	0.000000
-4.086213	lord	0.000000
-4.086213	lorensen	0.000000
-4.211152	lorenson	0.000000
-4.688273	lorenzana	0.000000
-4.688273	lorsch	0.000000
-4.512182	lorson	0.000000
-4.290333	loster	0.000000
-4.211152	loth	0.000000
-4.512182	loto	0.000000
-4.512182	lott	0.000000
-4.512182	loucher	0.000000
-4.688273	louda	0.000000
-4.512182	loug	0.000000
-4.387243	loughlin	0.000000
-4.512182	louis	0.000000
-4.688273	loung	0.000000
-4.512182	louther	0.000000
-4.688273	lovelace	0.000000
-4.688273	lovell	0.000000
-4.512182	lover	0.000000
-4.512182	lovey	0.000000
-4.512182	lovis	0.000000
-4.512182	lovo	0.000000
-4.144205	lower	0.000000
-4.512182	lowers	0.000000
-4.290333	lowery	0.000000
-4.387243	lowis	0.000000
-4.512182	lowler	0.000000
-4.387243	lownsend	0.000000
-4.688273	lowson	0.000000
-4.211152	loyd	0.000000
-4.512182	loyola	0.000000
-4.688273	lpscomb	0.000000
-4.512182	lubick	0.000000
-4.512182	lucas	0.000000
-4.688273	luch	0.000000
-4.688273	luchansky	0.000000
-4.512182	lucia	0.000000
-4.290333	luck	0.000000
-4.688273	luedthe	0.000000
-4.035060	lugo	0.000000
-4.512182	luke	0.000000
-4.688273	lukin	0.000000
-4.688273	lullen	0.000000
-4.387243	lune	0.000000
-4.512182	lung	0.000000
-4.688273	lurner	0.000000
-4.688273	lusker	0.000000
-4.688273	lutherford	0.000000
-4.688273	luthey	0.000000
-4.387243	lutz	0.000000
-4.387243	lyans	0.000000
-4.688273	lyberg	0.000000
-4.688273	lydston	0.000000
-4.512182	lyle	0.000000
-4.144205	lyler	0.000000
-3.813212	lyms	0.000000
-4.211152	lynch	0.000000
-4.387243	lynck	0.000000
-4.512182	lynett	0.000000
-4.688273	lynge	0.000000
-4.290333	lyns	0.000000
-4.688273	lyons	0.000000
-4.387243	lyson	0.000000
-4.290333	lytte	0.000000
-4.512182	m	0.000000
-4.688273	maasen	0.000000
-4.290333	mabley	0.000000
-3.484153	mac	0.000000
-4.688273	maccauley	0.000000
-4.688273	macdonald	0.000000
-4.211152	mace	0.000000
-4.512182	macgregor	0.000000
-4.512182	machan	0.000000
-4.688273	machens	0.000000
-4.211152	machey	0.000000
-4.688273	machinery	0.000000
-4.688273	machovec	0.000000
-4.688273	mackel	0.000000
-4.035060	macker	0.000000
-4.688273	macks	0.000000
-3.910122	maclean	0.000000
-4.512182	macleod	0.000000
-4.512182	macmartin	0.000000
-4.688273	macmillan	0.000000
-4.211152	macneil	0.000000
-4.688273	macwilliam	0.000000
-3.989303	madden	0.000000
-4.512182	maddex	0.000000
-4.688273	maddon	0.000000
-4.688273	madeson	0.000000
-4.387243	madina	0.000000
-4.387243	madley	0.000000
-4.688273	madock	0.000000
-4.512182	madsen	0.000000
-4.387243	maeller	0.000000
-4.512182	maffett	0.000000
-4.688273	magan	0.000000
-4.211152	mage	0.000000
-3.989303	magee	0.000000
-4.688273	magle	0.000000
-4.512182	magner	0.000000
-4.688273	magrino	0.000000
-4.086213	mahan	0.000000
-4.688273	mahaney	0.000000
-4.211152	mahe	0.000000
-4.387243	mahen	0.000000
-3.989303	mahler	0.000000
-4.688273	mahner	0.000000
-4.512182	mahon	0.000000
-4.290333	mahoney	0.000000
-4.387243	mahr	0.000000
-2.807459	maid	0.000000
-4.512182	maider	0.000000
-4.290333	make	0.000000
-4.035060	maker	0.000000
-4.688273	makon	0.000000
-4.144205	malane	0.000000
-4.290333	malaney	0.000000
-4.688273	malani	0.000000
-4.688273	malburg	0.000000
-4.688273	malcohn	0.000000
-4.387243	malen	0.000000
-4.688273	maler	0.000000
-4.688273	males	0.000000
-4.211152	maley	0.000000
-4.688273	maline	0.000000
-4.144205	malker	0.000000
-4.086213	mall	0.000000
-4.512182	mallace	0.000000
-4.290333	mallary	0.000000
-4.211152	mallay	0.000000
-4.512182	malley	0.000000
-4.387243	mallon	0.000000
-4.144205	malloy	0.000000
-4.688273	malone	0.000000
-4.086213	maloney	0.000000
-4.144205	malson	0.000000
-4.688273	maltin	0.000000
-4.688273	malton	0.000000
-4.512182	malvy	0.000000
-4.688273	mamer	0.000000
-4.211152	man	0.000000
-4.688273	manano	0.000000
-4.688273	mandaville	0.000000
-4.512182	mander	0.000000
-4.688273	mandie	0.000000
-4.387243	maners	0.000000
-4.211152	manes	0.000000
-4.688273	maney	0.000000
-4.688273	mangiaracina	0.000000
-4.688273	manich	0.000000
-4.211152	maning	0.000000
-4.387243	mank	0.000000
-4.387243	manley	0.000000
-4.290333	mann	0.000000
-4.512182	manne	0.000000
-4.688273	mannie	0.000000
-4.512182	mannin	0.000000
-4.290333	manning	0.000000
-4.688273	mannone	0.000000
-4.211152	manon	0.000000
-4.086213	mans	0.000000
-4.688273	manske	0.000000
-4.290333	manson	0.000000
-4.035060	mantgomery	0.000000
-4.211152	manton	0.000000
-4.688273	mantyla	0.000000
-4.211152	many	0.000000
-4.688273	manzey	0.000000
-4.211152	maore	0.000000
-4.688273	maory	0.000000
-4.290333	marales	0.000000
-4.086213	maran	0.000000
-4.688273	marburg	0.000000
-4.290333	marchall	0.000000
-4.688273	marcinak	0.000000
-4.387243	mare	0.000000
-4.688273	mareland	0.000000
-4.387243	marey	0.000000
-4.144205	margaret	0.000000
-4.512182	margas	0.000000
-4.211152	marguardt	0.000000
-4.086213	margues	0.000000
-4.688273	marguez	0.000000
-4.387243	marie	0.000000
-4.512182	marine	0.000000
-4.387243	marino	0.000000
-4.512182	marion	0.000000
-4.290333	maris	0.000000
-4.512182	marison	0.000000
-4.290333	marka	0.000000
-4.211152	marke	0.000000
-4.512182	markes	0.000000
-4.688273	markin	0.000000
-4.211152	marks	0.000000
-4.688273	marlborough	0.000000
-4.688273	marlen	0.000000
-4.688273	marles	0.000000
-4.290333	marley	0.000000
-4.144205	marlon	0.000000
-4.688273	marn	0.000000
-4.144205	maron	0.000000
-4.211152	marray	0.000000
-4.290333	marrell	0.000000
-4.512182	marren	0.000000
-4.512182	marriam	0.000000
-4.512182	marrie	0.000000
-4.211152	marrill	0.000000
-4.211152	marron	0.000000
-4.387243	mars	0.000000
-4.211152	marse	0.000000
-4.512182	marsey	0.000000
-4.512182	marsh	0.000000
-4.688273	marshal	0.000000
-4.290333	marshell	0.000000
-4.290333	marte	0.000000
-4.387243	marter	0.000000
-4.512182	marth	0.000000
-4.387243	martha	0.000000
-4.144205	marthews	0.000000
-4.211152	marti	0.000000
-4.688273	martindall	0.000000
-4.211152	martineg	0.000000
-4.688273	martiner	0.000000
-4.387243	martines	0.000000
-4.144205	martiney	0.000000
-4.211152	martinezy	0.000000
-4.387243	martino	0.000000
-4.688273	martinolich	0.000000
-3.910122	martins	0.000000
-4.387243	martinson	0.000000
-4.211152	martis	0.000000
-4.512182	martocci	0.000000
-4.086213	marty	0.000000
-4.512182	marvil	0.000000
-4.688273	marwitz	0.000000
-4.688273	mase	0.000000
-4.387243	maseley	0.000000
-4.290333	masen	0.000000
-4.512182	maser	0.000000
-4.086213	mases	0.000000
-4.512182	masey	0.000000
-4.086213	mash	0.000000
-4.512182	masha	0.000000
-4.211152	mashington	0.000000
-4.290333	mass	0.000000
-4.211152	massey	0.000000
-4.688273	massy	0.000000
-4.512182	masten	0.000000
-4.512182	master	0.000000
-4.512182	mastin	0.000000
-4.688273	mata	0.000000
-4.688273	matcumoto	0.000000
-4.035060	mate	0.000000
-4.512182	maten	0.000000
-4.211152	mates	0.000000
-4.086213	mathens	0.000000
-4.512182	mather	0.000000
-4.387243	mathes	0.000000
-4.512182	mathew	0.000000
-4.144205	mathie	0.000000
-4.290333	mathien	0.000000
-4.512182	mathis	0.000000
-4.211152	matin	0.000000
-4.290333	matley	0.000000
-4.512182	maton	0.000000
-4.512182	matone	0.000000
-4.512182	matos	0.000000
-4.688273	matox	0.000000
-4.688273	matrick	0.000000
-4.512182	matson	0.000000
-4.211152	matt	0.000000
-4.387243	matter	0.000000
-4.512182	mattes	0.000000
-4.688273	matthew	0.000000
-4.144205	mattie	0.000000
-4.290333	mattin	0.000000
-4.688273	mattis	0.000000
-4.086213	mattison	0.000000
-4.290333	matton	0.000000
-4.688273	mattoni	0.000000
-4.290333	mauchester	0.000000
-4.688273	mauhart	0.000000
-4.290333	maun	0.000000
-4.086213	maurer	0.000000
-4.387243	maus	0.000000
-4.211152	mausfield	0.000000
-4.387243	maver	0.000000
-4.688273	mavino	0.000000
-4.387243	maxey	0.000000
-4.512182	maxin	0.000000
-4.211152	maxley	0.000000
-4.387243	maxon	0.000000
-4.144205	maxwell	0.000000
-4.144205	may	0.000000
-4.688273	maydole	0.000000
-4.290333	maye	0.000000
-4.211152	mayee	0.000000
-4.144205	mayer	0.000000
-4.512182	mayers	0.000000
-4.688273	mayey	0.000000
-4.688273	maylor	0.000000
-4.688273	maynard	0.000000
-4.512182	mayner	0.000000
-4.387243	maynord	0.000000
-4.512182	mayo	0.000000
-4.144205	mayr	0.000000
-4.688273	mayus	0.000000
-2.535985	mc	0.000000
-4.688273	mcabee	0.000000
-4.144205	mcadam	0.000000
-4.688273	mcado	0.000000
-3.947910	mcadoo	0.000000
-4.387243	mcalee	0.000000
-4.144205	mcaleer	0.000000
-4.387243	mcalester	0.000000
-4.512182	mcalister	0.000000
-4.144205	mcallester	0.000000
-4.512182	mcalpine	0.000000
-4.512182	mcanally	0.000000
-4.211152	mcandrews	0.000000
-4.512182	mcarthy	0.000000
-4.387243	mcatee	0.000000
-4.144205	mcauliffe	0.000000
-4.387243	mcbain	0.000000
-4.086213	mcbeth	0.000000
-4.387243	mcbrayer	0.000000
-4.086213	mcbroom	0.000000
-4.387243	mcbude	0.000000
-4.144205	mcburney	0.000000
-4.512182	mccachren	0.000000
-4.688273	mccafe	0.000000
-4.387243	mccafferty	0.000000
-4.512182	mccaffery	0.000000
-4.387243	mccallister	0.000000
-4.211152	mccallough	0.000000
-4.387243	mccallum	0.000000
-4.512182	mccan	0.000000
-4.688273	mccanley	0.000000
-4.387243	mccard	0.000000
-3.989303	mccarley	0.000000
-4.688273	mccarly	0.000000
-4.387243	mccarmick	0.000000
-4.211152	mccarry	0.000000
-4.387243	mccart	0.000000
-4.387243	mccarter	0.000000
-4.211152	mccartley	0.000000
-4.035060	mccartney	0.000000
-4.035060	mccary	0.000000
-4.144205	mccaslin	0.000000
-4.688273	mccastle	0.000000
-4.688273	mccaughlin	0.000000
-4.387243	mccaun	0.000000
-4.387243	mccellan	0.000000
-4.688273	mcclaire	0.000000
-4.144205	mcclary	0.000000
-4.512182	mcclaskey	0.000000
-4.290333	mcclaud	0.000000
-4.512182	mcclay	0.000000
-4.688273	mcclean	0.000000
-4.290333	mccleary	0.000000
-4.086213	mcclelland	0.000000
-4.035060	mcclendon	0.000000
-4.688273	mcclhaney	0.000000
-4.387243	mcclintock	0.000000
-4.290333	mcclinton	0.000000
-4.688273	mcclorey	0.000000
-4.144205	mccloskey	0.000000
-4.211152	mccloud	0.000000
-4.211152	mcclroy	0.000000
-4.688273	mccluskey	0.000000
-4.290333	mccobe	0.000000
-4.290333	mccoll	0.000000
-4.512182	mccomb	0.000000
-4.290333	mccombs	0.000000
-4.688273	mcconaky	0.000000
-4.290333	mcconkey	0.000000
-4.512182	mcconn	0.000000
-4.387243	mcconnel	0.000000
-4.512182	mccordy	0.000000
-4.211152	mccorkle	0.000000
-4.290333	mccornick	0.000000
-4.144205	mccorthy	0.000000
-4.688273	mccory	0.000000
-4.387243	mccourt	0.000000
-4.512182	mccowan	0.000000
-4.290333	mccown	0.000000
-4.290333	mccraw	0.000000
-4.086213	mccrea	0.000000
-4.211152	mccreary	0.000000
-4.211152	mccrory	0.000000
-4.290333	mccue	0.000000
-4.290333	mcculler	0.000000
-4.512182	mcculley	0.000000
-3.843175	mcculloch	0.000000
-4.512182	mccullock	0.000000
